disclosure,0.183815,0.0287841,-0.11459,0.0593542,0.120091,-0.109092,0.0950215,-0.162166,0.115801,0.479465,0.05737,-0.181158,-0.0259823,-0.122936,0.0746403,-0.305832,-0.12286,0.0980423,-0.00212891,0.287596,-0.134423,0.110265,-0.0651048,-0.0122447,-0.0946693,-0.227161,0.0712096,0.0355348,-0.0750149,0.200698,-0.163228,-0.182443,-0.0542598,-0.0972656,-0.129185,-0.0587699,0.0572682,0.0477947,0.120071,-0.0146647,0.0516071,-0.0327388,-0.00178589,0.198025,-0.000636223,-0.0707688,0.0572458,0.0965748,0.0216288,0.218132
risk,0.0928642,-0.0563809,-0.00560042,-0.120322,0.0923434,0.130227,-0.0898816,-0.0569026,-0.0415743,0.1209,0.0189596,0.226063,-0.0758554,0.004644,-0.187809,0.0166169,-0.173222,0.169879,-0.357368,0.103395,0.076906,-0.087248,-0.0839557,0.0816327,0.0753153,-0.141072,0.151117,-0.128626,0.008205,0.0552106,0.0776154,-0.280632,-0.153159,0.0750463,0.0984957,-0.129133,-0.215815,-0.126482,0.0975854,0.0162589,-0.226851,-0.184706,-0.168372,0.314464,0.212514,-0.118202,0.270496,0.027142,0.0907885,-0.0510718
military,-0.235676,0.121782,-0.033829,0.0301599,-0.188113,-0.158757,-0.206211,0.189338,-0.10906,0.158713,-0.24813,-0.000681237,-0.274159,-0.23115,0.188311,0.0433128,-0.047346,0.290923,-0.304822,-0.0615086,0.122005,-0.233745,-0.301574,0.311065,-0.268018,-0.207637,-0.273039,-0.179396,0.1803,0.0689594,0.298898,0.215221,-0.22113,-0.293882,0.136147,-0.0502403,-0.334791,0.279789,-0.0935569,-0.301575,-0.294145,0.206062,-0.308258,0.254351,0.22082,0.0760982,0.0275382,0.0359251,0.389827,0.277537
source,-0.204789,0.0870341,0.0806883,-0.0209255,0.10005,0.0708026,-0.0420779,0.0744152,0.0299428,-0.0924453,-0.0928743,-0.100533,0.0709872,0.0130196,-0.20803,-0.0578938,-0.0108316,0.0420725,-0.100835,0.15865,0.114469,-1.55925e-05,-0.218587,0.151281,-0.118462,0.0777728,0.035737,-0.27882,-0.112369,0.346298,0.112757,-0.180642,-0.0485873,0.151312,0.108459,0.0294173,0.0184369,-0.0906786,0.241896,-0.0558337,0.121846,-0.0114324,-0.260184,0.179294,0.0661112,0.0932176,-0.0409495,-0.0209095,-0.0142895,0.35568
settle,-0.00979262,-0.23384,0.216434,-0.259789,0.12362,-0.159058,-0.146139,0.223101,-0.186142,-0.290927,0.147216,0.0854242,0.325225,-0.0254489,-0.00629779,0.25908,0.0278068,0.157703,0.286155,-0.191046,-0.212035,-0.145211,-0.13173,-0.058639,-0.0690173,-0.156087,0.129731,0.18909,-0.308769,0.18914,-0.342312,-0.110308,-0.293937,0.194958,-0.195393,-0.0430054,0.209184,0.151863,-0.142708,0.161965,0.152356,-0.0389992,0.0713687,0.269523,0.204617,-0.139066,0.00512481,-0.026318,-0.271219,0.0311413
upset,-0.0611852,0.272485,-0.18715,-0.324831,0.112395,0.277513,0.358552,-0.0359499,-0.166412,0.120563,0.212299,-0.0853994,-0.340493,-0.0581211,0.196894,-0.296083,-0.00483215,0.349873,0.0980081,-0.386111,-0.0388932,0.300452,0.115519,0.171628,0.257386,-0.34958,0.153896,0.220378,-0.195644,0.084726,-0.0097554,0.33747,-0.202575,0.117974,0.220901,0.243569,0.157017,0.177109,0.119678,0.218607,0.0344487,-0.216888,0.110984,-0.0859109,0.243815,-0.249698,0.2907,0.24478,-0.0575366,-0.23017
speculation,0.233869,-0.0642894,-0.0701006,0.0778094,-0.114021,0.261293,0.017591,-0.141608,0.133255,-0.103034,-0.117504,0.293713,0.125724,-0.0130392,0.0291542,-0.0821628,0.0601639,0.0569907,-0.137841,0.0279093,0.251519,0.161042,-0.0167501,0.0651305,0.11683,-0.138703,-0.0948588,-0.0467668,-0.133636,0.0185804,0.192084,-0.142592,-0.140752,-0.130159,0.12339,-0.223274,0.0482167,-0.125482,-0.264547,0.0120833,-0.209051,-0.195919,0.165395,-0.065792,0.115623,0.198545,-0.029284,-0.178819,0.239709,0.0391318
sway,-0.00110013,-0.164649,0.208466,0.0186226,0.00271534,-0.0239384,-0.150802,0.018139,0.0805913,0.172309,0.200682,-0.00323006,0.029417,0.130823,-0.352989,-0.0911473,-0.156694,-0.239913,-0.149527,0.0594626,-0.110664,0.230788,0.135979,-0.0206015,-0.282327,-0.0175145,0.0156717,0.101697,0.122091,-0.192114,0.0895606,-0.176351,0.0462662,-0.000286848,0.102518,-0.023953,-0.0231021,-0.00280613,-0.296969,0.0459876,-0.00330855,0.00229164,-0.0949498,0.335106,-0.0277863,0.266607,-0.0584573,-0.167975,0.0560011,0.0393752
$40,0.197882,0.291812,0.207422,0.111061,-0.348952,0.270057,-0.0313728,0.347979,-0.152051,-0.0331134,0.00138778,0.203234,0.233512,0.265022,-0.0753532,-0.126821,-0.193092,-0.0978054,-0.347588,0.0808171,-0.1159,0.19605,0.215974,-0.222665,0.224734,-0.296676,-0.0686367,-0.251179,0.299892,0.256246,-0.0264735,-0.0397876,0.124712,-0.267147,0.0114702,0.247507,0.0286313,-0.0788666,0.1941,0.0315794,0.251705,-0.0634524,0.00846791,0.306359,-0.129625,-0.294558,0.0745896,-0.22118,-0.0425707,-0.155425
hedge,-0.0607245,0.33393,0.281266,-0.0984653,-0.250925,0.066716,-0.154197,0.135016,0.0636156,-0.108418,0.30875,0.0241627,-0.0465746,0.0900816,-0.0513619,-0.160685,-0.295186,-0.197231,-0.0118631,-0.143122,0.231793,-0.176898,-0.284318,0.217577,-0.0589651,-0.0812708,0.180528,0.0950225,-0.219765,-0.0503143,-0.235546,-0.156973,-0.272017,-0.190587,-0.082269,-0.325344,-0.0758114,-0.0042185,-0.33854,0.00899847,-0.343973,0.254969,0.0303263,-0.0577978,-0.253394,-0.102489,-0.0659111,0.180149,-0.09096,0.220246
send,-0.109148,-0.131802,-0.148461,-0.124642,0.200386,0.301864,0.147764,0.103533,0.0920857,-0.00414569,-0.0245679,0.0314277,-0.123046,-0.0802256,-0.163118,-0.145996,-0.169144,-0.132898,-0.00753157,0.0276173,0.00707593,0.302915,0.0522537,-0.129385,-0.223922,0.159804,0.168845,0.173878,0.235799,-0.00670535,-0.111844,-0.121299,-0.0603294,-0.117606,-0.155356,4.72377e-05,-0.0482556,0.0108319,-0.171651,0.250669,0.0992359,-0.0408532,0.194372,0.185378,0.0461493,0.0525368,-0.263071,-0.0828691,-0.179523,0.0949866
list,-0.138533,-0.169959,0.0149274,-0.0275127,-0.0183992,0.146562,0.186704,-0.120631,-0.0363014,0.163492,-0.0420319,-0.0543721,0.173747,-0.105251,-0.147006,-0.397721,0.0608034,-0.135999,0.0860456,-0.12423,-0.00530188,0.0882862,-0.188476,0.146538,-0.263065,-0.116856,-0.038601,0.176591,0.0103073,0.139075,-0.206396,-0.236737,0.131468,-0.259312,-0.0905318,0.160332,-0.0714686,-0.0290044,0.232508,-0.10297,0.0652011,0.112491,-0.0665992,0.118103,-0.0560864,-0.0216298,0.0336008,0.0525171,0.125341,0.0481339
senior,0.179724,-0.251859,-0.0667131,-0.229516,-0.161773,-0.124142,-0.0457182,0.0475978,-0.0457787,0.232731,0.052677,0.189012,-0.0728239,-0.0176689,0.100069,0.158789,-0.247188,-0.068144,0.0352583,0.205747,-0.00362135,-0.101144,0.0753662,0.0325821,0.0383525,0.300304,-0.00614469,0.0662522,0.107515,-0.145756,-0.0607404,-0.0260442,-0.131619,-0.0255409,-0.168337,0.333337,0.125245,0.0090934,0.110898,-0.178497,-0.285372,-0.090325,-0.212034,0.00699154,0.137548,0.0850039,0.0802795,-0.118923,-0.210237,-0.269902
swap,0.0876679,-0.157991,0.0414273,0.0325989,-0.117478,0.142684,-0.013232,-0.049596,-0.0651165,0.321572,0.135867,0.284009,-0.0415402,-0.120217,0.258989,-0.312926,-0.089218,-0.116171,0.272878,-0.141535,0.121731,-0.0918465,-0.133749,0.0641635,-0.157301,0.107367,0.081897,-0.219836,-0.0164008,-0.14643,-0.11778,-0.053242,-0.379159,-0.119235,-0.0697394,0.0848276,0.0269706,-0.119184,-0.151583,0.153832,-0.0598582,0.096998,-0.174519,0.0635468,-0.0759595,0.0551062,0.119936,-0.0163019,-0.0825729,0.0320255
leave,-0.0626943,0.123047,-0.0357786,-0.341957,0.0183701,0.208323,-0.10335,-0.0544998,-0.121043,0.0470289,-0.16786,0.232172,-0.117177,-0.053595,-0.289845,0.179647,-0.113889,0.0691089,-0.0196439,-0.206118,-0.293939,-0.0202571,0.088704,-0.0607039,-0.186209,0.193162,0.0899347,0.149896,0.173089,-0.135201,0.0642264,-0.0957849,-0.0549875,-0.105113,-0.0275294,-0.113364,-0.0744157,0.0519508,-0.0738232,0.166947,0.0525731,-0.170218,0.0183444,0.111403,-0.120407,-0.215296,-0.21871,0.224871,-0.127113,0.11102
foes,0.036868,0.256418,-0.0896852,0.243227,0.304304,-0.266377,0.218475,0.00959081,-0.180013,-0.145309,-0.342765,-0.00353194,0.175999,0.168069,0.319414,0.219174,-0.227051,0.0484837,0.205203,-0.127593,-0.098065,0.319872,0.205196,-0.187582,-0.243036,0.22482,0.0517218,0.185336,-0.156735,0.26879,-0.289378,-0.17065,0.210334,-0.0321632,0.0149904,-0.137702,-0.259036,0.0521159,-0.135819,0.240537,0.0993275,0.325421,0.158288,-0.00818473,-0.0810431,0.331921,0.282395,-0.0483137,-0.163795,-0.123451
system,-0.0268921,0.270472,0.0481226,0.17437,0.185066,-0.0924152,0.0746976,-0.00330367,0.0238822,0.174829,-0.0440785,-0.0676063,0.0862071,0.0477123,-0.0509808,-0.0153256,-0.157361,0.141421,0.0172438,0.0680849,0.184477,-0.000643278,0.0342968,0.195875,-0.239195,0.12255,-0.0170882,-0.0141743,-0.0577348,0.0423034,0.0534203,-0.170697,-0.224773,0.0715477,0.00109989,-0.2565,-0.226744,-0.137118,0.0830603,0.106704,0.0690825,-0.0944504,-0.35343,0.281339,0.022824,-0.0407294,-0.0194677,0.0694789,0.0645284,0.233824
catalytic,-0.264795,0.0360403,-3.31697e-05,0.27551,-0.0985154,-0.279825,-0.218116,0.103315,0.232743,-0.176882,-0.1791,-0.0673918,-0.200119,-0.0504498,0.322048,0.196275,0.213077,-0.263513,0.234101,0.406224,-0.109042,0.219445,-0.036702,-0.0101199,-0.00981965,0.0165039,-0.0676122,-0.223869,0.356514,0.254153,0.389638,-0.303584,0.161494,-0.0740302,0.147769,0.0542708,-0.323618,0.188393,-0.132221,0.153754,0.350694,0.203349,-0.3404,0.052603,-0.357263,0.401051,-0.140739,-0.0579193,0.042336,-0.00655017
$120,-0.22127,-0.287709,0.150707,-0.192091,-0.241361,-0.0489736,0.228028,-0.263084,0.112529,-0.0425492,0.0184059,0.266825,0.216602,-0.331345,-0.101723,-0.000297265,-0.235864,-0.0664875,0.194434,-0.169456,0.100408,0.0783134,0.118463,-0.30404,0.192689,0.308029,-0.0927986,0.235909,0.119974,-0.0109928,0.262417,0.0109035,0.285753,-0.162771,0.284058,-0.0623866,0.149059,0.240446,-0.154466,-0.179757,0.346162,0.0109153,-0.32946,-0.37061,-0.216849,0.255591,0.0475865,-0.015437,0.303046,-0.154735
decide,0.099864,-0.00641549,-0.130003,-0.00106493,-0.223706,0.0973325,0.0541036,0.201886,-0.0247265,0.182135,0.254931,0.0171465,0.0154723,-0.0608211,-0.142045,-0.080165,-0.0397014,0.0729257,-0.0236693,0.0811909,0.217787,-0.11899,-0.125438,-0.170107,-0.043276,-0.0641814,0.119498,0.166042,0.130676,-0.0654698,0.012366,-0.0326052,-0.0127151,-0.0566649,0.0911246,-0.205345,0.120152,-0.222296,0.014103,-0.0347767,-0.0479324,-0.196636,0.063973,0.27879,0.0135985,-0.00300916,0.31174,0.264577,-0.0668938,0.339353
row,-0.102589,-0.0860966,0.00234197,-0.178058,-0.203813,0.173769,0.132664,-0.0467153,-0.160995,-0.219578,-0.0457938,-0.158819,0.182306,-0.0219477,-0.166302,-0.0933792,-0.00175924,-0.0116665,0.0702549,-0.346736,0.353539,-0.0643885,0.196702,-0.0798186,0.0382507,-0.147856,-0.13654,0.200802,0.0091355,-0.111095,0.15103,-0.191419,-0.104732,-0.0130223,-0.0348856,-0.0754245,0.0322413,0.144715,-0.0558628,-0.123526,0.0905212,-0.169485,0.239992,-0.170858,-0.111267,0.0545582,-0.0363944,0.178935,0.0546858,-0.0377088
gm,-0.128005,-0.0969612,0.288153,-0.213155,0.00966366,0.188044,0.234078,-0.185443,0.0142418,-0.132043,0.102374,-0.0955439,-0.206908,-0.0673211,0.0882144,0.18029,0.167061,-0.318447,0.232298,0.381954,-0.289254,0.178005,0.276779,0.10012,-0.146863,0.0249874,0.238328,0.027487,-0.0760034,0.0913366,0.336249,-0.158195,-0.109385,0.21684,-0.231404,0.167369,-0.32623,0.132185,0.0609183,-0.0645506,-0.172117,0.044652,0.211337,-0.253179,-0.245703,-0.258301,-0.0585218,-0.225875,-0.20214,0.162406
rose,0.261937,-0.109919,-0.275058,-0.237731,0.316859,0.311509,-0.246727,-0.0365243,0.125111,0.29851,0.167676,-0.228332,0.211762,0.323556,-0.169409,-0.179605,0.00834581,0.325478,-0.0570138,-0.229106,0.106966,0.0797433,0.251044,-0.31327,0.211188,0.15193,0.211336,-0.157181,0.067606,0.248442,-0.283905,0.0149634,0.145343,-0.149326,0.327922,-0.109396,0.339893,0.069429,-0.00702659,-0.0653861,-0.0119612,0.177513,0.205043,-0.00129156,-0.00729252,-0.224687,-0.219812,0.107154,0.217369,0.259539
skid,-0.124805,-0.0125076,-0.258277,-0.0215309,0.177463,0.00274425,-0.230088,-0.072772,0.109686,-0.14219,0.179316,-0.0579918,0.170089,0.110217,0.0649559,0.107371,-0.254683,0.297356,-0.0581111,-0.209749,0.0410182,-0.275497,0.057887,0.216739,0.192618,-0.196609,-0.118986,0.184811,-0.0253544,-0.149857,0.104167,-0.0880377,-0.175347,0.30387,-0.0228519,0.0771996,-0.0909101,-0.0770599,-0.0366961,-0.180111,0.295965,-0.351276,-0.111882,-0.104888,-0.0435875,-0.0140828,-0.230273,-0.0160787,-0.369536,0.0899778
follow,-0.0388774,-0.0165526,0.0111375,-0.0981595,0.143092,0.19611,-0.0883533,-0.177423,-0.00175917,0.135705,-0.0645887,0.0929004,-0.0933668,0.095071,-0.282278,-0.112898,0.0250951,-0.181061,0.0611456,0.000226627,-0.0632985,0.198612,-0.0747632,-0.273086,-0.129769,0.175274,0.148164,0.223853,0.173445,0.0309154,-0.262869,-0.189532,-0.109463,-0.0345863,-0.238801,0.0343971,-0.108052,0.0355937,-0.249209,0.153622,-0.0918166,0.0185444,0.301305,0.158071,-0.0172884,0.0408276,-0.0419953,-0.0330024,0.110487,0.110766
commercial,-0.0674529,-0.170668,-0.205467,-0.120064,0.0300917,-0.134085,-0.0432916,-0.317621,0.0110202,0.130271,-0.244741,0.191258,-0.0997887,-0.115707,0.00251841,-0.0424164,-0.0507266,0.0234954,0.148029,-0.0347828,0.201796,-0.176998,-0.0968212,0.40738,-0.194355,0.113777,-0.164855,0.128371,-0.162105,0.287728,-0.113447,0.0438786,-0.285528,0.199434,-0.0120623,-0.0433541,-0.181709,0.169204,-0.137276,-0.202479,-0.122072,0.0231211,-0.0858835,-0.0424518,0.266398,-0.135505,0.158034,0.0346532,-0.117195,-0.0430428
protest,-0.0737526,-0.425867,-0.206253,0.0602561,-0.110309,0.012574,0.1271,0.00239332,0.0570801,-0.00153603,-0.11474,-0.185918,0.0992699,0.106231,-0.115055,-0.144833,0.0708004,-0.0113852,0.0602308,0.120401,0.119624,-0.00922357,0.126476,-0.0622977,-0.246718,0.0845243,0.171271,0.0414375,-0.00588102,-0.136238,0.0988518,-0.13966,0.0450027,-0.0195142,0.149238,-0.126935,-0.0103449,-0.167104,0.0261716,0.135661,-0.10213,-0.12033,0.381117,0.146643,-0.0596668,-0.241582,-0.0862182,-0.111853,0.17198,0.028413
unrest,0.152436,0.0789682,0.0933798,-0.140873,-0.179523,-0.0235699,0.181274,-0.0570462,-0.183419,-0.186998,0.00585828,0.246298,0.0101531,-0.0370657,-0.243876,-0.249358,-0.102933,-0.280721,0.0750877,0.269883,0.0284775,0.194188,-0.0300125,-0.10619,0.312907,-0.22907,-0.0184608,0.268204,-0.127713,0.0234754,0.0830358,0.181713,-0.119674,0.233616,-0.169947,-0.0566788,0.275585,0.0987682,0.212705,-0.0960589,0.0810412,-0.336364,0.236704,-0.124607,-0.0303944,-0.0498086,0.02675,-0.0232454,0.00981957,0.250381
months,-0.136047,0.287413,0.0993055,-0.15447,-0.193677,0.0333174,-0.0997596,-0.231975,-0.201713,-0.086558,0.0545047,-0.0499846,-0.118853,-0.0021913,-0.0588931,0.145927,0.210869,0.234929,0.0438001,-0.11182,0.26955,-0.210491,-0.0154679,0.157604,0.00508743,-0.136834,0.0545253,0.0408686,0.0765633,0.237966,0.356726,-0.130257,-0.0855131,-0.0341285,0.134811,0.0177501,-0.0530778,-0.0342348,-0.0805203,-0.0546409,0.112509,0.00160337,0.148058,-0.0319955,0.0535248,-0.171711,0.16086,0.0192563,-0.192319,-0.111124
yellow,-0.0746458,-0.264013,-0.1201,-0.255095,-0.0621625,0.232984,0.221347,0.146552,-0.170056,-0.0891046,-0.17721,-0.115341,0.0725676,-0.0892646,-0.146671,-0.0993422,-0.14083,-0.0209218,0.109312,-0.427706,0.118065,-0.151392,-0.101464,-0.0795397,0.0773585,-0.111275,-0.0102427,-0.0172943,-0.257731,0.00221465,0.0263372,-0.141088,-0.0351273,-0.193447,-0.158567,-0.100594,0.0580974,0.00161561,0.149276,0.194987,0.0302095,-0.144456,-0.107228,0.108092,-0.0382332,-0.101681,-0.117533,0.0761837,0.0250564,0.0372697
consumer,0.29862,-0.291208,-0.108737,-0.263945,0.272757,0.144686,-0.31491,-0.282977,0.321192,-0.136727,0.117636,0.100104,0.138035,-0.2081,0.280348,0.239563,0.236801,0.133655,-0.147211,-0.0962138,-0.174566,-0.246745,-0.0692163,-0.119763,0.13781,0.224088,0.207254,0.158955,-0.24736,-0.261654,-0.114566,0.10628,0.0595666,0.258864,0.206606,0.137094,0.294591,-0.192183,0.257691,-0.101327,0.255751,-0.119702,-0.150582,-0.113994,0.183522,0.170887,0.10107,-0.263497,-0.237919,-0.118323
diesel,-0.2237,-0.0986867,-0.0718662,-0.00204314,-0.0737802,0.223824,0.00959596,0.0193799,0.0157826,-0.05732,0.057468,-0.0764081,0.101173,0.129822,0.0785997,0.0889775,-0.0791351,0.0414294,0.168148,-0.200439,0.134069,0.120743,-0.125233,0.242043,-0.124279,-0.00708662,-0.161744,-0.361005,-0.066131,0.217442,0.0564526,0.270564,-0.143978,0.0684428,0.169601,-0.0642807,0.184772,0.194138,0.14522,0.309585,-0.119,-0.248979,0.0363627,-0.0403453,0.179185,0.174074,0.170371,-0.041145,-0.109201,-0.0863736
edge,-0.0766514,-0.0856386,0.0922464,0.0225057,0.0583759,0.261622,-0.0821315,0.179145,-0.0762443,-0.0584914,-0.143841,0.0460757,0.101038,0.0644957,-0.193018,-0.0557378,-0.0354547,-0.015777,-0.0234575,-0.248474,0.22336,0.0334012,0.0803123,-0.107463,0.0481124,-0.0353073,-0.0269706,0.198708,0.163315,-0.0843735,0.0148557,0.0315654,-0.0315655,0.136491,0.0823002,-0.0498773,-0.100647,-0.0463217,-0.169662,-0.152262,0.0448298,-0.240009,-0.353548,0.282896,-0.0589177,0.165385,-0.221299,-0.0487559,0.14374,-0.005084
clean-up,0.0520395,-0.0251254,-0.23929,0.051232,0.349905,-0.0906258,0.0340071,-0.125544,-0.0706067,0.165734,-0.150558,0.0522199,0.0140601,-0.112979,0.0190805,0.156374,-0.204171,0.0881417,0.092631,0.302239,0.104183,0.038733,-0.266019,0.172736,-0.157678,-0.326686,0.183227,-0.0490387,-0.136515,0.0400012,-0.0427817,0.0794416,-0.209109,0.0748749,0.255074,0.0771989,-0.153653,-0.0193383,-0.0149597,-0.098389,-0.0626473,-0.0697334,0.21318,0.148235,0.132014,-0.0236677,-0.128188,0.00626172,-0.186653,0.280281
distant,-0.161444,-0.198106,0.0816472,-0.235236,0.00244525,0.0302302,-0.149157,-0.117141,0.0503316,-0.141592,0.19329,-0.0613274,0.179725,0.038524,-0.364055,0.143792,-0.144637,0.0159945,0.198214,-0.344605,0.0613375,-0.111144,0.0355189,-0.0100706,0.0325194,0.156765,0.217028,0.0378016,0.110348,-0.0586437,0.0732273,0.092218,0.0400744,0.137653,0.0737525,-0.132098,-0.273145,0.176782,-0.13343,-0.204011,0.115275,-0.0508683,-0.172354,0.112943,0.0566208,0.0948859,0.0448171,0.246379,0.16131,-0.0109213
maintenance,-0.143945,0.04601,0.0267611,-0.292107,-0.308426,0.188558,0.169354,-0.320055,-0.26156,-0.292036,-0.300576,-0.146108,-0.250316,0.185497,-0.185653,-0.226804,-0.0535147,0.0727288,0.133115,0.132813,-0.329406,-0.186193,-0.284731,-0.315993,-0.197436,-0.323926,-0.125644,-0.074085,0.290685,0.0389262,0.147853,0.134072,0.0534138,-0.0525605,0.0212569,-0.171806,-0.1537,-0.327701,-0.314471,0.284014,0.339077,-0.192954,-0.111373,-0.11263,-0.127709,-0.284472,-0.170077,-0.254628,-0.133802,-0.116671
favor,-0.174835,-0.0951727,0.0553736,-0.319526,-0.216356,0.0407708,0.310807,0.279556,0.272751,0.235809,0.331279,-0.281085,0.228334,0.174503,-0.214764,0.0356222,-0.122286,-0.0227357,0.24731,0.0742426,0.250872,-0.193409,-0.245469,-0.0540094,0.279868,0.100383,-0.181674,0.11755,-0.182034,-0.223306,-0.112276,-0.0142459,0.114275,-0.147538,-0.185934,-0.116952,0.317576,0.184246,-0.318525,0.0726088,0.158354,0.209016,0.23767,-0.0754172,-0.104277,0.17415,-0.0594046,-0.148156,-0.117393,0.110479
fate,0.0283538,-0.0668785,0.0688594,0.0640233,0.208188,-0.000888784,0.0249067,0.0853823,0.0812961,-0.0961848,0.150607,-0.0811018,0.14138,0.0511015,-0.270339,-0.208677,-0.0472955,-0.0210707,-0.152961,0.0721946,0.122754,-0.145799,0.0419109,0.0072686,-0.255786,-0.108488,0.15291,0.0288744,0.320739,-0.315377,0.0697985,-0.138864,-0.0538071,-0.0866369,0.0211797,-0.24021,-0.105034,0.161105,0.0568907,-0.0395645,0.0505084,-0.171725,-0.129058,0.100686,-0.138224,-0.0369118,0.0434652,-0.0172024,0.162144,0.273725
baton,0.161729,-0.177143,0.0534337,0.212156,0.136018,-0.222777,0.248013,-0.329601,0.109783,0.0562704,0.109617,-0.250341,-0.130987,0.195332,0.245374,-0.0779876,-0.205232,-0.0408196,-0.0359464,0.100267,-0.252117,0.0468385,-0.168298,0.0477493,0.0855177,-0.26961,0.00190879,-0.321552,-0.0247064,0.180396,-0.128104,0.304298,0.329531,-0.0255291,-0.209023,-0.0332805,0.00289744,0.278106,0.019541,-0.29389,0.0112576,0.227835,0.201712,0.0466352,-0.122938,-0.127809,0.148968,0.00692851,-0.251033,0.290361
fake,-0.271986,0.16297,-0.119358,-0.261193,-0.0965705,0.0371187,0.281596,-0.184718,-0.0543909,0.281191,0.0927285,-0.214782,0.04664,-0.305543,-0.1226,-0.285452,0.130729,-0.0886675,0.306981,0.332864,0.210194,-0.315532,0.154697,-0.166746,0.0371915,-0.229053,-0.000808285,0.114077,-0.0640146,-0.0135173,0.242257,-0.242931,0.297836,0.260713,0.024523,0.134609,-0.332673,-0.190132,0.233293,0.017415,0.30691,0.109952,0.0565565,-0.258594,-0.00470898,-0.223717,0.210306,-0.212876,-0.228525,0.0142747
candidates,-0.158854,0.00303928,-0.0158968,-0.0678225,-0.128134,0.028566,0.0719572,0.0783774,-0.0648256,0.197952,0.154281,-0.226299,0.170235,0.116417,-0.244956,0.0265114,0.28559,-0.041916,-0.119104,-0.0618659,0.0345643,-0.124864,0.0597755,-0.149815,-0.425157,-0.0794126,0.0755004,-0.0998274,0.0686761,0.0711526,0.174679,-0.261966,0.129955,-0.116487,0.0974233,0.0837956,0.0691256,0.144047,-0.01985,0.0316551,-0.213291,-0.227202,-0.186249,0.270437,0.0555494,-0.119874,-0.00540051,0.0590752,-0.0326414,0.107253
worst,-0.123533,0.126974,0.0634547,-0.178017,-0.0340694,-0.0165032,-0.00280433,-0.256108,-0.160624,0.15263,0.0380996,0.0492291,0.170565,0.0331692,-0.00399661,-0.0311017,-0.157915,0.215379,-0.0558331,-0.209505,0.118423,-0.249806,0.185314,-0.120854,-0.0734327,-0.101007,-0.0545244,-0.0866245,-0.303898,-0.0896697,-0.0723791,-0.0540167,0.0665777,0.132056,0.118665,-0.0568229,-0.315731,-0.093005,-0.112549,-0.156149,0.0361984,-0.147613,0.17764,-0.209436,0.0999043,0.108789,-0.190805,-0.0998041,0.212056,-0.172676
fall,0.10365,0.0990573,0.0714242,-0.214122,0.0144475,0.0113574,0.116938,-0.0500838,0.0711812,-0.0586966,0.127808,0.0401667,-0.162315,-0.131325,0.238132,-0.101099,0.128354,0.209984,-0.0343776,-0.202833,0.0327159,-0.185107,-0.0591083,-0.155373,-0.0530473,0.13125,0.0789871,0.243469,0.301742,0.145926,0.096315,0.00754072,-0.116422,-0.0323634,0.0890104,-0.114283,-0.111072,-0.0861546,-0.0912693,-0.0415771,-0.183733,-0.164211,-0.0412758,-0.00718454,-0.308604,-0.248351,-0.0980744,-0.122499,-0.110782,0.240125
governor,0.06522,-0.0698449,-0.0493949,0.176706,0.195118,0.0271287,0.239363,-0.133113,0.065652,0.0560079,0.120356,0.0358242,-0.0964852,0.00383488,-0.271637,-0.253847,-0.0664433,0.0596699,-0.0837946,0.0109634,0.0946237,0.0377925,-0.182368,0.0829428,-0.206961,0.0763947,0.141042,-0.187671,-0.213321,-0.00322547,0.377027,-0.113722,-0.0587222,0.0296616,-0.0113859,-0.107328,-0.102069,0.0351968,-0.314004,-0.0752026,0.0344824,-0.0790771,0.172881,0.0404642,-0.134487,-0.247174,0.0450849,-0.196371,-0.0356849,0.204181
10-year,0.222274,0.17471,0.0318052,-0.150121,0.22017,-0.0491405,-0.288002,-0.0721225,0.229985,-0.11856,0.111285,-0.0816214,0.2194,-0.0206103,0.250031,-0.230102,0.163754,-0.231408,-0.0676759,-0.303179,0.0610917,0.345639,-0.334196,0.138115,-0.245786,-0.118727,-0.23591,0.117975,-0.194895,-0.139372,0.33235,0.16443,-0.0859303,0.231219,0.165382,-0.182563,-0.369098,0.00588698,0.309518,-0.0723066,0.176812,0.0224749,0.253472,-0.135771,0.0986394,-0.210317,0.276838,-0.0880526,-0.222089,-0.225642
tankers,0.0492658,0.0993574,0.20159,0.196139,0.186707,0.301701,-0.309771,0.192803,0.143517,0.339954,-0.14144,0.287218,0.201225,0.220938,0.214632,0.116271,0.012799,-0.0718656,-0.323976,-0.208502,-0.171747,-0.117066,0.264923,-0.18994,0.148507,-0.266446,0.0322859,0.171896,-0.163551,0.106543,0.274182,-0.135894,-0.268934,0.304348,0.232844,0.30523,0.0948084,0.251605,-0.278364,0.0410005,-0.210203,0.177052,0.191017,0.297311,0.228207,0.174903,0.108788,0.105614,0.226158,-0.369815
five-year,0.0351546,0.00370922,0.0790469,-0.0192415,0.106897,0.267537,0.0525066,-0.0609305,-0.0303382,0.159892,0.118484,0.131936,0.156405,-0.370359,-0.0940015,0.0404352,0.0997582,-0.0516019,0.220575,-0.203089,-0.0845434,-0.168613,-0.0400848,0.016347,-0.0368761,0.145821,0.123114,-0.170539,-0.0504516,0.0805176,0.159169,0.0623151,-0.178196,-0.098657,-0.168039,-0.0249837,0.225878,-0.0653554,-0.191597,0.0643419,0.210409,-0.118548,0.100663,-0.2007,-0.049841,-0.151954,0.224137,-0.157781,-0.181518,-0.161476
blast,-0.220337,-0.232622,-0.114701,-0.0236026,0.0523478,-0.118302,0.16868,-0.0998429,-0.0679148,-0.20497,-0.233388,0.00216401,0.206408,-0.12647,-0.00110206,0.182215,-0.193528,0.055421,0.185983,0.0629521,0.280745,0.149359,-0.0669314,-0.0172839,-0.246615,-0.370204,0.0407326,0.112243,0.0512025,-0.105405,0.00633309,-0.0203265,0.101615,-0.0459858,0.22328,-0.244079,-0.0769888,-0.0788536,0.11832,0.0188252,0.116829,-0.116677,0.18806,0.0419722,0.0380401,-0.0422011,0.0982625,-0.0473971,0.0116622,0.142453
fade,0.0865079,-0.01292,-0.010052,-0.210927,0.0543256,0.101469,-0.149353,-0.113904,0.237919,-0.298687,0.0432471,0.0827809,-0.148453,-0.0962958,-0.250834,0.156909,-0.0959002,-0.105961,0.0150236,-0.0376139,0.0164904,0.0200743,0.045572,-0.167003,-0.0470438,-0.101056,0.0906191,0.0986991,0.143389,0.0783206,0.0345588,-0.0781345,-0.136226,0.349274,0.0250202,0.229055,-0.144205,0.0760293,-0.300548,0.130709,-0.0389683,-0.181172,0.0686565,-0.0754109,-0.0775204,0.0701326,-0.180851,0.100217,0.149745,-0.00610391
cool,0.0136121,-0.113441,0.199271,0.0459424,0.0927652,-0.0617291,-0.152321,-0.0300593,0.232784,-0.346647,-0.0177524,0.138223,-0.0368884,0.152369,-0.329037,-0.103268,-0.0906439,0.0488871,0.251942,0.148339,0.127563,0.183776,-0.0409116,-0.0310016,0.116634,-0.00403451,-0.0160427,0.0729284,-0.243078,0.021476,0.0622103,-0.0750758,-0.0666662,0.0856051,0.0324045,0.130523,-0.310193,-0.1259,-0.211085,0.161689,0.117491,-0.196381,0.24824,0.0381652,-0.0726272,0.255553,-0.16981,-0.103288,0.400562,-0.0418565
three-day,0.111903,0.0192244,-0.0981413,0.0691975,-0.10249,0.21283,0.134843,-0.144635,-0.0890345,0.00186954,-0.00695931,-0.0162227,0.311669,-0.0377355,-0.00881695,-0.00573445,0.177198,-0.0254921,-0.0389804,-0.167416,0.0315037,-0.0365445,0.100161,0.00477151,0.161339,-0.0553168,0.0656122,-0.158746,-0.0976695,-0.0740058,0.349998,-0.0238985,0.0740818,-0.0421435,0.0704149,-0.179357,0.133524,-0.195802,-0.169397,-0.0547777,0.00215569,-0.0169947,0.278812,-0.179766,0.00606461,-0.0143691,-0.285923,-0.0983673,0.0718483,-0.00728364
dim,0.117807,-0.0820562,0.0635589,-0.254904,-0.14951,-0.10206,-0.20085,-0.122536,0.10685,-0.117173,0.306315,0.121184,-0.0760912,-0.201797,-0.242257,-0.0991379,-0.140157,-0.150231,0.145449,-0.182163,-0.202963,-0.21913,-0.225509,-0.11772,0.181683,0.143006,0.0442124,0.0800499,-0.141138,0.0426011,-0.0384284,0.131417,-0.0197906,0.157419,-0.0728302,0.179179,-0.123895,-0.095075,-0.0538564,0.0603051,0.2583,-0.00403447,-0.087399,-0.00628869,0.14965,-0.00906051,-0.23403,0.0729089,0.190804,0.0414285
impact,0.0756267,0.000600191,0.0084691,0.141975,0.124987,0.120223,-0.16983,0.0266018,0.120502,0.104886,-0.050207,0.211064,-0.135454,-0.0221727,-0.107446,0.0875445,-0.298343,-0.0317149,-0.26264,-0.108304,-0.189433,0.146286,-0.315272,-0.0346069,-0.00658061,-0.201271,0.0213319,-0.077286,0.205007,0.132177,0.051247,-0.427827,-0.133577,0.187879,-0.0585886,0.142552,-0.263799,-0.0765253,0.025147,0.0128786,0.127192,-0.0418232,-0.00389531,0.171402,0.0860135,0.0633708,0.0245029,0.282497,0.00794371,0.113376
upbeat,0.046373,-0.0642781,0.0670356,0.0651434,-0.319033,0.107333,-0.235783,-0.100386,0.0921853,-0.220783,0.135574,0.0122784,-0.0483675,0.0265917,-0.261955,-0.0240087,-0.322047,-0.0304588,-0.0521911,0.00182741,-0.227906,0.0342172,0.120899,-0.300971,0.129984,-0.166444,-0.0309595,0.158068,0.0159347,0.0873526,-0.128972,-0.0500779,0.169735,0.126862,-0.0747038,0.170553,-0.0596516,-0.0103009,0.0221758,-0.336523,0.170378,0.00747769,-0.171267,0.009672,0.278485,0.106427,-0.104376,0.0184959,0.0447135,-0.0868407
guns,-0.06023,-0.202443,-0.199655,-0.0437037,-0.00640174,-0.0424767,0.0806158,-0.11852,0.207011,0.0490697,-0.267268,-0.199862,0.233547,0.15554,0.012339,-0.0869834,-0.134864,0.0716218,0.0835776,-0.168775,0.248689,0.0581452,-0.0979241,-0.0642174,-0.17229,0.0317057,0.188318,-0.104549,-0.128338,0.0986581,-0.0256279,0.0943438,0.170279,-0.0287466,-0.155563,-0.12302,0.214495,0.186723,-0.0389726,-0.0277064,-0.0660221,-0.102192,-0.0784438,0.365562,0.0306586,-0.205103,-0.0455008,-0.0953731,0.0567638,-0.0954494
defense,0.213924,-0.0672617,-0.0155851,0.112649,-0.184489,-0.0257655,-0.0739478,-0.248648,0.0579657,-0.111223,0.193341,-0.29538,0.0755194,0.0297872,0.0484059,-0.0502591,0.329236,0.0570537,-0.233777,-0.2815,-0.270259,-0.0362635,-0.00542462,-0.0529892,0.354552,-0.250928,0.122778,-0.103795,-0.211916,-0.0341197,-0.190493,-0.000719799,-0.26381,0.215456,0.0995426,0.144259,-0.214566,0.0898763,0.198149,0.00953251,-0.194152,-0.137688,-0.107359,-0.135663,-0.0770705,0.0474513,-0.283358,-0.245113,0.18696,0.206766
sands,-0.149164,0.0941348,-0.0195895,-0.0948711,0.0559256,-0.0732041,-0.122352,0.15845,-0.010263,0.0506433,-0.0191829,-0.220181,0.189618,-0.0410876,-0.157327,0.0186557,-0.15758,-0.0788805,-0.023934,0.118372,-0.0716137,0.148574,-0.215981,0.0583793,0.0381533,-0.208221,0.127713,-0.0988133,-0.0695105,0.146293,0.179496,0.109783,0.0935402,0.281325,0.325382,-0.139609,0.0104196,0.0684636,-0.0469489,0.26519,-0.145513,-0.0422954,-0.220494,0.0662341,0.314431,0.168882,0.155118,0.22162,0.0706938,0.192096
stumbles,-0.0969623,-0.0558146,0.00349847,-0.121569,-0.0554277,0.276387,-0.156255,0.132895,0.125551,-0.0209766,0.143947,0.081758,-0.0604615,-0.00619907,-0.310513,0.104667,-0.070181,-0.167742,-0.139855,-0.0597319,-0.171807,-0.0991567,0.141763,0.0967549,-0.105609,-0.10797,-0.1647,0.187546,0.240147,-0.071261,0.152979,-0.048623,-0.091074,0.126259,0.326205,-0.147698,-0.175832,0.151148,-0.0370397,-0.21081,-0.0517485,-0.169536,-0.17136,0.156142,0.0769928,0.00893726,-0.135121,0.110674,0.0686783,0.139361
unearth,-0.0831203,-0.0011998,0.162034,-0.42191,0.231389,-0.182583,-0.239056,-0.0624399,0.204492,0.147152,-0.0728935,-0.0131422,0.128505,-0.0286113,-0.126507,0.113412,-0.0694515,-0.212757,0.114875,0.0120883,0.000298105,0.304228,-0.096451,0.00997106,-0.0457803,-0.0856028,0.106008,0.20337,0.24026,0.0273515,-0.0366519,-0.193833,-0.15659,-0.0965395,-0.0712116,0.031177,0.0786653,0.044106,-0.0374253,-0.102554,0.144244,0.0508656,0.089407,0.15027,0.013141,-0.0136762,0.0269179,-0.0186973,0.0605664,0.0160166
team,-0.189652,-0.0330243,0.166409,-0.122367,-0.0781003,0.0330503,0.346737,-0.107573,0.0595892,0.181855,-0.0398511,-0.00766634,0.213128,0.128079,-0.0183098,-0.0117933,0.165743,-0.218771,0.130494,0.156867,0.209977,-0.0547885,0.194158,0.0441291,0.126695,-0.200388,0.135796,0.0161021,0.0206163,-0.187709,-0.0750403,0.00595375,0.008809,0.0880999,-0.138783,0.0892807,-0.175189,0.0848705,0.0134622,-0.204079,-0.104562,-0.00972308,-0.152251,0.00788721,-0.185627,0.0284738,-0.00979793,0.103001,0.0167079,0.307519
quick,0.345922,-0.0566538,-0.0263572,-0.0232292,0.00970979,0.00886263,0.0307143,-0.0163976,0.276554,-0.00409801,-0.0788214,0.0952582,-0.00559254,0.0610923,-0.242425,0.0602453,-0.0502696,-0.234887,-0.0350939,-0.0789523,-0.125965,-0.051336,0.10908,-0.202118,0.0351271,0.0433347,0.197881,-0.0784901,0.133952,-0.0598171,-0.00142987,0.0691891,-0.0111411,0.171569,-0.0287124,-0.230036,0.0779647,0.127687,-0.0582612,-0.197192,0.0930945,-0.269103,-0.0509865,0.30631,-0.0135346,0.0979536,-0.210171,0.231126,0.25933,0.0728754
dive,-0.0744719,0.0147167,-0.0246972,-0.437055,0.39129,0.182689,0.123923,-0.0449834,0.227923,0.0536351,-0.273751,0.0399457,0.0894471,-0.0262438,0.00399362,0.0366714,-0.042483,0.107362,0.201781,-0.260022,0.0992864,-0.0832773,0.0685678,0.127296,-0.100477,0.0379587,0.0189959,0.164025,0.0720067,-0.125004,-0.0412887,-0.0689695,0.0415736,0.0518444,0.167172,-0.0203743,0.0636973,0.103117,0.0274821,-0.0751925,-0.0135369,0.115755,0.234288,0.0514235,0.283701,-0.0385771,0.0272261,0.247206,0.0372216,-0.16233
choppy,0.102535,-0.143245,0.117837,0.108303,-0.18207,-0.286685,-0.0771987,-0.0700093,0.175753,-0.0472206,0.0497944,0.230299,-0.0727709,0.0348757,-0.0654532,0.11288,-0.201837,-0.142455,0.0882752,-0.174345,-0.0516154,-0.0192541,0.0979341,-0.204913,0.169838,-0.260595,0.130296,0.00733754,0.101674,0.124551,0.0193514,0.0935154,0.0138538,0.185478,0.0422343,0.0474516,-0.0720185,-0.141747,-0.117657,-0.0860304,-0.0372964,-0.00524039,-0.198777,-0.189737,0.228441,0.156891,-0.0521104,0.234901,0.139059,-0.11104
dip,0.195616,0.0869905,-0.0133533,-0.257288,-0.108373,-0.0397435,0.0554232,0.133774,-0.0467067,-0.272759,0.0830856,-0.00366786,-0.0861083,-0.0486121,0.0905414,-0.0944368,-0.0600419,0.098564,-0.033119,-0.0682723,0.146756,0.00765047,0.0708645,-0.159705,-0.0522502,-0.0965431,0.0555516,0.150178,0.167065,0.238865,-0.09541,0.0795717,0.245286,0.275708,0.156629,-0.00343517,0.0809736,0.0454796,-0.0872886,0.0012612,-0.0984735,-0.179796,-0.0167299,-0.257308,-0.114137,0.071636,-0.126883,0.190723,0.00736674,-0.133898
straight,0.0120337,0.0506069,0.114129,-0.130428,-0.210648,0.307882,0.0620862,-0.118988,-0.20665,-0.144565,0.0752879,-0.0477801,0.0992593,-0.0647754,-0.00191134,-0.187507,0.0929106,-0.0665226,-0.0801025,-0.245646,0.264302,-0.0339584,0.0828243,0.0115615,0.229121,-0.115458,-0.147228,0.115359,-0.187488,-0.115753,0.11889,-0.194814,-0.140664,0.0778336,-0.0441594,0.0204181,0.0836902,0.0691232,-0.178923,0.0183854,0.116794,-0.187865,0.295486,-0.227916,-0.112562,0.136022,-0.177549,0.0283107,-0.0335034,-0.0699409
correction,0.064008,-0.021531,0.12874,0.029119,-0.109485,-0.18352,-0.0525247,0.00287338,0.244112,-0.180209,0.00800905,0.169589,-0.0708258,-0.18122,0.0116725,-0.0120671,-0.163505,0.0626072,-0.0961899,-0.200087,0.122669,0.0227847,0.0196701,-0.20487,0.0222359,-0.33291,0.215943,0.0582573,0.183851,0.0948496,-0.0336852,-0.157084,0.00122532,0.291567,0.172352,0.0498377,-0.0494951,-0.223932,-0.0377284,-0.0130189,-0.0462297,-0.138256,-0.126013,-0.0938944,-0.301357,0.107592,0.145448,0.151284,0.197316,0.00520469
cap,0.0626127,0.179634,-0.0174512,0.0585237,0.137734,0.0842717,-0.0119286,-0.0816818,-0.243327,0.0224399,0.119259,0.0768611,-0.0863221,-0.0378833,-0.023686,-0.24973,0.0614842,0.283691,0.216693,-0.0735822,-0.113349,0.127551,-0.158924,0.179978,0.0565478,0.232155,0.072207,-0.112506,-0.225095,0.143375,0.0164947,-0.0303403,-0.0374105,0.014671,-0.0981791,0.0734241,-0.242397,-0.0534548,-0.0424099,0.16762,-0.0895028,-0.349927,0.164336,0.232226,-0.30671,0.123927,-0.0272691,-0.00197089,0.034206,0.316908
fortune,0.23938,-0.0167093,0.0756789,-0.243591,0.161047,0.00173257,-0.25825,-0.213097,0.278677,-0.100563,-0.149554,-0.0525386,0.169828,0.0849188,0.221708,-0.00986294,-0.290906,-0.191405,-0.0678027,0.115418,-0.0812998,0.159345,0.0502551,-0.113034,0.274136,-0.277447,-0.213542,0.113656,-0.0983829,0.0894867,-0.171895,0.185853,-0.120895,-0.226287,0.0299179,0.124196,-0.165574,0.167748,0.241058,0.278012,0.218975,0.229275,-0.0665353,-0.260586,-0.207888,0.0639262,-0.0501797,-0.173919,0.0115315,0.135007
regrets,-0.132096,0.0317905,-0.146407,-0.015063,0.0530449,-0.0393045,-0.0414854,0.107161,0.13684,0.147237,-0.00887889,0.164158,-0.000600801,0.140938,-0.0592883,0.126885,-0.0601579,-0.0292871,-0.234174,0.0692098,-0.0236187,0.107016,0.0681063,-0.0910259,0.0288424,-0.0611019,-0.0969463,0.124955,0.119514,-0.236473,-0.172642,-0.00877456,0.326668,-0.329878,-0.0659976,-0.218275,-0.0786746,0.0816691,-0.0553337,-0.192914,0.0687126,0.0601323,0.260165,0.326672,-0.0320057,-0.0613304,-0.0119635,0.225388,0.0175866,0.113748
two-week,-0.227484,-0.250369,0.137991,-0.214128,0.128254,-0.123361,0.0655513,-0.126307,-0.0597748,0.274863,-0.366612,-0.172473,0.274799,0.130275,-0.319604,-0.146323,0.0847368,0.238808,-0.0566717,-0.315483,-0.0676782,0.235283,-0.193265,-0.314421,-0.225795,0.267393,0.10181,-0.390301,0.0891109,0.139664,-0.232552,0.188636,0.223769,0.292247,0.265942,0.265909,-0.181214,-0.270926,0.103736,0.20826,0.219996,0.14369,-0.302023,0.0402179,-0.327234,0.121013,0.224551,-0.17472,-0.0685499,0.211692
flu,-0.269804,0.158857,-0.322586,-0.355177,0.182152,0.234948,0.104653,-0.138249,0.0247676,-0.0761023,-0.231847,-0.129476,0.0745514,-0.0907975,0.0169454,0.0428941,-0.202386,-0.0715082,-0.127087,-0.254735,0.329605,-0.271356,-0.326698,-0.251077,-0.150619,-0.139494,0.0824345,0.0261176,-0.151579,-0.0470624,-0.0422205,0.180582,0.00780817,-0.193129,0.0511818,0.062305,-0.133446,-0.0346504,0.155506,-0.00159112,-0.0111942,-0.160925,0.0607608,0.00470163,0.0573278,-0.483355,0.0338596,-0.0450311,0.248587,-0.189076
clinch,-0.0370869,-0.13926,0.0827495,-0.0586587,0.0422212,0.184166,-0.0648227,0.0575106,-0.221002,0.00976598,0.0816388,0.101735,0.0690614,0.116248,-0.248222,0.0383734,0.294287,-0.316856,0.132663,-0.00859682,0.0372796,0.00546292,0.0373513,-0.00183692,-0.0139681,-0.0551226,0.0865521,0.106831,0.0784889,-0.145709,-0.0141579,-0.072938,-0.192179,-0.00629236,-0.201362,-0.00232141,-0.115659,0.257385,-0.349651,0.0807778,0.096166,0.015127,-0.0244347,-0.0272763,-0.359682,0.174454,-0.227034,-0.059695,-0.0567889,0.0313605
compensation,-0.0564983,0.0363458,-0.00610071,-0.0851128,-0.0313611,-0.0312447,-0.0306697,-0.0320942,-0.222409,0.433377,0.0716083,-0.114339,-0.247697,0.117052,0.0997953,-0.0767903,-0.0273202,0.183589,0.0525613,0.138665,-0.0880179,0.0296485,-0.0248228,0.266782,-0.00158962,-0.258743,0.0327431,-0.0193259,-0.112572,-0.067165,-0.0893616,-0.0420795,-0.270292,-0.0717559,0.173584,0.208517,-0.0681351,0.124012,0.147317,-0.0484067,0.04609,-0.0128954,0.107354,0.156845,-0.153876,-0.182739,0.0375438,0.0344095,-0.190382,0.166551
shut,0.0925273,-0.0424313,-0.279147,-0.0522815,0.0827233,-0.192309,0.246011,-0.0231648,-0.206223,0.0209994,-0.120979,0.13483,-0.207401,-0.117482,-0.255969,-0.353242,-0.146005,0.209659,-0.306317,-0.142295,-0.123236,-0.258883,-0.303241,0.235573,-0.20937,0.269692,-0.0874141,-0.0997507,-0.00482675,-0.338107,0.132667,-0.168503,0.0324973,-0.23718,0.282574,-0.089663,-0.222283,0.216822,0.220534,-0.125208,-0.12739,-0.176885,-0.106548,-0.16969,0.189164,0.194812,0.211164,-0.056967,0.111868,-0.179931
sign,-0.245931,-0.0531134,0.0545227,0.00747903,-0.0784726,0.0599923,0.196477,0.161246,-0.0294618,0.14288,-0.167481,0.084918,-0.0336389,-0.0600199,-0.0220185,-0.127595,0.106785,-0.281813,0.106063,-0.0318718,-0.301321,-0.0522832,0.0862592,-0.092534,-0.101992,0.164715,0.209916,0.217637,0.114345,-0.0929292,-0.0968,0.179707,-0.197132,-0.0637878,-0.178106,-0.0663231,0.121043,0.18873,-0.137689,-0.0107479,0.00776332,0.0216105,0.317056,-0.00707172,-0.221812,-0.185333,-0.119064,-0.0747129,-0.249682,0.152335
jump,-0.264605,0.103533,-0.173868,0.0439596,-0.139455,0.246801,-0.0898513,0.0349714,-0.279197,-0.287097,0.174784,-0.184018,-0.247528,-0.0688464,0.219839,0.144468,-0.0763962,0.131764,0.225107,-0.111791,0.0579076,0.0560807,0.00685885,-0.0897079,-0.142191,-0.275783,0.000842749,0.129335,-0.0132383,0.259535,0.147899,-0.18657,-0.11687,0.190166,-0.0325141,0.166978,-0.0329183,0.0671825,-0.0678713,0.228546,0.0354868,-0.10521,-0.0344717,-0.032045,-0.197347,-0.216287,-0.150381,-0.0648391,0.051466,0.0878454
secondary,0.155135,-0.226294,-0.205563,0.133604,-0.0473687,0.0187677,-0.0803508,-0.0803792,0.285453,0.247321,-0.00608796,0.169956,0.0901549,-0.135287,-0.112757,-0.106905,0.117275,-0.0595526,0.0807133,-0.220568,-0.0665354,-0.0774962,-0.159844,0.0339658,-0.0075838,0.133459,0.00029032,-0.181782,-0.199192,0.07506,-0.0774137,-0.188275,-0.131256,0.209886,0.0103153,0.030582,0.127285,-0.148909,-0.0718368,0.0572372,-0.0522498,0.124661,-0.298568,0.0411463,0.0995323,-0.0262713,-0.182737,0.203301,0.0788401,-0.314774
street,0.0689016,-0.0171009,0.0147993,-0.0568897,0.0787061,0.0478179,0.0972893,0.150844,0.0616057,-0.0187797,-0.0342256,-0.0201624,0.0940247,-0.0238469,-0.074389,-0.0508631,-0.0886727,0.0356585,0.0332703,0.102951,0.205058,0.0743891,-0.0559212,-0.0015899,0.114503,0.13901,-0.0844695,0.0203635,-0.121529,-0.162457,-0.0838256,0.0493996,-0.170274,-0.124725,0.0189148,0.0621143,0.0172192,0.0180913,0.0345063,0.0570772,0.143428,0.152183,0.252712,0.0768269,0.00250051,-0.0267217,-0.0281861,-0.15939,-0.0168191,0.0530748
pass,0.261743,0.084626,-0.060599,-0.103426,-0.203143,-0.0648384,0.215143,-0.165259,-0.145419,-0.0864739,0.122032,-0.156514,-0.323441,-0.0146032,0.0826109,-0.0657394,0.0127561,0.0901008,-0.223506,0.342201,0.304542,-0.0809246,0.0447084,0.317577,-0.234825,-0.145951,0.0936686,0.117311,-0.046221,0.144356,0.298313,-0.310541,-0.353935,-0.12535,-0.0743955,-0.15864,0.283697,-0.365065,-0.194102,-0.136015,-0.159681,0.100984,0.15387,0.0469007,-0.153868,-0.0835142,0.0146498,0.049962,0.196809,-0.031488
linking,-0.101926,-0.0549463,0.00707029,0.0934214,0.0569424,0.104818,-0.0885735,-0.0739732,-0.164392,0.10214,-0.347806,-0.0259117,0.15552,-0.0578446,-0.0493602,0.051433,-0.0818868,-0.286063,0.229961,0.0524713,0.00493106,0.0527139,-0.0685368,0.043098,-0.165458,0.445859,0.171493,0.161046,-0.108702,-0.0387827,-0.12879,-0.067762,-0.0942952,0.0635763,0.00165217,-0.15804,-0.256778,-0.039204,-0.154409,0.197226,0.205285,-0.0701997,0.105434,0.142554,0.244436,-0.0385618,-0.0631469,0.0373369,-0.0636339,0.175501
chemical,-0.0697846,0.153332,0.171309,-0.107906,0.134123,0.221567,-0.0791486,-0.0711464,-0.325714,-0.0967471,-0.27231,-0.0402194,0.162642,0.166062,0.220258,-0.110156,-0.300287,0.243034,-0.0516382,-0.148001,0.261167,0.107222,0.0540252,0.0750074,0.0247338,-0.0445523,0.0197585,0.00798288,-0.162826,0.0218507,0.357936,-0.0230189,-0.20364,-0.200056,-0.121507,-0.342495,-0.211508,0.248694,-0.000110261,0.200076,0.111305,-0.0578791,0.226366,-0.177042,0.252931,0.0844357,-0.180243,-0.0470843,0.0386239,-0.206192
port,0.172084,0.140814,-0.206677,-0.0548642,-0.0177087,0.269886,0.0155224,-0.049343,-0.234646,-0.279398,-0.304777,-0.27659,-0.0325751,0.197727,0.128959,0.101493,0.245874,-0.176734,-0.263252,-0.00881675,-0.0786645,0.152796,0.206533,0.214128,-0.211043,0.178529,-0.198252,0.24306,-0.0657668,0.0786627,-0.30353,0.0566231,-0.0155843,0.328063,0.269285,-0.00118954,-0.248792,0.291361,0.182837,0.162993,-0.173023,0.114328,0.330697,-0.298482,-0.106245,-0.233816,0.0382101,-0.14929,-0.0247903,0.190595
volume,-0.0594024,0.0277413,0.222306,0.246181,-0.0398038,0.026813,0.113132,-0.00653714,-0.0479841,0.118189,-0.186271,0.0515918,-0.0887316,-0.0518515,0.113128,-0.164337,-0.0655182,0.180114,0.0746548,-0.385145,-0.0588051,0.108136,-0.0819593,0.294158,-0.108804,-0.294287,-0.132215,-0.0861298,0.0235382,0.272434,-0.0883087,-0.0867072,0.0902403,0.0664578,0.13097,-0.0629466,0.270011,0.0183996,0.115893,0.00891119,-0.00714747,-0.0961901,-0.141273,-0.316825,0.0256098,-0.0129651,0.00661152,0.15484,0.119672,-0.136806
indexes,-0.10767,0.325586,0.217099,0.224427,0.0701535,0.119535,-0.005729,0.156447,0.226007,0.271093,-0.188849,-0.190483,-0.225356,-0.0471649,-0.0632558,0.164287,-0.025507,0.0655575,-0.252059,0.14121,-0.0690416,-0.269848,0.0207541,-0.00329196,0.18882,-0.204507,0.0109152,0.138453,0.233231,-0.0956315,0.138045,0.327551,-0.310971,0.178419,-0.282429,0.233168,0.181857,0.244185,-0.104436,-0.173729,-0.273742,0.141503,0.0501533,0.137976,0.250481,-0.143009,-0.264671,0.282145,-0.158176,-0.0482897
sue,0.0407314,-0.109703,-0.103669,-0.161875,0.187812,-0.112546,-0.0267694,0.0506588,0.0594146,0.262294,0.0887094,-0.0410649,-0.113063,0.10374,0.0757119,-0.258383,-0.178072,-0.0153663,-0.0425931,0.212966,0.0706969,0.221862,-0.0424306,-0.0893421,-0.246725,0.00441484,-0.0823985,0.264538,0.179301,-0.0594968,-0.12867,-0.0789841,-0.175137,-0.238382,-0.0988575,-0.0470755,0.102676,0.167433,-0.115467,0.118042,-0.190922,0.144988,0.029007,0.26744,-0.204761,0.00337255,-0.109832,-0.0701977,0.107735,0.100865
negative,0.00783323,-0.0898072,0.0483171,0.0345487,0.000596302,0.0961986,-0.169022,-0.0793001,-0.0474573,-0.0505194,0.115939,0.133323,-0.214083,-0.252791,-0.0589352,-0.0592082,-0.354428,-0.106242,-0.0852177,-0.167553,-0.122811,-0.0818837,-0.0615056,-0.278376,0.039242,-0.155365,0.0530315,-0.0499287,0.00887676,-0.00373057,-0.00691945,-0.0899512,0.0742415,0.194648,-0.0818638,0.00164123,0.0467786,-0.124309,-0.157416,-0.183334,0.254146,-0.165215,-0.136373,0.215037,0.0487211,0.0210731,0.196957,0.197347,0.0590039,0.120947
liberty,-0.0771568,-0.158703,0.125742,-0.120641,0.140719,0.306881,0.236465,0.280313,-0.0159336,0.00137398,0.0912023,0.302008,-0.0401061,-0.13873,0.332007,0.207253,0.237422,-0.142168,0.274674,-0.362551,-0.194555,-0.343341,-0.0730306,0.217722,-0.320402,0.279054,-0.2277,-0.240687,0.152532,0.28781,-0.267354,0.342924,0.0322092,0.0795419,-0.0488514,0.027844,-0.164404,0.0582384,-0.143177,0.0718667,0.2005,0.227273,0.114327,0.305622,-0.0611952,0.192936,0.306488,-0.276485,-0.112547,-0.0935896
access,-0.231897,-0.221431,-0.151305,0.105861,-0.203279,-0.0494177,0.015749,-0.31482,-0.158903,-0.290932,0.00269954,0.375523,0.174819,-0.251425,-0.144117,-0.114273,-0.00411326,-0.112481,0.105858,-0.373116,0.140792,-0.263765,-0.0258387,-0.17761,0.126571,0.156494,0.201465,0.357462,0.175479,0.0138989,-0.141747,-0.114765,-0.0333303,0.224984,0.089537,-0.323408,0.238793,-0.0413378,0.158443,0.155592,-0.182606,0.276661,-0.247659,-0.0152175,-0.213897,-0.352419,0.156231,-0.346528,-0.257859,0.0487711
fingers,-0.10829,-0.0239349,-0.0854479,-0.389133,0.111797,0.268543,0.255539,0.140995,-0.0850191,-0.108381,-0.0157027,-0.0526376,0.162458,-0.0209842,-0.263847,-0.131884,-0.15839,0.242529,0.0264821,-0.290565,0.216981,-0.0903703,0.026728,-0.0806915,0.026556,-0.21234,0.173205,0.0978334,0.0838,-0.00462407,0.144995,0.0305832,-0.150836,0.0259963,0.015564,-0.148343,0.020977,-0.238986,0.0359218,-0.0331428,0.252483,-0.333471,-0.140085,0.329617,0.113779,-0.0577746,0.0237366,0.0222798,-0.054754,-0.0626908
hurdle,0.0948988,0.0788538,0.152417,0.239196,-0.0758968,-0.119695,-0.159046,0.101975,0.0680714,0.151492,-0.0360331,0.0747068,0.0409002,0.0607694,-0.133188,-0.0718969,0.122421,0.00148252,0.0634761,0.059881,-0.0240982,-0.112213,-0.108862,0.00513481,-0.0917136,-0.0505618,0.185856,-0.0383558,0.0602311,-0.0651656,0.292755,-0.187247,-0.243441,-0.0464949,0.137066,-0.169197,-0.149171,-0.0630985,0.193975,-0.25502,-0.196174,-0.158719,-0.358782,0.130213,-0.0591998,0.0161287,0.00248834,-0.0577896,0.237086,0.219511
news,0.0891805,-0.228865,-0.108197,-0.0113199,-0.0466443,0.0927601,0.0661724,0.18119,0.200188,0.0837346,-0.306783,-0.0162665,0.0473419,0.0838917,-0.187536,0.161955,-0.0281036,0.00196674,-0.251224,0.168361,-0.0163621,0.121907,0.0645222,-0.000264515,-0.0965014,-0.0330664,-0.160499,-0.0248819,0.275368,0.18505,0.168874,-0.317048,0.267221,0.0269266,-0.174567,-0.263529,0.0819861,-0.127494,0.0423583,-0.117677,0.127374,-0.0169702,-0.0774879,-0.102884,-0.10203,0.124911,-0.0521255,0.115519,0.0344344,0.0223655
private,0.13773,-0.175799,-0.198171,-0.0887613,-0.133001,-0.209012,-0.000710606,-0.0604893,0.0651081,0.29831,0.0128027,0.0562381,-0.107479,-0.035347,-0.0920089,-0.332081,0.000995635,0.0144409,0.0688227,0.0477414,-0.108394,-0.0738199,-0.118865,0.145442,-0.252039,0.166216,-0.00225993,-0.157746,0.0443106,-0.118516,-0.109929,-0.0888818,-0.2738,0.159251,0.146598,0.186437,-0.0657472,-0.105599,0.0724942,-0.193085,0.164647,0.104031,-0.0250484,0.181015,0.176222,-0.187692,-0.112074,0.018597,0.031542,-0.0934812
boost,-0.15408,0.123676,0.150864,0.0720784,-0.155026,0.154062,-0.364825,-0.264935,-0.167324,-0.266261,-0.0245515,0.230586,-0.226984,-0.0863245,-0.00854099,0.026539,0.00352014,-0.104741,0.101535,-0.0357072,-0.195767,-0.0292399,-0.0162765,0.0967175,0.0352462,0.200051,-0.191221,0.1194,-0.217631,0.149064,0.12622,-0.079588,-0.0420618,0.061842,0.0916225,0.130216,-0.0954127,-0.0880833,-0.183512,0.133958,0.118256,0.10484,0.196034,-0.102774,0.0576501,0.0146506,-0.275055,-0.105158,-0.0657832,-0.0343331
bird,0.0452719,0.0448308,-0.295329,-0.124485,0.271917,0.0151017,0.0435983,-0.0834995,0.112775,-0.317126,0.0432589,-0.195831,0.106498,0.0039647,0.0115003,-0.0735278,-0.141053,0.0377147,0.118114,-0.296324,0.0987605,0.0740363,-0.0895138,-0.038144,0.232386,-0.0514812,0.0127576,0.0314304,-0.172949,0.0577809,0.21473,0.0872627,0.048591,-0.103731,-0.0342379,-0.0290986,-0.0522342,-0.161233,0.00957312,0.162668,0.0104791,0.00358498,-0.0474009,0.0154627,0.0304472,-0.19245,0.0099303,0.0738723,0.170865,0.119375
pandemic,-0.0643971,0.0389483,-0.21102,0.0488828,0.198669,0.173611,-0.0549956,-0.209095,0.407163,-0.071685,0.0188399,-0.0552263,-0.119974,-0.0589402,0.0839409,0.0678197,-0.0842916,0.0899285,-0.044518,0.0630835,0.227835,-0.0945189,-0.235475,-0.0779245,0.00497396,-0.158274,0.262006,0.0437056,0.0316598,-0.0462022,0.0310433,0.0212866,0.00756845,-0.0812273,0.105841,-0.0202634,-0.218608,-0.137759,0.222573,-0.0685454,0.110407,-0.0448164,-0.0578442,-0.14554,-0.152473,-0.236977,0.0805088,0.0325426,0.206541,-0.0530099
junk,-0.139045,-0.339471,-0.0727315,0.0126638,0.158049,-0.273236,0.290529,-0.075642,0.213482,-0.322528,0.225024,0.0803821,-0.0750264,0.063381,0.338563,0.130611,-0.111669,-0.186463,0.164687,-0.164556,0.219471,0.0218944,0.303711,0.166031,0.20588,0.240541,0.284176,-0.140351,-0.207267,-0.27078,0.184511,-0.267604,-0.045176,0.0457295,-0.303331,0.0237976,-0.272453,-0.1528,-0.30123,-0.00327007,0.163018,0.0493279,-0.335694,0.334051,-0.362015,0.0700313,0.271323,0.00153908,0.0791778,0.179523
turmoil,-0.0271116,-0.0886056,-0.0116751,0.0699586,0.00701924,0.097558,-0.135617,-0.0842996,0.129162,-0.0196189,0.109659,0.212195,0.00875192,0.0462416,-0.0484895,-0.281073,-0.182367,0.0958663,-0.193001,0.229512,0.196004,-0.193688,0.145118,0.0809866,-0.0312441,-0.189774,-0.0233524,0.0196055,0.0817188,-0.091429,0.00603877,-0.10771,-0.0259683,0.0879153,0.257989,-0.177329,-0.315173,-0.12138,-0.114293,-0.0449023,-0.0069788,-0.182991,-0.176407,-0.107118,-0.0186457,0.0246787,-0.0880395,-0.143499,0.233526,0.177224
led,-0.0867789,0.0224752,0.171885,-0.0841679,-0.0283087,0.0833908,-0.241984,-0.223537,-0.0923808,-0.0848006,-0.257298,0.143666,-0.045697,0.030812,0.0372975,0.134322,-0.00655597,-0.345202,-0.0849596,0.0905629,-0.269107,-0.107436,0.202824,-0.00557556,-0.071249,0.145185,-0.231749,0.205581,-0.16866,-0.117692,0.0722414,-0.23927,0.0674128,0.0713132,0.0379444,-0.0518977,-0.0187319,0.115454,-0.0694159,-0.0387564,-0.137742,0.125431,0.338438,-0.0702823,0.0860747,0.0559214,-0.146245,-0.138809,-0.0294141,-0.151854
averted,0.0450059,0.175823,-0.156136,-0.01239,0.168814,0.0658037,-0.471819,-0.152235,-0.138981,-0.0278934,-0.128193,0.20171,-0.0120713,0.0733284,-0.12075,0.0681032,-0.169305,-0.0224798,-0.112863,0.0726401,-0.236725,-0.0778302,0.125669,-0.136825,-0.150017,-0.141909,0.189098,0.0695883,-0.0929624,-0.253618,0.118725,-0.0122268,-0.135838,-0.025621,-0.0501314,-0.162895,-0.139262,0.158293,-0.1047,0.0979262,0.049253,-0.0774657,0.250155,0.112823,-0.170151,-0.133524,0.0548096,-0.0728124,-0.0195292,-0.178171
conference,-0.224765,-0.0432323,-0.0228536,0.201114,-0.100579,-0.169103,-0.0725891,-0.0025048,0.147021,-0.166489,0.178621,0.00869462,-0.0228003,-0.0535231,0.0115321,-0.0632151,0.0841228,-0.122105,0.109203,0.24027,0.070843,-0.092711,0.201391,-0.1835,0.107722,0.0541709,-0.0760118,0.0295505,-0.00416518,-0.0249189,-0.146581,-0.022606,0.301195,0.0554946,-0.0951823,0.100305,-0.123744,-0.179305,0.200863,-0.118746,0.132496,0.0141835,0.07367,0.0343365,0.180378,0.117334,-0.178914,0.190784,-0.163871,0.432887
legal,0.0408208,-0.0797603,0.021567,-0.158332,0.253208,-0.0529617,0.118715,-0.246638,-0.0544341,0.380605,-0.0838048,-0.207667,-0.194681,0.170528,-0.0146587,-0.14732,-0.269338,0.0638231,0.0353971,0.224089,0.142214,-0.0231994,0.000857129,-0.0415366,0.0828933,0.11194,0.26007,0.095017,-0.0565922,-0.0899108,-0.00616869,0.0430929,-0.0986438,-0.105221,-0.105288,-0.123508,0.127787,0.133135,-0.050376,-0.159499,-0.190317,0.00496935,0.0693745,0.153192,0.0347683,-0.119469,0.126252,0.126916,0.103582,0.217941
lodges,0.0101883,-0.170492,-0.0843123,-0.178707,0.0421138,-0.0592327,-0.00887762,-0.0617999,-0.0172163,-0.0502151,-0.392306,-0.0339265,0.201158,-0.0567519,-0.188926,-0.0322447,0.212201,0.220686,0.0936687,-0.0447396,0.113619,-0.130077,-0.192867,0.286337,-0.0330762,0.0747987,0.0587502,0.209086,0.0649517,-0.0717541,0.159596,0.045986,0.257314,0.00635626,-0.113131,0.232533,-0.121836,-0.175584,-0.0627105,-0.084983,-0.0288369,0.119241,-0.0159712,-0.0206544,0.0422926,-0.0453557,-0.277649,0.173375,0.0857821,0.0216411
ambitions,-0.228188,0.114003,0.115238,-0.0247768,-0.0552153,0.0900788,0.00176181,0.109976,0.111793,0.0591075,0.0443417,0.0683338,0.32401,0.186196,-0.286775,-0.129329,-0.051782,-0.177702,-0.330869,-0.0516163,0.0946966,-0.0692123,0.0749835,0.133021,0.00127166,0.0829987,0.0939814,0.0600233,0.139373,0.0598762,0.105237,-0.00819946,0.026795,0.0640864,0.244296,-0.265645,-0.177647,-0.0794977,0.124148,-0.166564,-0.0681556,-0.17747,-0.0992967,0.198686,-0.149659,0.0594617,0.0179323,-0.0544171,0.0424936,0.258933
10%,-0.0619473,0.350214,-0.184039,-0.346901,0.257843,0.122637,-0.178827,-0.339486,-0.226894,-0.11361,-0.135378,0.0983777,-0.030017,-0.316435,0.296531,-0.0220014,0.145063,0.309416,-0.0913008,-0.000539708,0.31474,-0.275185,0.288578,-0.19968,0.104693,-0.135299,0.190913,0.280329,-0.319297,0.253003,0.105899,-0.288503,0.240654,0.135194,-0.0592301,-0.122962,0.256584,0.0413426,0.287157,-0.297336,0.262899,-0.327211,0.0670287,-0.262544,0.277929,-0.214096,-0.14959,-0.149808,0.161548,-0.116794
lacked,-0.0397076,0.0930716,-0.038207,-0.121337,0.0519999,-0.0931075,0.114421,-0.292995,-0.0684186,0.176208,-0.0328257,0.0806026,-0.329801,-0.0793612,-0.0278345,0.113699,-0.0906881,-0.004608,0.0227802,0.187327,-0.239997,0.167254,0.108339,-0.0477747,-0.285135,0.240414,0.0378645,0.127956,0.0216166,0.0270666,-0.0528135,-0.12321,-0.156361,-0.207006,-0.139543,-0.276988,0.0155148,0.0611324,-0.0137917,-0.0426482,0.0550643,-0.0752226,0.0659243,0.316518,0.112436,-0.0507262,-0.173955,0.0357716,-0.0523399,0.198677
metals,-0.194082,-0.0813284,0.10303,0.280623,0.214641,0.0292202,0.328798,-0.17125,-0.333062,-0.131208,-0.276263,-0.163712,-0.178018,-0.241581,-0.220347,0.284303,-0.333708,-0.277104,0.330222,-0.2134,0.143069,0.27094,0.296776,-0.060501,0.131946,0.334729,-0.114112,0.193157,0.0840713,-0.152141,0.246309,-0.225394,-0.300124,0.159424,0.204075,-0.136856,-0.255417,-0.32722,0.272601,0.261495,0.277645,0.344932,0.071288,-0.0641282,0.218403,-0.0568214,0.0785064,-0.200826,0.303021,-0.175432
business,-0.307998,0.160976,0.235069,-0.271705,-0.0187116,-0.0393975,0.128321,-0.17806,0.178264,0.199764,-0.120118,-0.0310368,-0.128195,0.0306481,-0.0837131,-0.00619405,0.0917403,-0.187001,0.034513,-0.123116,0.0811461,0.0737739,0.0189226,0.24065,0.0766673,-0.153487,-0.0770789,0.0544791,0.0276109,0.0639775,0.010436,0.125042,0.0580653,0.213256,0.0798071,0.129536,0.179368,0.0834823,-0.232234,-0.342622,0.0588294,0.157896,-0.115832,0.084764,0.303316,-0.107427,-0.0321185,0.0980944,-0.0382723,0.239664
letter,-0.0510986,-0.0519,-0.210021,-0.0508806,-0.0121644,-0.0668214,0.0503792,0.0343111,-0.0169384,0.291712,0.253022,-0.113041,-0.0365922,-0.113194,0.0917636,-0.181652,-0.12841,0.121189,0.0326139,0.393969,0.0519785,0.0828039,0.155392,0.0272866,-0.0394769,0.0142448,-0.121777,0.0755169,0.00762405,0.0336348,-0.0992847,-0.0589674,0.328824,-0.0780865,-0.120668,-0.0903927,0.156715,-0.174679,0.327315,-0.0673379,-0.0498322,-0.0715501,0.13246,0.260641,-0.0465888,0.0915636,0.0873323,-0.0579637,0.0111371,0.235837
sink,-0.158678,0.0172533,0.103441,-0.243488,0.226836,0.190871,-0.160323,-0.0859006,0.0501118,-0.229414,0.0397209,0.139298,0.0072137,-0.134816,-0.0958323,0.197947,-0.157365,0.130644,0.152133,-0.00289864,-0.112681,0.259419,-0.0723039,-0.0524365,-0.429314,0.024661,-0.072266,0.168905,0.0739612,-0.0178151,-0.0495733,-0.148796,-0.0322447,0.171787,0.148712,-0.0100963,-0.166431,-0.0974944,-0.137,0.137204,0.116448,-0.0660913,0.0808904,-0.0146565,-0.0311666,0.108691,-0.214467,0.122703,0.164778,0.0608006
ethanol,-0.139536,0.0106294,-0.298764,-0.00405779,-0.0364733,0.197011,0.0767201,0.0786432,0.0338554,0.165918,0.186968,-0.176484,-0.12214,0.053389,-0.0183144,0.0223461,-0.021503,0.151731,0.133284,-0.250263,0.062829,0.0758295,-0.19973,-0.0579145,-0.0713983,-0.217533,-0.0937417,-0.231645,-0.193164,0.038462,-0.106735,0.136699,-0.211135,0.0278488,0.113379,-0.0124477,0.219158,-0.0546807,0.0953319,0.113567,-0.204995,-0.306627,-0.156337,0.00921,0.0780049,0.352013,-0.0697213,0.0271544,-0.147726,-0.0888561
aid,0.115098,-0.107055,-0.140532,0.255723,0.112333,0.132639,-0.0304109,0.16191,-0.0606884,0.283541,-0.0090691,0.0936481,-0.0145106,0.0927146,-0.251517,-0.127363,-0.0316177,0.0176754,-0.138101,0.224021,0.167502,-0.187354,-0.0593617,0.0643791,-0.0806939,0.0729654,0.219131,-0.197891,-0.132643,-0.0533125,-0.0239796,-0.0849849,-0.145025,-0.0087655,0.0275635,-0.0553705,-0.191153,0.01248,-0.0264367,0.132063,0.192052,-0.10321,0.0283371,0.0645076,-0.286272,-0.0416404,-0.240591,-0.175295,0.0199696,0.263969
strong,-0.170982,-0.0946547,0.176089,0.0523444,-0.343171,-0.140816,-0.155689,-0.072895,0.126835,-0.0462635,0.0332945,0.159158,-0.242382,0.0316312,-0.147529,0.0237071,-0.268859,-0.162726,-0.179691,-0.219499,0.0505196,-0.0326467,-0.0888803,-0.125988,0.110956,0.082879,0.115849,0.0649216,-0.0503407,0.150861,0.056503,-0.16182,0.149625,0.212683,-0.0283066,-0.0510071,-0.259078,-0.102824,-0.226343,-0.0731517,-0.00609879,-0.134087,-0.18055,0.133165,-0.0750852,0.256777,-0.103373,0.0738213,0.146416,-0.0324672
values,0.0896963,-0.0636644,0.214662,-0.143424,-0.0468765,0.110429,-0.0232887,-0.160861,-0.0613236,0.192136,-0.165223,-0.0243639,-0.0595967,-0.217675,0.145089,-0.0896033,0.0391368,0.35825,-0.221997,-0.311929,-0.0854957,-0.137545,-0.0413092,0.197637,-0.0919854,-0.170261,0.107163,0.090299,0.0919488,0.206522,-0.170853,-0.029794,-0.135821,0.253619,0.0915107,-0.124556,0.00649927,-0.0301793,-0.120742,-0.085083,-0.0998464,-0.197369,-0.0427387,-0.0118508,0.0220938,-0.288441,0.136409,-0.170389,0.0575126,-0.0791627
dry,0.0845534,0.0125869,-0.176601,0.0676966,-0.257525,-0.2016,0.0251185,-0.0492133,0.17213,0.0305831,-0.0888362,-0.0493472,-0.289612,0.152245,0.161024,-0.181552,-0.265116,-0.089679,0.0828332,0.145954,0.375063,-0.243463,-0.110061,-0.043411,-0.0397993,-0.00358154,0.0389797,-0.204817,-0.228884,0.0643671,-0.282828,0.0340199,-0.315263,0.339803,0.280257,-0.0889241,-0.323227,0.105794,0.0924366,0.320926,-0.279484,0.0453887,-0.139476,0.137433,0.0557838,-0.404895,-0.126436,0.238289,-0.348132,0.202767
remarks,-0.0550675,0.0506062,-0.279139,0.091597,-0.182869,0.137007,0.184578,0.110085,0.10763,0.130582,0.210647,-0.0800547,0.162429,-0.0313113,-0.061806,-0.00379783,-0.0974026,0.201596,-0.131852,0.149099,0.187017,0.00868635,0.224936,0.0281353,0.0436733,-0.0662348,0.0107511,0.109686,0.131444,0.0783237,-0.0275469,-0.181986,0.359614,-0.0349292,-0.0778072,-0.159677,-0.0232464,-0.240659,0.0156722,-0.00293436,-0.0427194,-0.161974,0.08019,0.30546,0.219651,-0.0157851,0.160662,-0.0389504,-0.0871802,0.245332
cautious,0.0561725,-0.14971,0.102502,0.182883,-0.289241,-0.0908541,-0.252236,0.0309593,0.0853175,-0.122756,0.0535017,0.310249,-0.218612,0.124081,-0.309316,-0.031084,-0.241347,-0.084571,-0.140159,-0.0787813,-0.138484,0.0222984,0.0272143,-0.2127,0.158029,-0.115594,-0.000664509,-0.0103843,0.0829339,0.110186,-0.0405293,-0.0478034,0.0385068,0.160041,0.0418738,0.142397,-0.00446021,-0.0656305,-0.0385872,-0.157778,0.0302848,-0.106769,-0.145409,0.162169,0.170879,0.0541898,0.06947,0.130944,0.059458,-0.0353789
healthy,-0.101947,-0.0348721,0.013905,-0.0787128,-0.144193,-0.0288535,-0.0681435,-0.116695,0.207717,0.0134867,-0.013173,0.127219,-0.310938,0.113855,-0.229953,0.090496,-0.0942025,0.191036,-0.152892,-0.203903,0.00427767,-0.0439993,-0.133112,-0.185471,0.0323057,0.0411947,0.133168,0.0702379,0.00436955,0.00960722,-0.182955,0.235849,-0.161802,0.105456,-0.0578805,0.180773,-0.210962,-0.0114878,0.0574191,-0.233534,0.121108,-0.13733,-0.238632,0.299676,0.132594,0.114131,-0.0970786,0.181883,-0.110408,-0.101175
shift,-0.0433276,0.128578,-0.0710369,0.0994779,0.0195609,0.237493,0.0483318,-0.260436,-0.0511146,-0.0291317,-0.0524568,0.109334,-0.121948,-0.00681345,-0.134872,0.019951,-0.011482,-0.0481856,0.13064,-0.293929,0.0894938,0.0777528,-0.000829134,-0.00604771,0.0143499,-0.0200703,0.0822342,0.0518007,0.269908,0.225652,0.211458,-0.235822,0.0122205,0.273625,0.181127,0.0979211,-0.261488,-0.0912419,0.0856607,0.106578,-0.201888,-0.169981,-0.0400894,0.0953397,0.0986813,-0.1314,-0.173943,0.213938,-0.109101,0.0872144
study,0.173421,-0.208733,-0.0903687,0.296113,-0.00985772,0.198022,-0.201922,-0.0622544,0.109894,-0.217684,-0.329939,-0.309287,-0.247628,-0.0443476,-0.210154,0.153901,0.316234,0.0303222,0.240252,0.0665753,-0.122536,-0.0401155,0.0363511,-0.252581,-0.304337,0.0299726,-0.0471918,0.341588,0.127963,0.0725193,-0.346458,0.0794306,0.288815,-0.14885,0.00370055,-0.212464,-0.0766194,0.117713,0.141393,0.0442599,0.0845953,-0.312476,-0.0294828,0.0321477,0.164397,-0.149033,0.181056,0.0754956,0.225263,0.066679
technology,0.333543,0.0567942,-0.0606994,-0.0522501,-0.00174623,-0.0180021,0.317386,0.190381,-0.119076,-0.223918,0.0695596,0.165112,0.0472553,-0.200477,0.322792,0.252187,0.213894,-0.342795,-0.130376,0.309061,-0.231105,-0.198784,-0.00347213,0.357531,-0.163535,0.0905315,-0.156083,0.222289,0.0309597,-0.180635,0.172665,-0.276317,0.0162566,0.11832,-0.212948,0.00556371,0.185493,-0.234758,0.130301,-0.00665861,-0.263587,0.329412,-0.213502,-0.127067,-0.109636,0.213709,-0.194685,-0.345515,-0.333175,0.261568
step,-0.300921,0.348135,0.240182,-0.311978,-0.0586886,0.00100787,-0.260508,0.286611,-0.263255,0.232994,-0.219673,0.011164,-0.235587,-0.0922857,-0.131113,-0.1512,-0.290294,0.175006,0.0351919,0.00900464,0.156808,0.0568075,0.225465,-0.164561,0.242879,0.0914467,-0.293815,0.275674,0.0616254,-0.257522,0.30057,-0.135598,0.205145,-0.140482,0.181315,0.0985883,0.266695,0.0152539,-0.036531,0.21765,0.199476,0.16598,-0.0689392,-0.348107,-0.137837,0.0341543,-0.244086,0.341439,-0.0838115,0.118628
credit,-0.00947784,-0.0442667,0.271358,0.146793,0.062566,0.275546,0.0255739,-0.0363415,-0.00381062,0.14629,-0.275132,0.158879,-0.112475,0.123734,-0.160612,0.147037,-0.241989,-0.161695,0.306327,0.276722,-0.288798,0.0504298,-0.11054,0.0621241,0.192,-0.0835805,-0.315445,-0.231959,-0.0438927,0.0447203,-0.270436,-0.280237,0.0311776,0.292095,-0.0849743,0.269342,0.101423,-0.0676603,-0.100585,-0.191975,0.026795,0.028161,-0.345374,-0.0630908,-0.211242,0.233576,-0.0508196,0.0511869,0.343513,-0.119773
survey,0.0302982,-0.0942355,0.0588076,0.039519,-0.315871,0.142021,-0.137075,-0.0315725,-0.199842,0.0207651,0.241807,-0.240701,-0.00804226,-0.133503,0.242789,-0.00193634,-0.0659101,0.139621,0.0341815,-0.048978,0.280944,0.073395,0.0149769,0.0101541,-0.211729,-0.00365717,-0.0032705,-0.143992,-0.00708235,0.194906,-0.09232,-0.274603,0.14439,0.125801,0.232463,0.0460039,-0.0536515,0.0957556,0.0669063,0.0368427,0.275996,0.0511942,0.116939,0.0219281,-0.135533,0.249746,0.125432,-0.059354,-0.062935,-0.206757
permit,0.0820615,0.0606081,-0.0993606,0.148482,0.0574451,-0.062622,-0.179364,0.0677153,0.0116966,0.283879,-0.180487,-0.0910549,0.104713,-0.0102355,-0.216218,-0.144852,-0.0412208,0.0505015,0.143617,0.0454799,0.00186398,0.192298,-0.368289,-0.0897187,-0.0784535,0.251455,0.101148,0.127108,-0.105505,0.0326242,-0.00976103,-0.0651463,-0.085484,0.0290446,-0.0975108,-0.176437,0.0933656,-0.0321886,0.00903763,0.106193,-0.213691,-0.0392588,0.172719,0.163365,-0.153858,0.186332,-0.0171649,0.0287179,0.0786109,0.10857
climb,-0.245513,0.214311,-0.174865,-0.206367,-0.0626492,-0.0258021,0.300498,0.164652,-0.0189962,0.097692,0.222877,0.0803279,0.00746348,-0.281488,-0.00555116,-0.0807049,0.00169328,-0.0348464,0.373569,-0.0333434,-0.345367,-0.0709136,-0.178909,0.0766921,0.187945,-0.0343999,0.209309,-0.027157,-0.03523,0.0749386,-0.0217435,0.201821,0.0769329,-0.19049,-0.174195,0.0969791,-0.162943,-0.0800446,0.12919,0.138739,-0.071833,0.294921,0.155533,0.193873,0.00947689,-0.0210555,-0.296901,-0.329385,-0.25097,-0.098689
narrow,-0.0800054,0.0369019,0.0857057,-0.0546949,0.114198,0.0482346,-0.285252,-0.0228975,-0.0998977,0.117339,0.123953,-0.0338261,-0.301979,0.0734963,-0.203351,-0.0585352,-0.110165,-0.220477,0.291768,-0.0661029,-0.0280468,0.158017,0.0986571,-0.00417756,-0.0401518,0.181065,-0.0253194,-0.106984,-0.0283563,-0.0337327,0.219725,0.0318877,0.0458828,0.0107893,-0.00540243,0.161841,-0.238423,0.0346383,-0.336697,0.188019,0.275801,-0.139607,-0.0566869,0.00726198,-0.157279,0.139163,-0.0391795,-0.00876206,0.101864,0.0773031
3%,0.0491347,0.153918,0.0751948,0.0788952,0.141965,-0.168606,0.117235,-0.18306,-0.260457,-0.299827,0.330878,0.0467888,-0.31927,0.0415388,-0.16821,0.0307889,0.196363,0.172628,-0.30286,0.186995,-0.0450714,0.0142756,0.288357,-0.202847,0.312426,0.262489,-0.254602,-0.0851497,0.281028,0.332545,0.00973526,0.120039,0.0945614,0.0352636,0.353612,-0.338784,-0.00119551,0.0711995,0.212765,0.19369,0.0996109,-0.134735,0.378544,-0.327098,-0.291002,-0.0507319,0.0669696,-0.277452,-0.260818,0.337612
struggle,0.101418,-0.148187,0.132311,0.0646028,-0.0499783,0.213181,-0.164999,-0.123455,0.0351699,-0.132195,-0.0491494,0.225082,-0.127994,0.1226,-0.212236,-0.217843,-0.111942,0.0389407,-0.174327,0.0546445,-0.0381001,-0.176434,0.123247,-0.0256575,0.011658,0.127504,0.0273365,0.0466923,0.0748798,-0.0579202,0.290082,0.0863419,-0.203231,0.00115592,0.257212,-0.163378,-0.176529,0.0258143,-0.12128,-0.240851,-0.126392,-0.192076,-0.0902209,0.0428715,-0.033783,0.214722,-0.143009,-0.216677,0.0252667,0.165507
vice,-0.292012,0.107485,-0.113373,-0.13847,-0.142791,-0.277024,0.0361226,0.152247,0.0705706,-0.0515266,0.255059,0.044821,-0.168737,-0.155483,0.124403,0.212244,-0.066285,-0.106292,0.169676,0.172046,-0.00262501,-0.178396,0.0683582,0.0208392,-0.219639,0.266615,-0.125326,0.20362,0.213511,0.042125,-0.0104962,0.116305,-0.102296,0.155223,-0.0789126,0.188475,0.0186287,-0.149399,0.26232,0.0844817,-0.199716,-0.105459,-0.201822,-0.00715785,0.198441,-0.178185,-0.150366,0.0465925,-0.25415,-0.0295521
widen,-0.102937,0.0263716,0.181832,0.012465,0.0914939,0.0387935,-0.350496,-0.0284741,-0.057644,0.0346387,0.155982,0.162275,-0.348522,-0.0837883,-0.0640583,-0.114597,-0.150144,-0.284884,0.201489,-0.0450079,0.0295209,0.200471,-0.0370191,0.0454025,-0.0527541,0.140288,-0.0304031,-0.0991436,-0.0509738,0.0278829,0.201993,-0.0226541,0.150684,0.0781163,0.00155778,0.170807,-0.250973,-0.0149677,-0.266587,0.376641,0.194682,-0.0848744,-0.0320854,-0.0647842,-0.251845,0.199828,-0.123341,-0.0557999,0.163367,0.0526459
election,0.0887253,-0.156581,0.15485,-0.16239,-0.328371,0.175783,0.111517,0.0647492,-0.011837,-0.367293,-0.143479,0.29539,-0.232447,-0.000385296,0.0584439,-0.13258,-0.0498502,-0.298985,0.0190605,0.155543,-0.287848,-0.0882662,-0.259101,-0.199625,-0.299498,-0.0624661,0.136141,0.1016,-0.365779,0.0641616,0.209972,-0.190911,0.251811,0.334822,0.36475,0.198814,0.329288,0.207664,0.0952216,-0.220765,-0.181098,-0.247584,-0.139387,-0.199558,-0.0308017,-0.139753,0.0954617,0.157986,0.162958,0.157834
campaign,0.0127983,0.326203,0.2213,0.0629161,0.092104,-0.186153,0.00502389,0.238641,0.298981,0.144908,0.256495,0.316515,-0.118702,0.0821999,0.0632677,-0.0207103,-0.271206,-0.0182631,-0.0335184,-0.159028,0.165888,-0.0410711,0.288666,0.0516215,0.000209589,0.323816,0.258422,-0.0397622,0.144557,0.121369,0.224343,0.112041,0.255976,0.308376,0.0469495,-0.302156,-0.223683,0.117378,0.0781258,-0.0772568,0.315587,0.192673,-0.0969927,0.17814,0.223245,-0.123687,0.10903,-0.281812,-0.00730082,0.0302058
decline,-0.0882534,-0.246245,-0.221229,0.061946,0.200751,0.0082946,0.158736,-0.0738621,-0.304523,0.265504,0.0769995,-0.207626,-0.204792,0.242777,-0.133786,0.308172,0.27226,0.197236,0.143829,0.100928,0.0857445,0.110019,-0.23872,0.246314,-0.0961062,-0.234706,-0.034414,0.319975,0.280272,0.0829675,0.0210766,0.131956,-0.0440487,0.180892,-0.317641,-0.112932,-0.0789973,-0.0183366,-0.345503,0.108307,-0.107131,0.181323,-0.283185,0.213486,-0.00199807,0.0510238,0.185295,0.258161,-0.157435,-0.354129
win,-0.143599,0.190151,0.134773,-0.127634,-0.0838071,0.0712308,-0.0626831,-0.0317872,-0.240461,0.0382641,0.10255,0.0489944,0.0942586,0.0615171,-0.097259,0.108399,0.222205,-0.0878352,-0.0132421,-0.148937,-0.143972,-0.114947,0.0600583,-0.285894,-0.313255,0.0381513,-0.087212,0.126187,0.137586,-0.121167,0.161264,-0.042266,0.0308683,-0.0861862,-0.0354869,-0.0285984,-0.0281516,0.264938,-0.142068,-0.0236527,-0.111618,-0.151393,-0.130683,0.0166152,-0.415301,0.0771095,-0.268907,0.0841998,-0.144891,0.0464669
bustling,-0.0539974,-0.25575,-0.037638,-0.111485,-0.17153,-0.0912515,-0.0012722,0.0440669,0.00414378,0.0117351,-0.450545,-0.104113,0.140844,0.047712,-0.266303,0.0883606,0.0117903,0.186135,0.195296,-0.14362,0.101458,-0.0268997,-0.00595114,0.142125,-0.0685942,0.207097,-0.0920561,0.17424,0.107423,-0.0666256,-0.0648961,0.11541,0.115238,0.161443,0.0306018,-0.0297143,-0.220629,0.0123057,-0.133821,0.12082,0.116101,-0.0499466,-0.14337,0.0154624,0.301459,-0.0643321,-0.177819,0.0859271,0.152864,-0.0438257
1970s,-0.253846,0.139719,-0.199049,-0.212652,0.084526,0.14926,0.183647,0.0134452,0.286944,-0.0543916,0.116452,-0.101498,0.0595445,0.0134321,-0.182095,0.224856,-0.0758888,0.281046,0.259331,-0.044484,0.213123,-0.132126,0.0628382,0.220644,-0.103736,0.0525827,0.0146955,0.229251,0.0294951,-0.149779,0.104734,-0.0762415,-0.051708,0.225527,0.113101,-0.178905,-0.193093,0.0576078,0.016521,-0.201428,-0.124329,-0.0917976,0.0851205,-0.00304908,0.0825858,0.0183941,0.0765008,-0.0670859,0.161641,-0.203088
pound,-0.091842,-0.0235628,-0.294018,0.263822,-0.224338,0.229051,-0.0659885,0.0620727,0.177127,-0.3146,-0.0364823,0.220568,0.0733319,0.197641,0.281194,0.211961,-0.261969,0.101238,-0.294037,0.000499552,0.185248,-0.0426924,-0.202748,-0.0789541,-0.0502676,0.319211,0.334993,0.131453,0.264561,0.201694,-0.283265,0.183013,-0.190225,0.337794,-0.338298,0.309741,-0.0307871,0.109849,0.127385,0.273583,-0.140761,0.0988625,-0.199678,0.0920523,-0.178388,-0.197015,0.275446,-0.174003,0.125076,0.00327187
sterling,0.136953,0.163145,0.295765,0.11805,0.275812,-0.190409,0.145538,0.0135244,-0.256285,-0.170589,0.168898,0.299711,-0.24211,-0.310467,-0.095479,0.227937,-0.100846,0.231831,0.290723,0.0533007,-0.246409,0.0501263,-0.060481,-0.225125,0.0629643,0.0971365,0.21384,0.0142924,-0.203088,-0.0604249,0.0381422,-0.285647,-0.24972,-0.0390449,0.296498,0.267228,-0.0504696,0.253921,0.148109,0.292175,-0.13846,0.200241,-0.180073,0.240723,-0.0627239,-0.0120344,-0.285349,-0.196532,-0.268831,-0.0249114
markets,-0.218112,-0.0400923,-0.229513,0.14891,-0.230685,-0.0351113,-0.0130368,-0.039008,0.0794953,-0.107501,0.321513,-0.264767,-0.138417,-0.239931,-0.0491979,0.0714596,0.183559,-0.0226534,-0.00782245,-0.323867,0.231483,-0.0162472,0.144917,-0.17677,-0.233152,-0.13544,-0.140466,-0.063874,0.0229309,0.143315,-0.224298,-0.134802,0.0413375,-0.26133,0.0377403,0.225197,0.00104337,-0.0993399,-0.205974,0.0562441,0.180037,-0.228087,-0.234974,-0.115358,0.159612,-0.117024,0.0492728,0.156228,-0.00547449,0.194233
scale,-0.108179,0.14671,0.00957446,-0.0277207,0.196868,0.238482,-0.0213525,-0.0378411,0.0815605,-0.135731,-0.128888,0.0887655,-0.093691,-0.113548,-0.290273,-0.00334415,-0.133672,-0.0985569,-0.00240303,-0.0396993,0.0121881,0.347487,-0.0186853,0.123821,-0.0976036,-0.099315,0.101025,0.0505829,0.0296695,0.161497,-0.0988345,-0.102878,-0.0747577,0.295102,0.17109,0.0378089,-0.173828,0.0650282,-0.0595039,-0.0341561,-0.0490276,-0.0706361,-0.277238,0.120481,-0.232741,0.10605,-0.0108775,0.124585,-0.0504591,0.0843183
premium,0.0573337,-0.254539,0.240578,0.294622,0.236359,-0.297845,0.145506,0.135787,0.0371244,-0.0601056,0.0916708,-0.129564,0.0825977,0.248163,-0.305862,0.324323,-0.274995,0.0717544,0.158956,0.377122,-0.0981259,0.0680315,0.023292,0.116747,0.246695,-0.220768,0.182408,-0.0786161,-0.264883,-0.233245,0.323396,-0.295424,0.380621,-0.198838,0.308084,0.00684023,0.302215,0.143936,-0.0146925,0.359627,0.367612,0.188818,-0.0578247,-0.167,-0.266637,0.208179,-0.20881,-0.267654,0.149643,-0.0386556
deficit,0.0480257,0.151071,0.0972352,0.127888,0.138696,0.147133,-0.00407118,0.189553,-0.0641544,0.160159,0.100704,-0.075401,-0.0699126,-0.00621629,-0.155907,-0.0959624,-0.0301964,0.00610834,-0.00607296,-0.0146165,-0.0820528,0.00600192,-0.101663,0.0581268,0.0772642,-0.0281473,-0.030309,-0.240933,-0.063859,0.0513225,0.430636,-0.0586175,-0.00988735,-0.0319244,0.195465,-0.00716385,-0.304045,0.214109,-0.0934329,0.144885,0.250406,-0.329439,-0.114791,-0.15287,-0.175682,-0.138648,0.128529,-0.0665784,-0.0833308,0.17906
fed,-0.0469747,-0.263565,0.0140558,-0.00943837,0.122705,-0.122237,-0.138562,-0.0552423,0.140829,-0.311306,-0.0188155,0.0952236,-0.0977205,0.118839,0.180673,0.158997,0.207525,-0.129823,0.0874859,0.0654401,-0.0421642,0.157048,-0.173448,0.158982,0.147752,0.027889,-0.0373335,0.222976,0.0962996,-0.196849,0.00693688,0.172909,0.0803626,0.00165112,0.0274118,-0.00491413,0.0622884,-0.0121859,-0.0553169,-0.134213,0.0769621,0.512394,-0.243531,-0.0708584,-0.29452,0.181647,-0.0502316,0.360257,0.175279,0.110317
feeds,-0.0687155,-0.00669833,-0.26751,-0.352781,0.0587482,0.364256,0.101231,-0.0614538,-0.0985914,-0.0595091,-0.229381,-0.179869,-0.0849157,-0.081732,0.0789426,-0.0813239,-0.105086,0.187931,-0.0513605,-0.302773,0.019766,0.0254422,0.0765596,-0.0430958,-0.332878,-0.0858036,-0.0690184,-0.080309,0.0561037,0.309102,-0.0620414,0.0460031,-0.374701,-0.0665774,0.100318,-0.136527,0.0203698,-0.203165,-0.0380881,0.134519,-0.0171634,-0.0922719,-0.111497,0.121247,0.349314,-0.0897641,-0.0619442,0.28589,-0.060192,-0.0313373
cheered,0.00537621,-0.318971,-0.192421,-0.124225,-0.0371558,0.109295,0.00365452,0.053486,-0.0518424,-0.129646,-0.0659129,0.0170215,0.0884184,0.0991915,-0.199573,-0.028925,0.014495,-0.0506882,0.122403,-0.204104,-0.11393,-0.223229,0.345337,0.0245641,-0.0736322,0.06647,-0.122386,0.199999,0.01804,0.0442132,-0.0610934,-0.0782462,0.326215,-0.122565,-0.0432112,-0.022764,-0.0700248,-0.0130101,-0.185988,0.0222947,-0.0898978,-0.12627,0.194432,0.320534,0.0487694,0.138165,-0.266527,0.0180746,-0.0319017,-0.0575861
fell,0.185138,0.148174,0.09627,0.283458,0.0828783,0.241215,-0.00643768,-0.140265,-0.125306,-0.165445,-0.143071,-0.154095,0.0131601,-0.306353,0.334026,-0.0609318,0.301336,0.221157,0.152461,-0.260845,-0.286319,-0.29967,-0.189234,-0.195467,-0.287015,0.216187,0.212639,-0.140126,0.318379,-0.113434,-0.312695,0.0837764,-0.178266,0.151342,-0.216243,-0.0124905,-0.209047,0.0873863,0.159735,-0.19366,0.28396,0.203335,0.126765,-0.146063,0.235705,0.287244,-0.0805859,-0.368295,0.0111101,0.122112
double,-0.350179,0.0816409,0.186333,-0.0237008,0.147888,0.00738798,-0.354883,-0.0441126,-0.105545,-0.0301806,0.281471,0.0939575,-0.000577234,-0.0205404,-0.0953432,-0.0827839,0.0178996,0.0958027,0.278976,-0.222005,0.0925304,0.206541,-0.135169,0.0435525,-0.0822867,0.139354,0.0344212,0.0591859,-0.131333,0.116916,0.00122917,0.150254,-0.129669,-0.0146126,0.0216741,0.184242,-0.291451,0.0934207,-0.0707453,-0.136484,0.231874,-0.0344525,0.0635685,-0.121242,-0.0469833,0.0152801,-0.14379,0.0151164,-0.172073,0.00161475
overshadow,0.026656,0.28327,0.233397,-0.123088,-0.0939526,0.0626026,-0.310281,0.129177,-0.120906,0.296058,0.291699,-0.273213,-0.0264306,-0.192189,0.285832,-0.315231,0.0743082,0.305951,-0.134931,0.191506,0.107616,-0.00707063,0.229399,-0.191972,0.237515,0.0376525,-0.342762,-0.0722214,-0.212641,-0.0348653,0.240992,-0.263125,-0.183484,-0.0252283,-0.123639,0.0499752,-0.0789518,0.0280977,-0.24318,0.0422705,0.122378,-0.194141,0.20279,0.239437,-0.296036,0.0643635,-0.293734,-0.218015,0.249396,0.19016
world's,0.269224,0.332731,0.126111,-0.0899736,-0.23594,-0.068807,-0.0922437,0.297131,-0.101122,-0.0795966,-0.274781,0.163332,0.322008,-0.318486,0.201478,-0.328071,-0.15341,-0.202207,0.150373,0.117697,0.20855,0.262767,-0.12458,-0.0919949,0.12788,0.203874,0.218032,0.264765,-0.307789,0.127619,0.26352,-0.226843,-0.403214,0.158473,0.313857,-0.0924996,0.356668,-0.299546,-0.198833,-0.0249264,0.0712934,-0.0505367,0.181383,-0.215311,-0.0677644,-0.0992233,0.182313,-0.125611,0.128936,-0.237272
choice,-0.0288501,-0.0350474,-0.0267204,-0.00543314,-0.204873,0.19358,0.00225849,0.27365,0.126714,0.130071,0.0332209,-0.0990485,0.0589653,0.24746,-0.278315,-0.0804327,-0.0942109,0.020011,-0.0852012,-0.202988,-0.0834038,0.0401864,0.0933453,-0.0193898,-0.172953,0.138746,0.00398765,0.0384094,0.202099,-0.045688,0.058191,-0.047539,-0.137101,-0.190472,0.0338432,0.020936,-0.0184042,-0.0236458,0.139173,-0.0765243,-0.13965,-0.23418,-0.213745,0.389385,-0.113465,-0.0190331,0.12407,0.215664,0.0575034,0.206921
doubts,0.319598,-0.134476,0.014688,0.0977885,-0.082639,0.21074,-0.131965,0.0346532,0.104118,0.0507568,0.0586545,0.202608,-0.118184,-0.0827041,-0.307777,-0.0650821,-0.249717,0.123618,-0.297962,0.0846338,-0.0852572,0.126571,0.098215,0.0638251,-0.145671,-0.172349,-0.0391088,-0.0976566,0.20113,-0.164397,0.0626693,-0.0120967,0.0606637,-0.180064,0.207288,-0.0589502,-0.208492,-0.1444,-0.104315,-0.234709,-0.00323951,-0.0543941,-0.121968,0.228853,-0.0606133,0.177719,-0.0712637,-0.034742,0.13489,0.229014
asset,0.0404646,0.144834,0.0374966,0.00638608,0.121791,-0.0598461,-0.153319,0.059132,-0.0323889,0.235831,-0.116754,0.339308,0.0286182,-0.0959679,0.0586345,-0.00443017,0.0245473,0.0560747,-0.166474,0.000436225,0.0665376,0.0804745,-0.161704,0.386063,0.107441,-0.0749937,-0.0997956,0.000590829,-0.0274723,0.0869716,0.11806,0.00765258,0.07647,0.180422,0.310458,-0.0595619,-0.0455734,0.0982172,-0.106667,0.0707726,-0.0529863,0.238614,-0.304031,0.20497,-0.243299,0.0708793,0.23176,-0.143305,0.0242493,0.112419
strike,-0.36263,-0.202156,-0.17249,0.152187,-0.156895,-0.113504,0.0373318,-0.11497,-0.00867661,-0.111407,0.00587635,-0.131193,0.033655,-0.0177873,-0.0384967,-0.16889,-0.0883477,0.04283,0.145409,-0.0512835,0.2025,0.059117,-0.0364352,-0.0919671,-0.087776,-0.163109,0.206363,-0.0316511,0.096865,-0.241839,0.108407,-0.0366721,-0.120146,0.0314657,0.107708,-0.0395214,-0.133509,-0.225692,-0.0346011,0.127194,-0.117263,-0.130518,0.297394,0.154897,-0.141754,-0.242411,-0.155086,-0.0420163,-0.0716047,0.354969
deter,-0.0672883,-0.0682968,-0.137191,-0.108293,0.20776,-0.100666,-0.270446,-0.165561,-0.0311673,0.00562669,-0.0681135,0.184112,-0.0701972,0.126728,-0.123531,-0.126556,-0.0972025,-0.156263,-0.0271816,0.0712669,0.0397707,0.27027,-0.0372977,0.00933643,-0.0265931,0.203808,0.151578,0.090837,-0.0668148,0.109649,-0.190842,-0.255606,-0.185744,0.0786039,-0.0391216,0.0723546,-0.0969183,-0.080496,-0.280321,0.116826,-0.189739,-0.175664,0.181144,0.205215,-0.159016,0.122946,-0.124664,-0.1332,0.229945,-0.0739112
preview,0.0564449,0.0676995,0.112796,-0.266416,0.307654,-0.0830585,-0.191451,-0.173792,0.254744,-0.344394,0.0126624,-0.258935,0.216764,-0.21619,0.199792,0.309294,0.139321,-0.330017,-0.226855,0.225247,-0.279622,0.0957,0.119174,0.171287,-0.255101,0.304312,-0.0340645,0.150764,-0.258887,-0.365763,0.142123,0.078808,0.300796,-0.308883,0.316114,0.29286,-0.0618919,-0.233874,-0.169221,-0.230588,-0.273744,-0.10858,0.298443,0.294542,-0.278146,0.1544,-0.295017,0.24752,0.213189,0.160082
prepare,0.265694,0.0186854,-0.0776231,-0.0267828,0.156927,0.0571996,-0.157322,-0.0848773,0.018119,0.210728,0.0407027,0.151033,0.0236694,0.195029,-0.22885,-0.0638292,0.019039,-0.147186,0.0830829,0.0652842,-0.0677034,0.0939137,-0.0144118,-0.0246418,-0.233539,0.124723,0.18926,0.0654071,0.188475,0.105266,-0.226627,-0.0128002,-0.16744,-0.0516027,-0.137211,0.00394847,-0.0982095,0.0698349,-0.0242417,0.0495997,-0.0138658,0.00431858,0.398596,-0.0909243,0.0441046,0.114159,-0.278868,-0.140879,-0.152673,0.293083
flat,-0.0269828,0.215574,0.0457572,-0.0858388,-0.169884,-0.10481,-0.104628,-0.121692,0.0765266,-0.129369,-0.0272211,0.174659,-0.285298,0.0751904,-0.0234296,-0.0419103,-0.19017,0.154033,0.275152,-0.344029,0.149435,0.0425826,0.0391655,-0.032266,-0.13136,-0.147384,0.189978,-0.0607881,-0.181644,0.0543721,0.29008,0.0395446,-0.277037,0.0548844,-0.0711167,-0.00118442,-0.25548,0.18478,0.120135,-0.102506,0.107375,0.0227897,-0.00576651,0.155982,0.24241,-0.1144,-0.00359588,-0.0664922,0.0419629,0.250326
capital,-0.108404,-0.129424,0.168479,0.11669,0.165277,-0.0336385,0.0529244,-0.0853427,0.0884192,0.269611,-0.33889,0.21037,-0.077306,0.130144,-0.165869,-0.188975,-0.00185072,0.168437,-0.103336,0.105237,0.039953,-0.0336195,-0.0414942,0.127741,0.0536547,0.0120942,-0.0271337,-0.221929,-0.260824,0.140247,-0.0641379,-0.0752615,0.104186,0.29552,0.17574,0.0926432,-0.103902,-0.156406,-0.230929,-0.00258371,-0.0523847,-0.0440204,0.0129634,0.0659484,-0.199813,0.240874,-0.028576,0.210089,-0.134658,0.0597365
throws,-0.173443,0.0747195,0.0893877,-0.36451,0.131017,0.310066,0.085401,0.131351,-0.238699,0.070808,-0.173527,0.0650772,0.000335375,-0.126576,-0.0153551,0.0773608,-0.0113383,-0.0387776,0.150455,-0.13908,0.060725,-0.104789,0.157173,-0.0346681,-0.197077,-0.152511,-0.0352748,0.251192,0.181963,0.00250026,0.0294905,0.0613402,-0.0420354,0.0203742,-0.0805035,-0.0683448,0.117193,0.00731126,-0.0420573,-0.0977555,0.103897,-0.225073,-0.0558947,0.185099,-0.252726,-0.0282579,-0.110561,0.255196,-0.0437968,0.146922
door,0.136338,-0.036134,-0.0485122,0.0057265,-0.061404,0.108315,0.205226,0.157389,0.179918,-0.0952326,-0.192856,0.0514066,0.194922,-0.00564857,-0.225504,-0.175875,0.0467375,0.132574,0.276798,-0.0784957,0.247667,0.0951356,0.164188,0.0742649,0.0998509,0.0286137,0.00109281,0.0655895,0.109815,-0.219138,0.149061,0.0925805,0.0565634,0.0711936,-0.0589828,-0.0933955,0.109238,-0.132821,0.0103208,-0.0689039,0.130175,-0.167312,-0.110927,0.27778,-0.0163678,-0.139207,-0.0223938,0.245667,0.120271,0.178419
flare,-0.0927045,0.227733,0.23303,-0.0868987,0.213342,0.0984763,0.0850533,-0.196475,0.150282,0.129773,0.00559236,-0.112727,0.203432,-0.324032,-0.0258148,0.0446427,0.210595,0.290658,0.242159,0.00676237,-0.271829,-0.223092,0.237501,-0.186512,0.17335,-0.0232315,0.0282296,-0.0956131,0.341324,-0.25609,-0.14888,0.0868939,0.131916,-0.193762,0.194639,-0.134748,0.0976875,0.126952,0.0170663,0.033879,0.267545,-0.293461,-0.0252471,-0.225639,-0.309157,0.132548,-0.167763,0.21453,-0.0398885,-0.160925
club,-0.0524331,-0.0590314,-0.163465,0.329241,0.178033,-0.0580864,0.238531,-0.208114,0.0769948,0.124231,-0.0200386,0.0235666,0.287269,-0.12185,0.157113,-0.24654,-0.0458144,0.119462,-0.0589712,0.248306,-0.300408,0.0212151,-0.106081,-0.0531264,0.254957,-0.227346,0.0142526,0.230211,-0.0237822,0.179696,0.000298507,0.214254,-0.202648,-0.19409,0.286698,0.19691,0.00237151,-0.261066,-0.0458288,-0.208285,0.184237,0.218148,-0.300709,0.280121,0.365013,-0.376785,-0.0298108,-0.105646,0.262375,-0.0431749
tumble,-0.090926,0.0458194,0.0991129,-0.250515,0.174683,0.166467,0.144021,-0.0571396,0.0455905,-0.461688,0.0867257,0.215893,-0.052635,-0.135183,0.121695,-0.108832,-0.0826772,-0.0455131,-0.134434,-0.16074,0.00162788,-0.03219,0.137309,0.200044,-0.0986302,0.00827937,-0.035613,0.0104434,-0.0190915,-0.137606,0.13329,-0.047309,-0.065832,0.173219,-0.0349944,0.0146976,-0.198752,-0.109812,0.0424552,0.00533285,-0.0301734,0.0841296,-0.151682,-0.126079,0.0651142,0.118394,-0.0245854,-0.135523,-0.168941,-0.0384946
companies,-0.11656,0.28918,0.152567,0.13233,-0.050134,0.137667,0.0601753,0.103007,0.0295574,0.0932691,0.0937935,0.0102414,-0.0142365,0.0627845,-0.0736376,-0.322882,0.143063,-0.0507439,-0.275948,-0.0598324,-0.0540897,0.0471356,-0.244995,-0.0082676,-0.0886935,-0.0240222,0.0752105,-0.138452,0.0203338,0.0615615,0.147616,0.0636552,-0.164768,0.134546,0.040465,0.0240775,0.125889,0.280207,0.0486686,-0.220005,-0.0409939,0.215287,-0.0630438,0.282814,0.0930157,-0.0810714,-0.00661658,-0.166562,0.237588,0.154022
one-sided,0.0866185,-0.0400861,-0.134909,0.0693508,-0.0253607,-0.249572,-0.0608241,-0.0577634,0.285472,0.0713196,0.116821,0.101369,-0.00113381,0.11814,0.0480038,0.134801,-0.266501,-0.218575,0.0142294,-0.189697,-0.195984,-0.0957885,-0.0105903,-0.185558,0.163864,-0.0561045,0.280469,0.0306149,-0.0457978,0.0610334,0.0244916,-0.235476,0.055589,-0.0382628,-0.0517071,-0.228035,-0.0956117,-0.0442183,-0.359269,-0.128287,-0.00496994,-0.0852222,0.0633727,0.211048,0.052519,0.0798775,-0.0392472,0.129685,0.157126,0.143197
award,-0.152448,0.106071,-0.0295511,-0.0632713,0.115257,-0.0398133,-0.127561,0.0484574,-0.267666,0.0411054,0.0402689,-0.0518835,-0.0911735,-0.0141127,0.0306109,0.164411,0.0280386,-0.0954992,0.225395,-0.142003,-0.135579,-0.158172,-0.0338503,0.0756054,-0.196394,0.138192,0.04414,0.220206,0.00900173,0.0710848,-0.19147,0.1509,-0.163256,-0.338526,-0.0280414,-0.0921091,0.0629234,0.144841,-0.0362631,0.0177793,-0.0583585,0.132469,0.236942,-0.122999,-0.0642212,-0.140454,-0.0774594,-0.127229,-0.386875,0.159412
hurt,-0.17663,0.134285,0.0117885,-0.0395658,0.0522981,0.0119972,-0.372465,-0.176884,-0.0421511,-0.19581,-0.108259,0.203905,-0.304551,0.136014,-0.102289,0.0206117,-0.225218,-0.18713,-0.141688,0.00452667,-0.139169,0.0612844,-0.0817136,-0.00765991,0.0371729,0.00882596,-0.177999,0.167531,0.00100964,0.0239321,0.0102384,-0.279263,-0.0908586,0.0492837,-0.0758337,0.0341387,-0.114673,-0.0845378,-0.216776,0.0257565,0.0241024,-0.0531068,0.181785,0.0756731,-0.00602607,0.0799235,-0.228336,-0.109792,0.199067,0.0333875
warn,0.0758153,-0.0452512,-0.121566,-0.169966,0.184811,0.148438,-0.18769,-0.193094,0.0966362,0.00995217,-0.0768107,0.0834474,-0.222608,0.14156,0.0235629,-0.0415181,-0.35485,-0.0211612,-0.0837045,0.266406,0.0537875,0.174272,0.0558903,0.0304623,-0.0954502,-0.0357862,-0.0168878,0.218156,0.037569,-0.0124599,-0.205684,-0.168359,0.0123564,-0.212762,-0.0789134,0.0360601,-0.137565,0.0612864,-0.103542,0.057856,-0.0395468,-0.165409,0.117726,0.3134,-0.010162,0.0523207,-0.0949514,-0.219615,0.11085,0.100405
strays,-0.142516,-0.120045,0.0809999,-0.199575,0.174662,0.227999,-0.0122325,0.10136,0.103357,-0.110493,0.0127886,0.0310631,-0.0831735,-0.0672134,-0.13474,0.123402,-0.116713,-0.00884932,0.14114,-0.290331,-0.062321,-0.0174041,0.0982576,-0.110013,-0.368186,0.195562,0.0108026,0.00224852,0.0482361,-0.199081,-0.103605,-0.0654202,0.081167,0.169236,-0.0286827,-0.0165941,-0.122223,0.175453,-0.211236,-0.134081,0.124995,0.119223,0.221322,0.218489,0.210676,0.0550583,-0.231685,0.00926728,0.0558506,-0.0829005
drowns,0.0188798,-0.0675,-0.106967,-0.31225,0.216588,0.295,-0.00895113,0.00122053,0.0784419,0.122999,-0.144804,0.025116,0.0750506,-0.191991,-0.160611,0.0386833,-0.172233,0.175719,0.116307,-0.270193,-0.162439,-0.0790889,-0.161813,0.00347239,-0.0887259,-0.00753623,-0.145828,0.110994,0.166396,-0.0512472,-0.146988,0.0211186,0.0477361,0.0612925,-0.0296158,-0.0275421,-0.104764,0.0392498,0.112156,-0.011627,0.215298,-0.0397626,0.158675,0.0961232,0.250717,-0.0442146,-0.176426,0.217842,-0.0986482,0.134841
flame,-0.230793,-0.0914005,-0.0259969,-0.3327,0.164392,0.0430629,0.197526,0.0225344,0.174511,-0.182965,-0.134704,-0.0103471,0.189543,0.075672,-0.0951182,0.188327,-0.0584932,0.215095,0.166232,-0.156493,0.213563,0.00320269,0.0196772,0.185301,-0.000435667,-0.221483,0.076437,0.075862,-0.0119713,0.00604585,0.0124904,0.138866,0.0819966,0.179559,-0.0433183,-0.284311,-0.0510714,-0.155203,0.0560749,-0.0564108,0.0460951,-0.21816,-0.0362235,0.11754,-0.0443185,0.0991534,-0.189623,0.0203573,0.0987013,0.194626
gamble,-0.0332458,-0.0838074,-0.033781,-0.146566,0.279935,0.109989,-0.197242,0.292938,0.096227,0.0614447,0.109946,0.0247449,0.197647,0.103308,-0.0856207,-0.07084,-0.00350711,0.11679,-0.101213,-0.305556,0.107865,-0.0737123,-0.0909702,0.176579,-0.0974391,0.0172133,0.0711938,0.177293,0.17655,-0.141125,-0.18951,-0.0103048,-0.165408,0.0678733,0.0287425,0.048661,-0.124517,-0.0261087,-0.242029,-0.317957,-0.00260545,-0.276433,-0.248449,0.226334,-0.114459,-0.0452484,-0.0437928,0.0336022,0.0442246,0.129493
hold,-0.157609,0.0608146,0.149146,-0.119905,0.0729271,0.0449258,-0.0541299,0.0230987,-0.196404,0.0998431,-0.00326446,0.234848,-0.0464235,-0.22506,-0.152671,-0.0198076,0.0856635,-0.0564366,-0.0221889,-0.172311,-0.265429,0.0401889,-0.0535357,-0.0310152,-0.402096,0.173085,-0.00585267,0.105625,0.0882196,-0.0620231,-0.113127,0.11181,0.105943,-0.147452,0.0122806,-0.0980987,-0.0596423,0.130516,-0.159009,0.19411,0.0998935,0.290428,-0.176877,-0.106523,0.0467679,-0.0980004,-0.0910282,0.00766459,-0.407273,0.0265043
tariff,-0.0884121,-0.324748,0.114083,0.199143,-0.0172423,-0.237714,0.0990239,-0.280827,0.148705,0.00668909,-0.297917,0.143658,0.0984454,0.00605171,-0.192596,0.282688,0.176064,-0.0583677,-0.0774069,-0.12377,-0.20831,-0.223011,0.14441,-0.184728,-0.0245864,-0.0762577,-0.0390779,-0.368152,0.0247446,-0.191044,-0.142231,-0.0424554,0.368375,0.183805,0.15871,-0.205927,-0.249009,-0.289311,0.0445876,-0.289399,-0.183704,-0.133886,0.259636,-0.172169,0.225294,-0.0829481,-0.0399191,0.0632846,0.107045,0.261875
fly,-0.201681,-0.156241,0.0797154,0.157899,0.197765,0.0745543,0.0598591,-0.0165762,0.0475447,0.0387507,-0.125662,0.0977797,-0.0480989,0.116148,-0.158028,0.0102607,-0.0346106,-0.0568567,0.255219,-0.213601,0.371562,0.02734,0.00354348,-0.0561648,-0.0196614,0.0572021,0.0379393,0.0491741,0.374005,-0.0770651,-0.165862,0.116002,-0.0713242,-0.208942,-0.0435343,0.0579546,-0.234151,0.231727,0.0596769,0.175947,0.0897999,-0.0627355,-0.0140418,0.190891,-0.128246,0.139949,-0.184558,0.0753673,0.0168414,0.175398
accounts,-0.153287,0.256241,-0.122921,-0.296034,0.0704984,-0.0866119,-0.110873,0.0610096,-0.292153,0.210968,-0.043992,0.03173,-0.0887505,-0.0649661,0.212762,-0.314524,-0.197988,0.272913,-0.14577,-0.110146,0.226111,-0.0657497,-0.141271,0.2148,-0.27193,0.0513588,-0.0356371,0.0390416,-0.0890654,0.269958,0.00352501,-0.0737858,-0.0323862,-0.0979081,0.159067,0.0118704,-0.0798571,0.0115332,0.00974864,0.125642,-0.0177949,0.0437725,-0.0942043,0.0927413,0.132291,-0.187536,-0.0919532,0.025116,-0.111951,0.0799047
join,0.255899,0.013036,-0.334426,0.384314,-0.279587,0.17037,0.0947712,0.100312,-0.0111666,-0.12749,-0.189748,-0.168296,-0.248697,-0.0721291,-0.167761,-0.141013,0.122861,-0.0346425,0.157875,0.2051,0.0248508,-0.112678,0.263727,0.200155,0.26731,-0.0700347,0.155343,0.0270855,0.108331,0.00914057,-0.193324,-0.153217,0.204406,0.107235,0.071353,-0.235262,-0.258646,0.118338,0.00420137,-0.0399879,-0.120316,-0.0415839,-0.16216,-0.229398,-0.00345494,-0.040734,0.218645,-0.138981,-0.140874,-0.162225
hours,-0.152136,0.0861048,-0.0161419,-0.0303933,0.090985,0.0586114,0.22941,-0.139203,-0.211384,0.0675448,-0.0854951,-0.122824,0.0661401,0.0125955,-0.107133,0.0608144,0.0867421,0.231103,0.290347,-0.0659757,0.303233,-0.0813764,-0.045995,-0.123631,-0.0971873,-0.183575,0.0677718,-0.0783351,0.385895,0.0636465,0.144936,-0.0467698,0.206873,0.0126864,0.0855205,0.00599181,0.198837,-0.0434919,0.11427,-0.0424668,0.187013,-0.124364,0.20147,0.0763661,0.0365915,-0.147476,-0.211378,0.0493579,-0.0148367,0.153978
house,0.112578,0.117215,-0.238087,-0.0544013,-0.100652,0.130883,0.0685452,-0.11664,-0.145018,0.0798105,-0.122057,0.0638277,-0.145405,-0.00797815,0.0857457,-0.0771919,-0.0113339,0.335797,-0.171339,-0.107489,0.239128,-0.138335,-0.0694555,0.19653,0.128648,-0.0174889,0.0447814,0.0453222,-0.163871,0.077153,0.00195084,-0.102187,-0.387758,0.296066,0.0225688,0.0737892,0.071871,-0.0476259,-0.248676,-0.306995,-0.113842,-0.301241,0.0828553,-0.0348526,0.14859,-0.0499737,0.294654,-0.00164213,-0.0362007,-0.18272
car,-0.164899,-0.0138997,-0.0791055,0.0524936,-0.157561,-0.00813119,0.0207668,-0.0919847,0.195502,-0.105928,-0.20884,-0.0664193,0.0520902,0.177844,-0.149576,0.0156778,0.0622043,0.0271258,0.14805,-0.374458,0.297544,0.0659276,-0.144701,0.117686,0.0939207,0.00645182,-0.25976,0.022692,-0.160934,0.100333,-0.0550569,0.0616261,0.0568246,0.220184,-0.0161855,-0.210523,-0.00531612,0.234775,0.107786,-0.0249101,0.122239,-0.0744215,-0.0473137,0.154673,-0.232512,0.0131713,-0.216765,-0.0315597,0.128111,-0.100335
workers,-0.0956708,0.0677764,-0.160721,0.0109119,-0.0547239,0.0367834,0.13046,-0.0521379,-0.17441,0.0737879,-0.213557,-0.257409,-0.00225535,0.106209,-0.0443487,0.00639966,-0.0619007,0.256925,-0.0272434,-0.013738,0.0274654,0.110401,-0.123125,0.00602576,-0.00167462,-0.0886458,0.136552,-0.104221,0.0960476,-0.0334231,0.16101,0.109195,-0.265632,0.0824593,0.170542,0.0695288,-0.0107595,0.22161,0.114108,-0.113333,-0.0316926,-0.0869324,0.276628,0.256287,0.0395551,-0.2673,-0.21495,-0.203506,0.111076,0.0803603
judge,-0.103578,-0.0984913,0.026138,0.0348914,0.34009,0.203542,-0.191002,-0.269503,-0.0372791,-0.0429626,0.180102,-0.218581,0.145983,0.154771,-0.0625359,0.209399,0.0803259,0.188104,-0.350955,-0.354723,-0.0390283,-0.190225,0.126176,-0.0948558,-0.0223001,0.102988,0.297401,0.0624471,0.189766,0.296454,-0.145376,-0.08056,-0.0846125,0.0287994,0.013457,0.107621,0.254496,0.356595,-0.0336787,0.294182,-0.210213,-0.0825446,-0.302062,0.351589,0.144784,-0.246592,-0.149693,0.226188,0.23645,-0.389731
flies,-0.287756,-0.0666639,0.142212,0.0942998,0.0755786,0.0402525,-0.0442869,0.0566277,-0.0476225,-0.0925992,-0.298255,0.0665772,0.0282486,-0.0690597,-0.155256,0.0895685,-0.0963894,-0.0746183,0.171493,-0.259932,0.0281185,-0.259067,-0.00526977,0.0271692,-0.0872894,0.226409,-0.206413,0.0469418,0.37807,-0.160689,0.0284784,0.111566,0.0585463,-0.156791,0.154014,0.128084,-0.238811,0.215325,0.10747,0.18027,0.00258917,0.0868427,-0.132453,0.064724,0.00770829,0.00587333,-0.23064,0.148817,0.0723744,-0.0457116
remain,-0.15637,0.025423,0.0172,-0.0905665,-0.0386669,-0.00492371,0.0646917,-0.0164339,-0.0515743,-0.0439743,0.0295712,0.222812,-0.413979,-0.148558,-0.370624,0.0969754,-0.107602,0.173857,-0.0691491,-0.0602387,0.0788304,0.362845,0.00545387,0.0812837,-0.0526011,-0.00281139,0.192702,0.0738738,0.330973,0.131787,0.013565,-0.15734,-0.086058,-0.0108878,-0.158169,0.0665612,-0.109852,-0.0429637,-0.190109,0.131763,-0.0656401,-0.0464321,-0.039615,0.0659484,-0.0127346,-0.0408616,0.131452,0.115182,-0.00774765,-0.0203483
delivers,-0.0686875,-0.301939,-0.124565,0.249026,-0.0429287,0.257304,0.288188,0.136216,0.0186073,0.145984,0.235663,0.328697,-0.0922765,-0.06789,0.0954612,-0.175397,0.294903,0.169084,-0.364991,0.164162,0.0580656,0.102271,0.0387016,0.244345,-0.211263,0.079093,-0.173629,-0.212049,0.288768,-0.259716,-0.0333105,0.191609,0.117484,0.0822663,0.199959,-0.209728,0.139659,0.0390043,0.345135,-0.322553,0.0161959,-0.302907,0.0814914,0.294509,0.174076,-0.0496743,0.161828,0.136432,-0.175448,0.0859914
dilemma,0.193153,-0.0426617,0.0259746,0.051394,-0.0387577,0.0693576,-0.0101578,0.0986451,0.188046,0.025822,0.148121,0.021549,0.0457704,0.161394,-0.161243,-0.0445846,-0.167054,0.116608,-0.0624198,0.0366761,0.0684532,0.067509,0.0785412,0.0554579,0.0211606,0.0478445,-0.0523784,-0.00833427,0.128159,-0.160006,0.256157,-0.07279,-0.0412587,-0.125157,0.184368,-0.12979,-0.388923,-0.0255555,0.0257059,-0.224775,-0.0466958,-0.234096,-0.311229,0.193642,-0.061628,0.0252689,0.210194,0.069886,0.298852,0.194069
floating,0.0994558,-0.0934428,0.0946977,0.0397771,0.0705848,-0.0562035,0.126297,0.0978569,-0.0469932,0.211034,0.0853152,0.166333,0.13191,-0.0639738,0.145235,0.117375,-0.145238,-0.0786957,0.383795,-0.192565,0.245654,-0.086552,-0.179226,0.0896087,0.0674037,0.166231,0.173427,-0.308734,-0.075557,-0.0337192,-0.0729346,0.0469334,-0.315796,0.000450954,0.10319,0.0917464,0.0784315,-0.173552,-0.1193,0.0768169,0.167106,-0.107784,-0.0796132,0.143788,0.0192041,0.18911,0.0545562,0.0849994,0.0137634,0.0118052
call,-0.32132,0.226586,-0.201211,-0.244043,-0.267324,-0.336836,0.175417,0.0270701,0.142183,-0.123719,-0.28034,-0.148491,-0.144004,0.253768,0.209901,-0.247993,-0.22863,0.103069,-0.133928,0.0772681,0.184765,-0.171229,0.0231866,0.204332,-0.0507165,0.119068,-0.0374534,-0.274105,0.17936,-0.143466,0.0356701,-0.204237,0.154352,0.27883,0.0957382,0.211108,-0.178036,0.107034,-0.147533,0.104652,-0.28741,0.152629,0.0859594,0.135233,-0.305411,0.0101257,-0.251948,-0.141363,0.130975,-0.0252968
meet,-0.0456834,-0.111576,0.0291008,0.241101,-0.246733,0.0803168,0.0320112,0.0682886,-0.00264451,-0.00839142,0.141254,0.0696922,-0.0285417,0.00733353,-0.254409,-0.239337,0.152686,0.0487685,0.119829,0.290224,0.127801,0.0280015,0.162472,-0.145284,-0.0134941,0.0126506,-0.010404,0.0563996,0.0128837,-0.087007,0.028964,-0.16615,0.312464,-0.0881752,-0.0368932,0.0629523,-0.144239,-0.161004,-0.023559,0.1873,0.174813,0.0217041,0.1474,0.168405,0.0157023,0.230021,0.0908313,0.0647513,-0.171882,0.252149
debate,-0.200519,-0.224705,-0.124932,-0.0764839,0.144464,-0.0150333,0.0367889,0.0660871,0.174897,-0.161087,0.242715,0.224416,0.0431632,0.30256,-0.154624,0.230639,-0.16396,0.0891075,-0.169836,0.0446435,-0.0606348,0.327069,-0.0170837,-0.173804,0.199651,-0.0257372,-0.151313,-0.0612055,-0.206561,0.214235,-0.217597,0.228826,0.196621,0.212729,-0.0361922,0.275062,-0.244943,0.304724,0.262739,-0.216018,-0.0397849,-0.0641116,-0.152632,-0.0350043,0.0110207,0.110709,0.106783,0.0310383,0.298631,0.0343412
roots,-0.238313,0.0985584,0.049619,-0.346068,0.0976147,0.167916,0.0568445,0.0615213,0.14879,0.100873,-0.164754,-0.0379212,0.138272,0.047838,-0.287516,0.0122308,-0.0599899,0.146756,-0.0570893,-0.130208,-0.0424317,-0.0884587,0.0888272,0.144901,0.0359144,0.0307169,-0.0791958,0.329541,-0.0395309,-0.144471,-0.021814,0.102888,-0.067146,0.187357,0.0649556,-0.360519,-0.234684,-0.0696533,0.038861,-0.0944897,-0.157093,0.12799,-0.115994,0.154077,0.0705198,0.0132769,0.00114951,-0.189125,0.0583369,-0.0141805
erase,-0.27047,0.249292,0.152087,-0.262161,-0.210068,-0.22497,-0.150598,0.280541,-0.0962364,0.176371,-0.199127,0.26457,-0.129177,-0.399157,-0.0591078,-0.000102551,-0.219013,0.281152,-0.0876807,-0.0408642,-0.237036,0.0144538,0.111379,0.135941,0.0935212,-0.0393541,0.325102,-0.334261,-0.201424,-0.111469,0.238362,-0.0873907,-0.359719,-0.126974,-0.171133,-0.231404,0.0407479,-0.00310838,0.0892821,-0.295888,-0.28141,0.192589,-0.27765,-0.130482,0.279119,-0.309956,0.02012,0.108218,-0.329779,-0.317554
streak,-0.0212307,0.00617873,0.095934,0.0202975,-0.157979,0.188153,-0.0311689,-0.160471,0.0568725,-0.035536,0.119043,0.044031,0.315584,0.00295078,0.0752739,-0.149517,0.0974683,0.10431,0.0258739,-0.138894,0.268613,0.129066,0.157141,0.0707904,-0.0173665,-0.168889,-0.201192,0.0470927,0.152917,-0.173192,0.125026,-0.207343,-0.244946,0.146759,0.0695899,-0.0109501,-0.110783,-0.153851,0.00138764,0.0101652,-0.186766,-0.0848761,0.223728,-0.150613,-0.292364,0.0663516,-0.0515677,-0.143425,0.191956,0.0361977
claim,0.041035,-0.111651,-0.15099,-0.175667,0.157868,-0.0882267,-0.0213827,0.0185422,-0.0522695,0.305873,0.109537,-0.0943728,-0.0396804,-0.000671823,0.170135,-0.180115,-0.159486,0.126867,-0.00231619,0.0489828,0.0450991,0.00435231,0.00700092,0.101966,-0.161652,-0.0893665,0.138839,0.279846,0.0725399,-0.058079,-0.0429664,0.0170211,-0.0701814,-0.310127,-0.0628125,-0.258086,0.00259315,0.26617,-0.0527843,0.0110798,-0.183848,0.062377,0.0182833,0.368108,-0.17226,0.0248886,0.12689,-0.10169,-0.0200994,0.190012
slide,-0.142978,-0.0146584,-0.0788254,0.056595,-0.098651,-0.0973796,0.0245952,-0.0761552,-0.0679618,-0.182386,0.281652,0.019236,-0.147776,-0.157405,-0.0609772,-0.295758,-0.185616,0.00814947,0.118845,-0.349142,0.0593089,0.0089058,0.081176,0.0522975,-0.0626708,-0.127228,-0.140683,-0.0432204,0.0763851,0.075096,0.191546,-0.152607,-0.0501007,0.265842,0.272899,0.0295117,-0.0570874,-0.20714,-0.132525,0.01637,-0.108065,-0.0853753,-0.0196835,-0.168333,-0.130066,-0.00778445,-0.0181287,-0.100577,0.0749162,-0.00946261
tap,-0.160852,-0.0697103,0.116244,-0.0676158,0.125113,0.058371,-0.243245,0.0290215,0.169049,0.00832752,-0.0345512,0.243174,-0.0330425,-0.00286819,-0.351352,-0.111975,-0.0597855,-0.112964,0.0232023,0.0947629,0.127733,0.18357,-0.192857,0.15053,-0.172903,0.184688,-0.0937818,0.0627034,0.0245456,0.0908221,-0.128713,-0.0308624,-0.310901,0.0615292,0.0351205,0.166553,-0.18927,-0.109869,-0.30837,0.174791,0.0331851,0.129132,-0.130556,-0.101064,-0.0106094,0.205542,-0.202404,-0.184203,0.0438669,0.0950234
trump,-0.161141,-0.0184742,-0.114617,-0.3186,0.199206,-0.00988253,-0.0244579,-0.0412846,-0.0197395,0.227642,0.0751252,-0.0516452,-0.0173174,0.111938,-0.0235731,0.0593141,-0.0741844,-0.187462,-0.0836663,-0.226161,-0.263915,0.145558,-0.0857746,-0.0476988,-0.105387,0.104885,0.0799132,0.130349,0.205637,-0.0409802,-0.136789,-0.100276,-0.256812,0.145416,-0.370822,-0.0449725,-0.098801,0.0902913,-0.355847,0.118263,-0.0647997,-0.0600726,-0.0530528,0.239333,0.0597176,-0.0924272,-0.0746651,-0.0190754,0.0467766,0.0211983
brown,-0.2314,0.33715,-0.260106,0.0213186,-0.0372942,0.110734,0.201977,-0.0322302,0.0444948,0.162315,0.0627114,-0.247554,-0.0844645,0.084384,-0.207225,-0.136261,-0.0976244,-0.0195013,-0.0252105,-0.167366,-0.185122,-0.122649,0.26466,0.184904,0.261025,0.0961941,-0.194792,0.0434611,0.20536,-0.222758,0.325464,-0.226339,0.347154,-0.0143678,-0.283643,0.215496,0.0243354,0.086438,0.0847039,0.0744135,-0.246828,0.374813,-0.172676,-0.0266257,-0.12099,0.311934,0.0638245,-0.234073,0.337159,-0.0835608
processing,-0.0583182,0.140219,0.275799,-0.277933,0.0614223,0.232373,0.00842611,-0.00581353,0.189367,0.0300318,-0.137835,0.153337,-0.263202,0.0839257,0.014205,-0.241871,-0.0570314,0.263715,-0.219476,-0.0794204,0.0892581,-0.0676999,0.157817,-0.189227,0.0463144,-0.28242,-0.219832,0.135874,-0.219467,0.0597731,0.319186,0.220165,0.327426,0.129184,0.320059,0.27965,0.0124235,0.118319,0.11213,-0.112136,-0.220088,0.0746247,0.0997013,0.325065,-0.324075,0.311863,0.224437,0.296415,-0.054116,-0.0390819
