healthy,0.0249331,-0.217765,-0.160986,-0.156457,-0.269581,0.00568043,-0.14587,0.0616885,0.172135,0.16082,0.0303512,-0.0962008,0.111754,0.148389,-0.0268288,-0.0286979,-0.0126132,0.297493,0.063178,-0.0784104,-0.213917,0.0339315,0.0777434,-0.253923,-0.236154,0.263422,-0.26551,0.300555,0.296216,-0.0774296,-0.229184,0.260291,-0.020212,0.0121496,-0.272881,-0.0017421,0.38364,0.137972,-0.30678,-0.156046,0.0729052,-0.0718752,-0.334613,-0.277271,0.0397965,0.237476,-0.394019,-0.0464871,0.106849,-0.0603441
bucks,0.0719018,0.281237,-0.0389853,-0.415283,0.050301,-0.0795035,-0.21673,0.0916613,-0.0908355,-0.122986,-0.169086,-0.0165465,0.241755,0.1041,0.0274481,0.0191576,0.13988,0.167677,-0.0114625,-0.285967,-0.0108841,-0.0838528,-0.0847903,0.0683845,-0.128502,0.0221315,0.00907454,-0.0664901,0.262773,-0.0199675,0.124573,0.15845,0.188097,0.0806815,0.073198,0.246273,0.15721,0.0483049,0.0303417,-0.125179,0.0676797,-0.118988,-0.108014,-0.0121054,-0.10169,0.058684,-0.19718,0.219323,0.0235252,-0.00583381
box,0.132448,-0.169578,0.0203761,-0.222717,0.0727757,0.107866,0.304408,0.259661,0.152574,0.0860742,-0.0759183,-0.124122,0.0131853,-0.108249,-0.0790443,0.118848,-0.124726,-0.0156304,0.230733,-0.317935,0.184035,-0.0653488,-0.019681,0.0185622,-0.145718,-0.0602821,-0.210914,0.122267,0.226367,0.115294,0.16313,0.0947117,0.139911,-0.136911,-0.0273207,-0.152356,0.112526,0.081224,0.0966066,0.0401449,0.17244,-0.102724,-0.150902,-0.122603,-0.0564039,-0.219771,-0.178404,0.0742941,0.104543,0.178909
wait,0.0592214,0.0566915,-0.0324935,0.140719,0.0510614,0.176618,-0.0380818,0.145836,0.132741,-0.105703,-0.0421466,0.243822,-0.0647108,0.121022,-0.286418,-0.0747934,-0.0312623,0.153749,0.106232,-0.100184,0.0534804,0.268268,0.00642331,-0.358116,-0.17824,-0.00891704,-0.055653,0.0949207,0.374154,-0.157786,-0.0866766,0.0465161,-0.0969544,-0.104864,-0.0530653,0.114322,-0.0704855,0.0320907,-0.142206,-0.195725,-0.175773,0.0217673,0.1915,0.0836688,-0.11924,0.052561,-0.157425,0.139946,-0.0223138,-0.0065433
address,-0.0476141,0.023209,-0.146487,0.109005,0.157847,-0.00432647,-0.111087,-0.224857,0.0692561,0.23157,-0.017601,-0.162589,-0.0454591,0.145798,-0.355659,-0.0111937,-0.18878,-0.0530337,-0.0721614,0.275922,-0.0155102,0.177143,0.0225737,-0.0145869,-0.0475881,0.137114,0.0497832,0.0774772,0.164515,0.0104303,-0.0679287,-0.146215,0.168271,-0.046549,-0.318366,0.0521988,-0.183334,-0.0554224,-0.180099,0.224479,0.1627,-0.0810741,0.0864817,0.151769,-0.0859607,0.123611,-0.0707408,-0.0690072,0.112552,0.20816
snacks,-0.162023,0.041797,-0.0550876,-0.209681,-0.0566362,0.279321,0.0498699,0.0256367,0.241006,0.0461492,-0.144209,-0.072157,-0.133304,0.264852,-0.161149,-0.0283137,0.153917,0.138234,0.135622,-0.110022,-0.0918457,-0.0121732,-0.252044,0.244496,0.0511208,-0.205766,-0.229063,-0.0719266,-0.145551,0.0552905,0.0664776,0.224022,0.183293,-0.0567342,-0.0597876,0.191802,0.0931855,-0.108056,0.133342,0.0317943,-0.0629615,-0.0437404,-0.214521,0.151228,0.15071,-0.0399117,-0.102498,0.00817861,0.12007,0.112715
satisfied,-0.102174,-0.069827,-0.0583895,0.107926,-0.16898,-0.126339,-0.199023,0.0189541,-0.0123094,0.202661,-0.0122064,0.0483577,-0.293822,0.206421,-0.265031,0.00844524,-0.208358,-0.0919991,-0.0056116,-0.0334266,-0.117897,-0.149794,-0.0555364,-0.305981,-0.0448676,-0.029052,0.127464,0.167115,0.086139,-0.0156174,-0.292565,0.0256541,-0.0457189,-0.179,-0.118436,-0.023109,0.0517006,0.0651546,-0.00896022,-0.0945618,0.109788,0.0173131,0.0846178,0.231636,0.109654,0.140672,0.0960405,0.166772,-0.246866,0.0488544
jury,0.084274,0.0408831,-0.0809398,-0.252024,0.057676,-0.155233,0.0139552,0.118146,0.0627735,0.0981464,0.317208,-0.246665,0.050839,-0.0788706,0.0478607,0.122983,0.0759787,0.0988756,0.235835,0.0136981,0.305036,0.0874076,0.0392214,-0.223592,0.0324699,-0.249205,0.0858118,0.0453014,0.0377834,-0.0259562,-0.00396472,-0.0314084,-0.0700207,-0.348905,-0.0234489,-0.180905,0.0927171,0.304981,-0.08774,-0.0297735,-0.00481958,-0.0641351,-0.0553378,0.0851045,0.0730998,-0.14086,0.0651366,-0.0223498,0.074358,0.219273
boost,-0.0761021,-0.0627677,0.232971,-0.0802213,-0.00633682,-0.0649244,-0.192735,0.0784855,-0.0461963,-0.215933,0.0314293,0.154073,-0.266609,0.146024,-0.134299,-0.19661,0.070076,-0.0418432,-0.15759,0.0947476,0.0129794,0.110524,-0.0912072,0.00462982,-0.0682254,0.002741,-0.0989661,-0.0914066,-0.259194,0.0739022,0.0566181,0.0371982,-0.252024,0.321953,-0.134822,0.0826733,-0.213108,-0.0763591,0.0401779,0.149435,0.131352,-0.0837048,0.153207,0.0968124,-0.0358634,0.218075,-0.14953,-0.106083,0.175918,0.198491
suspect,0.0567926,-0.130645,-0.217403,-0.216907,-0.0494142,-0.0841037,0.00155188,0.0311991,0.121712,-0.0502029,-0.282002,0.0821768,-0.00818106,0.140838,-0.0137273,0.0391275,-0.265392,-0.0991852,-0.000956563,-0.135825,0.318918,0.0954102,-0.0030256,-0.157452,-0.207669,-0.00412163,0.0462558,0.186582,0.179326,-0.105403,-0.162537,-0.191827,0.173221,-0.230103,-0.0164595,-0.0716144,-0.0561471,-0.0733973,-0.0987865,-0.109173,0.00128812,-0.10184,0.144711,0.288438,-0.0377171,-0.0293475,0.16915,0.0997739,0.101473,-0.150807
reprieve,0.101714,-0.0604678,-0.171764,0.257831,-0.189917,-0.0712765,-0.170097,0.0891763,0.0564213,0.0400456,0.183305,0.179844,0.179646,-0.101349,-0.00722408,-0.217884,-0.135972,-0.0283286,0.15793,-0.046061,0.153294,-0.0642898,-0.0334333,-0.0945235,-0.140282,-0.0759141,-0.0220078,0.143389,-0.0568971,-0.219432,0.057083,-0.130114,-0.222654,-0.0452721,-0.0655324,0.137174,-0.07039,-0.102067,-0.082221,-0.270591,-0.0955476,-0.213948,0.0807147,0.163551,-0.298548,0.065062,-0.0051468,-0.131124,0.264797,0.16036
port,-0.329802,-0.277174,0.0296791,0.143743,-0.0263892,-0.151577,0.0860676,0.144589,-0.157036,-0.0536657,-0.371685,-0.0201239,0.158167,-0.138299,-0.116733,-0.019545,0.00418638,-0.0171339,0.15022,-0.0627464,0.205708,-0.0195455,-0.229088,0.0946625,0.0239506,0.153175,0.0122106,-0.0774108,-0.0885681,-0.120972,0.17315,0.106196,-0.136321,-0.0680772,0.263824,-0.0774546,0.113238,-0.0557387,0.0433221,0.216199,0.202253,0.0822603,0.0947061,-0.165744,0.0321064,0.0938225,-0.02603,0.0928936,0.112107,0.112119
cost,0.08594,0.0927134,0.122366,0.0226564,0.11519,0.293024,-0.035298,-0.00162312,-0.13775,0.0773773,-0.168329,0.220904,-0.206744,-0.0580885,-0.00264792,0.200289,-0.0180995,0.115663,-0.0538428,-0.0837518,0.122555,0.0569733,-0.139687,0.185032,0.00494125,0.0679364,-0.0144567,-0.268723,-0.0343859,0.183715,0.222073,-0.0465816,-0.26269,0.0845969,0.195227,-0.121193,-0.0739676,0.0218874,0.117008,-0.0167042,-0.190923,-0.376463,-0.0218166,0.117928,0.0763573,-0.138563,-0.0726679,-0.167109,0.0907035,-0.0451961
sign,-0.00154237,-0.186969,-0.0385111,0.0519051,-0.145383,0.168182,-0.000778056,0.0592466,0.224166,0.050139,-0.0105608,0.0421261,-0.039519,0.106582,-0.251258,-0.100515,-0.147178,-0.161173,-0.00142084,-0.0622586,-0.0350477,0.218308,-0.122914,0.092074,-0.128483,0.0183744,0.231878,0.16191,0.160973,0.0340391,-0.0181819,-0.217866,-0.293391,0.108145,-0.285758,-0.0740471,0.0363922,0.195688,-0.229033,-0.0315444,0.202056,-0.118792,0.097448,0.0658797,-0.15088,0.0170474,-0.119603,0.00182925,0.0732829,0.0365976
compensation,0.00911926,0.0594605,-0.0957417,-0.00981681,0.141311,-0.0336752,0.106208,-0.0802732,-0.2038,0.474984,0.131265,-0.0682657,-0.215852,0.157996,0.0641977,-0.107228,-0.0187203,0.15925,0.0650954,0.0836592,-0.114038,-0.0237152,-0.109082,0.318007,0.0304128,-0.218615,-0.0332162,-0.0651398,-0.0497835,0.0117047,-0.0911824,-0.0611585,-0.130415,-0.122239,0.145818,0.232451,-0.0161244,0.202504,0.198795,-0.140056,-0.100195,-0.0262969,0.131594,0.215535,-0.105914,-0.0764017,-0.0144278,0.0918393,-0.0722421,0.110558
scenes,-0.0847332,-0.158187,-0.15591,-0.221546,0.0266911,-0.00860467,0.157013,-0.043974,0.225969,-0.112382,-0.0582007,-0.158589,0.227106,-0.00950991,-0.125029,0.0988919,-0.00205138,-0.065094,0.18206,-0.217144,0.185506,-0.204908,0.268522,0.0529542,-0.170469,-0.0462721,-0.00186007,-0.0359034,0.179724,0.0738019,0.200769,-0.0667204,0.0186999,0.0303954,0.00845182,-0.150273,-0.273175,0.085303,0.0366074,-0.228906,-0.0202803,-0.0291753,-0.156026,0.17972,-0.00969877,-0.0653004,0.0364119,0.138508,0.309681,0.112327
trend,-0.0644917,0.152454,0.132964,-0.0310503,-0.212523,0.0674106,0.00428167,-0.110309,0.125616,-0.0366999,-0.0667324,-0.116505,-0.241115,-0.19609,0.020651,0.022273,-0.0276392,0.0097596,-0.178915,-0.140043,0.155508,0.0119511,0.0467746,-0.00524933,-0.00164768,-0.132163,0.106239,-0.0508285,0.266968,0.291245,0.116685,-0.243592,-0.109926,0.292569,0.0123104,0.0597011,-0.227672,-0.190223,0.156637,-0.0939392,-0.0338118,-0.116582,-0.235247,0.0810787,0.155954,0.146196,0.160815,0.12256,0.141181,-0.00721255
two-week,-0.274182,-0.162938,0.0608031,0.285045,0.310768,0.0698935,-0.168273,-0.00596489,-0.225731,-0.192942,-0.180518,0.254023,-0.112654,-0.316127,-0.0507445,0.278943,-0.320636,-0.0853286,0.0489433,-0.117316,-0.0610451,0.290018,0.021436,0.230348,0.016994,0.290595,-0.304797,0.045254,0.14984,0.205022,0.171326,-0.298581,0.368171,0.196297,0.1122,0.00225856,-0.142841,-0.242686,-0.0998878,0.116936,0.0070692,0.145043,-0.276668,-0.187681,-0.285555,-0.106178,0.310031,0.199795,-0.135599,0.236451
pork,-0.121842,-0.0376709,-0.109092,-0.19435,-0.137983,0.162838,-0.0722125,0.131947,0.0625672,-0.251399,-0.0586923,-0.111842,-0.183328,0.146953,-0.123774,-0.125203,-0.063942,0.237054,0.0285901,-0.0467817,-0.15934,0.124335,-0.085178,-0.042296,-0.0603578,-0.0328195,-0.0727993,-0.0621951,-0.420502,0.0828292,0.0959271,0.120215,0.00453833,-0.111242,0.0726874,0.086074,0.298679,-0.073644,0.175944,0.0847605,-0.00765092,-0.0675782,-0.0490345,-0.0306342,-0.0262029,0.0798336,0.0510605,-0.0359777,0.187564,-0.0231747
disabled,-0.0932877,-0.0130914,-0.208601,0.10318,0.0895472,0.201516,0.185015,-0.18602,-0.0619937,0.264869,-0.171375,-0.105551,0.186572,-0.0914977,-0.0114952,0.0833838,-0.129743,-0.0806143,0.0417666,-0.0546587,0.019102,-0.226944,-0.157911,-0.177453,-0.117507,-0.0117356,-0.130701,0.0839739,-0.13176,0.0320618,-0.0980521,0.0212495,-0.14965,-0.172411,-0.0755396,0.230158,0.0328541,0.107832,0.180638,-0.103953,0.129725,-0.124562,0.0737436,0.271405,-0.154698,-0.304525,-0.329207,-0.0299358,-0.0306042,-0.127771
round,0.0364913,0.0705604,0.0268629,-0.0664615,-0.120622,0.150914,0.0800082,0.054157,-0.0303807,-0.373372,0.0678679,-0.0905961,0.213318,-0.134807,-0.179384,-0.165792,0.256894,-0.218605,-0.000175946,0.0615492,0.222336,0.0328903,0.0748981,-0.0143033,-0.0146597,-0.155013,0.0772371,0.204455,-0.0245287,-0.0158759,0.00954133,-0.200741,0.00887328,-0.0738642,-0.0765474,0.0401208,0.00101951,-0.0346491,0.0575978,0.0641316,0.0266748,-0.0153288,-0.026708,0.0913877,-0.303896,0.039097,-0.0475728,0.154746,-0.312847,0.109834
team,-0.23742,0.122727,-0.0130226,-0.119441,-0.12511,0.0973787,0.314216,-0.117406,-0.174705,0.133428,-0.221986,-0.0387626,0.174485,0.161414,-0.0423333,-0.118872,0.316279,-0.0721171,0.143302,-0.026142,0.182369,-0.32792,0.0626994,-0.0106533,-0.092244,-0.204303,0.15551,-0.0591903,0.0816702,0.0426275,0.065942,-0.10079,-0.0957464,-0.0755755,-0.293913,0.0492294,-0.00323393,0.106059,-0.00305554,-0.131896,-0.193045,-0.0493307,-0.290891,0.0489784,-0.117652,-0.0323292,-0.11812,0.0391093,0.020835,0.159725
quick,0.301476,-0.0679928,-0.0932098,0.0286831,-0.000584662,-0.036054,0.137402,-0.129941,0.285706,-0.0223073,-0.12585,0.0405002,0.014609,0.175741,-0.245155,0.0514744,-0.00817057,-0.214981,-0.0207195,-0.0177477,-0.00506122,-0.0524768,0.187336,-0.250357,0.0159099,0.058378,0.038323,-0.0678812,0.107241,-0.131724,-0.0330293,0.0395668,-0.0802524,0.0516083,-0.00790252,-0.195556,0.116691,0.165812,-0.0451393,-0.153543,-0.0876161,-0.184321,-0.00560264,0.312172,0.0836272,0.0519168,-0.27787,0.263901,0.253308,0.0124388
dip,0.108714,-0.104151,0.0922737,-0.273932,-0.190807,0.0884541,-0.0634601,0.0430373,0.16705,-0.211777,0.0261192,0.370826,-0.00611084,-0.242004,-0.0582637,-0.0394539,0.0111265,0.106373,-0.045346,-0.268807,-0.0685653,0.0235252,0.0605687,-0.145861,0.212532,-0.162186,0.224433,-0.157291,0.035017,0.0685619,-0.0421315,0.113386,0.0809439,0.269737,0.0899903,0.0761625,0.310983,-0.190513,-0.003075,-0.120097,-0.216581,-0.00273012,-0.144579,0.12742,-0.0664699,0.206617,0.0747982,0.203454,-0.0530541,-0.114866
item,-0.0461366,-0.0138182,-0.00924527,-0.0366558,-0.018264,0.235697,-0.116776,0.00338646,-0.0311017,0.0403619,-0.119972,-0.176399,-0.159377,0.125408,0.131573,0.049727,0.186416,0.0504291,0.0795111,-0.301796,-0.0287943,-0.0904788,-0.186813,0.0797357,0.0051962,-0.272808,0.0205988,-0.200494,0.0225317,0.414614,0.159347,-0.0337872,0.053223,0.0542066,0.0270203,0.159397,0.0397472,-0.0735032,0.121642,0.0758139,-0.124736,0.00201752,0.00951951,0.384106,-0.101565,-0.0262703,0.0669841,0.0718535,0.059797,0.13122
probe,0.011772,0.164079,-0.238819,0.0187028,-0.17159,-0.11896,-0.0178473,0.0807182,0.259739,0.0472066,-0.0823483,0.0330547,-0.0500917,-0.00625754,-0.0433073,-0.083441,-0.113854,-0.0230314,0.235754,0.367994,0.290203,0.104883,0.0646651,0.0422433,0.0269038,-0.0969451,0.0584596,0.144388,-0.170224,0.0299792,0.0657002,-0.185725,-0.0391511,-0.17234,0.0567475,-0.111969,0.102953,0.00407809,0.130239,-0.0565449,-0.0339547,0.00239315,-0.0818026,0.0604199,-0.137737,-0.116275,0.163088,-0.0890215,0.193379,0.248999
gun,-0.224494,0.146703,0.258721,-0.109178,-0.036563,-0.208182,0.204903,-0.234236,-0.12369,-0.329122,0.208689,0.052036,-0.239072,0.141288,-0.190288,0.180405,-0.0486044,-0.223541,0.251269,-0.190526,0.338765,0.31946,-0.264861,0.376019,0.166747,-0.0655773,-0.267926,0.157244,-0.0704541,-0.0429799,0.00789661,0.291723,-0.153583,0.214116,0.312278,0.206356,-0.187962,0.179375,-0.0427317,0.25565,0.159021,0.137926,0.160118,0.135544,-0.220775,-0.309093,0.010174,-0.172564,0.148451,-0.0188338
level,0.00196815,-0.280928,-0.135991,0.317479,-0.197999,0.334796,-0.0483683,-0.167717,0.277085,0.0128243,-0.0121403,-0.221044,0.25157,-0.0140478,0.183231,-0.320355,0.179072,-0.272065,0.245177,0.163541,-0.0788169,0.287738,0.30463,-0.0836926,-0.200604,-0.161715,-0.0164502,0.146834,0.174267,-0.342436,-0.354119,0.0342605,0.0296253,0.190451,0.049379,0.0781865,-0.123145,-0.220763,-0.0320831,0.121258,-0.0618549,0.000909126,-0.0830421,-0.23786,0.326004,0.180982,-0.112858,-0.12089,0.0600704,-0.198442
dim,0.194344,-0.0745465,0.0771908,-0.384316,-0.149481,-0.134013,-0.178146,-0.0916032,0.07812,-0.0979587,0.325752,0.0142383,-0.219862,-0.312695,-0.254163,-0.0736088,-0.125399,-0.0865962,0.0998642,-0.142576,-0.22466,-0.204566,-0.158138,-0.159249,0.177501,-0.0306253,0.0120199,0.0565957,-0.118909,0.0360326,-0.109081,0.0977275,-0.0272169,0.187634,-0.17378,0.175818,-0.195076,-0.0770273,-0.096716,-0.0662637,0.206868,0.00946929,-0.0998219,-0.000769899,0.124663,0.0320576,-0.159399,0.0416435,0.129319,0.0624765
three-day,-0.239072,-0.267647,-0.17583,-0.319282,-0.213102,0.235964,0.196832,-0.302597,-0.160568,0.0277328,0.121674,-0.272063,-0.349167,0.104782,-0.0248595,-0.0632701,-0.237956,0.00292502,0.27392,0.130066,-0.156536,0.013071,0.272093,0.316064,0.0131116,0.121365,0.329287,0.184262,-0.0777422,0.12377,0.191851,0.254306,-0.181318,-0.10148,0.135313,-0.0317521,-0.237709,-0.00312456,0.244012,0.251248,-0.292131,0.218294,-0.13087,-0.291718,-0.240706,-0.229682,-3.90724e-05,-0.248947,-0.434523,0.240519
cool,0.188176,0.0599426,0.286441,0.319796,0.236921,0.0154982,-0.00475141,0.100794,-0.0191413,0.248952,0.269817,0.172585,0.129626,-0.162692,-0.285639,0.0334184,-0.269103,-0.0597177,0.235825,0.0921831,0.0210202,0.20967,0.093181,-0.0717116,-0.194747,-0.0866381,-0.186425,-0.160769,-0.233125,0.0353423,-0.0365529,-0.340397,-0.0777153,-0.172917,-0.0266708,0.193496,-0.190522,0.240886,-0.204259,-0.115702,-0.008777,-0.045414,0.242356,-0.1122,-0.344011,0.243112,0.100204,0.0191127,-0.165553,0.135872
brown,-0.141762,-0.312802,-0.164,-0.0402127,0.214227,-0.312948,0.363246,0.0119606,0.136454,-0.260246,0.276488,0.0941528,-0.0744443,0.0610127,0.355053,0.107285,-0.0956255,-0.207335,0.128189,-0.183372,0.293562,-0.0314969,0.304345,0.148616,0.109263,0.236254,0.205817,-0.102438,-0.155256,-0.191867,0.200949,-0.300163,-0.149913,0.0319869,-0.318352,0.0852476,-0.184419,-0.162759,-0.32569,-0.0183283,0.0591821,-0.00713639,-0.316018,0.345384,-0.354258,0.0417125,0.33304,-0.108045,0.0536381,0.176468
source,-0.265051,0.0970541,-0.0892107,-0.0721041,0.137344,0.0867304,-0.0387534,0.0388232,0.0744196,0.0122916,0.0201131,-0.0572826,0.125534,-0.0170478,-0.145247,-0.0768523,0.0429049,-0.0322123,-0.195685,0.0691018,0.0459829,0.0350535,-0.183637,0.149704,-0.191513,0.175937,0.0879178,-0.268653,-0.0307149,0.393409,0.129082,-0.222272,-0.188152,0.121467,0.0351236,0.00364248,0.0213203,-0.128375,0.224159,-0.0432241,0.0919656,-0.0216315,-0.260672,0.144293,0.100017,0.0123185,-0.0200587,-0.0868184,-0.0602266,0.295503
10-year,0.150684,0.00938242,-0.0516735,0.258657,-0.130375,0.169715,0.159362,-0.13328,-0.242198,0.0518297,-0.0967582,-0.0162755,0.291437,0.328061,0.261428,-0.288031,-0.276791,-0.0420459,0.167925,0.0908118,-0.312296,0.249046,-0.232012,-0.199532,-0.22049,-0.24025,-0.114547,-0.0941673,0.223711,-0.0910534,-0.0954819,0.135878,-0.0370543,0.310084,0.12406,-0.0709362,0.0990313,-0.196271,0.147351,0.342974,0.260068,-0.213081,0.18288,0.198211,0.130706,0.062698,0.0351516,-0.120125,0.123092,0.090524
blasts,-0.332644,-0.129178,-0.0758493,-0.0295882,0.0556482,-0.114062,0.0727109,-0.160213,0.0754777,-0.179128,-0.307706,0.0826835,0.281161,0.0523904,0.108023,0.0811414,-0.0715928,0.0985465,0.14091,0.0728798,0.310899,-0.109513,0.0512352,-0.0313879,-0.21474,-0.200107,0.199758,0.0217637,-0.0496166,0.0652559,-0.0342476,-0.0346486,0.242806,-0.031015,0.000503201,-0.123016,-0.0722668,-0.163442,-0.0196971,0.0565568,0.104353,-0.050984,0.0532078,0.171467,-0.0111823,-0.248144,0.0367984,0.0789041,0.121811,0.0246324
middle,-0.274772,0.000196727,0.235901,-0.28956,0.215115,0.288856,-0.270636,-0.291742,-0.0829004,0.153754,-0.123289,0.187753,-0.140401,-0.00225357,0.133178,0.176556,-0.311943,-0.0496762,-0.242691,-0.0468626,0.0289594,-0.247136,-0.203777,0.346251,-0.176261,0.242717,-0.138812,0.092497,-0.0789404,-0.242628,-0.283582,-0.0392071,-0.182615,0.188406,0.252304,-0.233184,-0.101104,-0.0149256,0.261889,0.0548827,0.0412111,0.145526,-0.0360293,0.0927864,-0.258892,0.282359,0.166121,-0.249006,-0.0972029,0.204934
decides,0.191662,0.204072,-0.029322,-0.100675,-0.0840227,0.0613268,-0.0375923,0.0868099,-0.00397307,0.149431,-0.014667,0.290487,0.0406152,0.0869015,-0.184752,-0.00330869,-0.0474197,0.0375164,-0.0325435,-0.00772345,-0.166275,-0.00251254,-0.0829552,-0.386632,-0.187896,0.272166,-0.0507577,0.0656597,0.21162,-0.0776792,0.0360378,0.164624,-0.127345,-0.121771,0.0886533,-0.232681,0.0437078,0.0426057,-0.0657099,0.132807,-0.190228,0.00328625,0.051691,0.228776,-0.0896826,0.0350847,-0.149528,0.219557,-0.168948,0.194865
skid,-0.0904168,0.0436086,-0.229922,0.0312973,0.0893513,0.0296338,-0.0756276,-0.0355762,0.18038,-0.303576,-0.0300148,-0.0791782,0.182199,0.0702265,0.0330762,0.147777,-0.213766,0.135288,0.0483287,-0.124631,-0.084791,-0.181879,0.0795934,0.192555,0.0896693,-0.0601959,-0.113563,0.138453,-0.00112602,-0.201694,0.198276,0.0425077,-0.109779,0.255045,-0.0956757,-0.0763408,-0.202124,0.0623144,-0.00148857,-0.0983551,0.31689,-0.187547,-0.105204,-0.0377542,0.0398457,-0.0261542,-0.364774,0.0404213,-0.0987083,0.0555296
focused,-0.0545674,0.129692,-0.0157176,-0.0471153,-0.0894236,0.201117,-0.33267,-0.166624,0.105185,-0.0058687,-0.233597,0.0553965,-0.0399027,0.0927592,-0.340094,-0.0964948,-0.115056,-0.171129,0.0695652,-0.0311745,-0.162784,0.21112,0.181417,0.0731567,-0.0613673,0.222922,-0.113811,0.210198,0.056606,0.0304303,-0.216548,-0.118085,-0.111799,0.0859164,0.0896412,0.151609,-0.0804204,-0.146429,-0.0146361,-0.0904204,-0.151759,0.0471329,-0.129279,0.0522573,0.245005,-0.00175628,-0.126634,-0.020122,-0.149353,0.0696768
rogue,0.0251383,-0.158365,-0.29845,-0.178421,0.165693,-0.0823902,0.118043,-0.143395,0.202956,0.0401567,-0.13499,0.0979821,0.0641673,0.30638,0.238335,-0.151677,-0.369897,-0.204774,0.0746892,0.120461,0.0556839,0.0749631,0.0712109,0.0180696,-0.168295,0.0694934,0.102693,-0.0054336,-0.0870021,-0.0298601,-0.0911423,-0.118364,0.0628617,-0.188885,0.0769654,-0.172647,0.00648849,0.100619,-0.0193985,-0.12273,-0.175721,-0.202475,-0.120635,0.194118,0.0425723,0.0480502,-0.0127363,0.145423,-0.00722612,-0.0939048
mild,-0.0578851,-0.135167,0.0443298,-0.0500533,-0.185935,0.133252,-0.193459,-0.116802,0.122938,-0.19252,0.0295304,0.0204524,-0.234662,-0.105823,-0.0725416,0.393428,-0.13955,0.124685,0.0859031,-0.132976,0.103898,-0.105235,-0.0969002,-0.292212,0.0487341,-0.233734,0.166168,-0.0272258,-0.0894822,-0.0497151,0.123116,-0.0652599,-0.0888639,0.215608,-0.0248084,-0.0681634,-0.127314,-0.0014196,0.0228805,-0.121084,0.0274444,-0.220054,-0.0596288,-0.108748,0.109102,0.200578,-0.113615,0.123614,0.269144,0.00535167
stumble,0.0906427,-0.0582052,-0.00329485,-0.197732,0.126003,0.107248,-0.154305,0.12694,0.25957,0.0824127,-0.0734147,0.124239,-0.134419,-0.170159,-0.313188,0.0355775,-0.0504441,-0.0546037,-0.12195,0.0554368,0.229017,0.142429,-0.00351102,-0.00725595,-0.0715128,-0.231378,0.0917551,0.226069,0.230102,-0.00654376,0.151353,-0.0366619,-0.0916903,0.235719,0.0294677,0.00197054,-0.454394,0.136886,-0.0459484,-0.205067,-0.153514,-0.150853,-0.0283677,-0.00440014,-0.245097,0.185503,-0.148286,0.189977,0.20648,-0.156991
rose,0.181864,0.190918,-0.201755,0.191088,-0.365083,0.14675,0.115895,-0.228023,0.1886,0.255394,0.262531,-0.242341,0.119335,-0.0124725,-0.103075,-0.171307,-0.240382,0.124496,-0.244718,0.0542142,-0.155742,-0.278308,-0.256127,-0.0884086,0.248862,0.110909,0.0818473,-0.049577,-0.0389751,-0.0771618,0.299998,0.337689,-0.228338,0.304083,-0.312865,-0.141543,-0.21026,0.0143542,0.172236,-0.0671532,-0.189017,0.219258,-0.294507,0.161833,-0.233548,0.0888044,0.342354,0.0813472,0.174587,0.153233
consumer,-0.15059,0.339385,0.173635,0.11302,-0.197116,-0.11923,0.294514,0.238598,-0.243463,-0.181134,0.222742,-0.0017828,0.178598,0.172466,0.257467,0.102294,-0.125244,-0.133188,0.0691604,0.0104947,0.314801,-0.277105,0.107572,0.188237,0.391606,-0.178021,-0.280661,-0.0951563,0.231957,0.229658,0.161533,-0.091986,-0.327467,0.00752314,-0.0844815,0.186903,0.0529904,0.0495366,-0.273679,-0.0435408,0.0252549,0.0104635,0.0870885,-0.141859,-0.34102,-0.0426821,-0.0499033,0.0420661,-0.295959,0.368242
roll,0.0433189,-0.135661,-0.110121,-0.0245313,0.191432,0.161918,-0.0670739,0.192238,-0.0831418,-0.217599,-0.0402974,0.00425105,-0.194148,0.00197027,-0.277996,-0.158591,-0.0128968,-0.129387,0.183912,-0.0560672,0.107456,0.282602,0.144807,-0.112135,-0.330382,-0.132915,-0.109183,0.0351539,0.0873022,0.195214,0.122886,-0.000536286,0.00241567,0.111682,-0.253871,0.0382672,-0.0356772,0.0745417,-0.113427,0.142732,-0.0627161,0.0344737,-0.241323,-0.0292975,-0.0686962,-0.0539973,-0.206331,-0.101105,-0.274263,0.219054
chain,0.00757184,0.199968,0.174084,0.111619,-0.287157,-0.0782105,-0.0965272,7.96009e-06,-0.0776141,-0.200935,-0.118048,-0.162396,-0.230276,-0.114302,-0.101705,0.0986017,0.043156,0.0777986,-0.0770407,0.0714851,0.0769068,-0.136134,-0.196951,0.134084,-0.0751462,-0.123871,-0.233624,-0.0114572,0.11727,0.199274,0.257871,0.179255,0.230214,0.0955401,0.199661,0.0703715,0.0478421,0.160808,-0.0934842,-0.206059,-0.136067,0.172342,-0.134631,0.105639,0.214032,0.00325615,-0.236437,-0.110431,0.246212,0.198004
push,-0.182278,0.0272473,0.177881,1.48494e-05,0.0538249,0.298247,-0.0154091,0.019306,0.266844,-0.138203,-0.0783274,0.0736413,0.00614279,-0.0514024,-0.413689,-0.0796456,0.0850412,-0.0328767,0.0697434,-0.102996,0.0496617,0.269937,0.261486,0.101697,-0.26098,-0.0369936,-0.119196,0.246141,0.0058989,0.0748041,0.131669,-0.084505,-0.172426,0.166569,0.0749285,0.0718208,-0.104853,-0.0307625,-0.197009,0.0760125,-0.109307,-0.0304663,-0.0379978,0.251136,-0.198586,0.00857555,0.038627,0.0027784,0.100152,0.0246193
instruments,0.0678698,0.0468619,-0.0279154,0.101246,0.293029,0.126338,-0.00777182,0.178435,-0.252929,-0.304914,-0.173131,-0.0274124,-0.0411556,0.237485,0.000922575,0.131253,-0.191673,-0.31315,0.137007,0.158951,-0.02609,-0.252266,-0.27265,-0.125779,-0.357133,0.282332,0.190185,0.0507046,-0.136347,-0.184908,-0.0571961,0.161661,0.203687,-0.114492,0.349469,0.287593,-0.101257,-0.172914,0.00768871,0.0917659,-0.0842557,0.290916,-0.102235,-0.256019,-0.351993,0.195638,-0.217368,-0.0899276,0.267943,-0.271039
withhold,0.0206328,0.0338111,-0.139504,0.0956988,0.285093,0.015632,-0.106667,0.0741363,-0.116941,0.130647,0.173692,-0.0123197,-0.273936,-0.0534732,-0.0645322,-0.223456,-0.121005,-0.0158358,0.133272,0.192476,-0.132892,0.192084,-0.13515,-0.0895604,-0.326881,0.172959,0.0856125,0.0944144,0.0373913,0.0550092,-0.125558,-0.00811156,-0.1972,-0.133981,-0.0963865,0.12046,-0.058553,0.0613927,-0.13331,0.195636,0.0421659,0.0122633,0.220983,0.154328,-0.101237,0.0468459,-0.184529,-0.0483809,-0.06227,0.224608
weekend,-0.0171444,-0.276464,-0.0940046,0.225652,0.0197709,0.217215,0.00168017,0.0738152,0.103928,-0.14698,-0.127953,-0.0387859,0.286594,-0.0423456,-0.212763,-0.0312037,0.232079,0.038665,0.228231,0.0368972,0.0795753,-0.143295,0.175421,0.0265246,-0.03389,-0.145464,-0.0257593,0.134052,0.264698,-0.0329004,0.412072,-0.138907,0.107948,-0.0088259,-0.144286,-0.0773453,-0.0268812,0.0999836,-0.100963,-0.207744,-0.000886868,-0.104723,0.0850891,-0.0742225,-0.0885411,0.112208,-0.176696,0.175373,0.106479,0.166218
considers,-0.054323,0.238057,-0.0817371,-0.127354,-0.0602219,0.108754,-0.211786,-0.148294,-0.0696577,0.216965,-0.0820858,0.221591,-0.196619,0.103414,-0.28216,0.0261265,-0.127905,-0.110476,-0.0941024,0.0401537,-0.267187,0.187911,0.00590411,0.0105528,-0.176853,0.364278,0.0438292,0.186362,0.142371,-0.0375989,-0.0408199,-0.100667,-0.00452261,-0.0659559,-0.0257653,-0.246085,-0.0458058,-0.113466,-0.131732,0.192497,-0.147133,0.0184926,0.0360012,0.203374,-0.0277254,-0.0695582,0.0634589,0.0384051,-0.094989,0.130505
award,-0.0494529,0.0285415,-0.10364,-0.107826,0.0234033,-0.0166868,0.115025,0.0355427,-0.117794,0.292497,0.341091,-0.217368,-0.00538834,-0.0306154,0.128595,0.139313,0.0939016,-0.0659529,0.0781971,-0.098862,0.0564188,-0.120205,-0.18825,0.156027,-0.0843323,-0.0451576,0.150635,0.216927,-0.0332902,0.0376947,-0.120128,0.0189695,-0.171452,-0.428303,-0.0688683,0.0106658,-0.0229047,0.200019,-0.00690408,-0.081518,-0.210557,-0.0463615,0.20914,0.0193234,-0.238234,0.113552,0.0763921,0.000281258,-0.117163,0.260029
intensify,-0.0232296,-0.0733278,0.0968396,0.229136,0.145793,-0.0112143,-0.245138,-0.205455,0.0620723,-0.130319,-0.0277474,0.200228,-0.225492,0.0625064,-0.404023,0.0581571,-0.17873,-0.225648,0.0450623,0.222682,-0.100372,0.134595,0.00795676,-0.156816,0.107146,0.157244,0.138268,0.0728246,0.0756527,0.107838,0.159173,0.0471828,-0.019883,0.112198,-0.0662128,-0.0563011,-0.236613,-0.104012,-0.356534,0.191115,-0.0449562,-0.0586124,0.0983049,0.0663958,-0.0269473,0.0668807,-0.223835,0.0158307,0.358783,-0.0243724
square,-0.053683,-0.0511249,-0.285985,0.0687883,-0.206288,0.00328394,0.0903986,-0.0621679,-0.267548,-0.24803,-0.117961,-0.0679441,-0.35667,-0.253254,0.0320686,-0.109031,0.159066,0.101867,-0.0537713,0.043156,-0.282763,-0.192317,0.0278098,0.257083,0.347796,-0.161704,-0.00548455,0.316858,0.289782,-0.120059,-0.0430962,-0.0382965,-0.0955954,0.0614249,0.138283,-0.231767,-0.0234857,0.0931452,0.0623594,-0.159184,-0.0555977,-0.116295,0.253821,-0.185047,0.0944465,0.290412,0.292228,-0.196197,0.204259,0.2458
shrink,0.130955,0.120767,0.0272136,-0.00399674,0.107036,0.0259835,-0.199644,0.0358085,-0.318116,-0.100094,0.202567,0.0197259,-0.388604,-0.0530099,-0.0758591,-0.106397,-0.0715519,0.0512589,0.0948781,-0.0362424,0.198804,0.164328,-0.115324,0.00726315,-0.0483874,0.034908,-0.142469,-0.07266,0.040965,-0.0265675,0.0409856,-0.0396062,-0.0938231,0.181725,0.0662082,0.104267,-0.374577,0.0765515,-0.123634,0.192971,0.268048,0.0830861,-0.0152564,-0.227001,-0.0901773,0.0529282,-0.26108,-0.0563555,-0.159053,0.129807
depot,-0.231293,0.279742,-0.0802649,-0.215771,-0.0855111,0.347571,0.0670289,-0.159358,-0.235314,0.0458192,0.0621294,-0.0631905,0.258646,0.049767,-0.26493,-0.147529,0.0366418,0.0914832,0.227769,0.0979897,0.358903,0.227753,-0.304312,-0.15885,0.258033,-0.0467984,-0.288362,0.145444,0.292005,0.211738,0.117011,0.245923,0.228893,0.238661,0.132334,-0.198262,0.276192,-0.198564,0.042538,0.262728,-0.20027,0.0779039,0.232006,0.0453678,0.264782,0.149418,-0.0312075,-0.232098,-0.0812988,0.337005
tie,-0.100847,-0.0250561,0.0313583,-0.206678,0.10343,0.302308,0.145328,0.0179832,-0.178166,-0.0574562,-0.0568746,-0.0270822,0.0880518,-0.11889,-0.106078,-0.134564,0.103514,-0.210776,0.285611,-0.123642,0.0471393,-0.0557307,0.207527,-0.110854,0.115827,-0.15661,0.0763132,0.158032,-0.000677965,-0.105152,-0.0124024,-0.151533,-0.0718011,0.0146376,-0.307791,-0.0159771,-0.166223,0.197491,-0.172467,0.082625,-0.0498338,-0.165125,-0.00149021,0.18932,-0.23665,0.0348415,-0.126994,-0.0545126,-0.0323518,0.0624208
appetite,0.0634347,-0.131416,-0.108587,-0.154769,-0.160581,0.0108225,-0.169185,-0.0609032,0.189635,-0.0203124,-0.0379451,0.29022,-0.0117695,-0.201186,-0.0577933,-0.116241,-0.248962,0.0014364,-0.39113,-0.0681128,0.0139319,-0.113985,0.0453573,0.103791,0.194831,-0.0564956,0.00541363,-0.098749,0.0869607,-0.0289534,-0.017892,-0.22274,-0.0377955,0.111579,0.192752,0.104064,0.0709674,-0.166379,-0.0463427,-0.030559,-0.077651,-0.173113,-0.26867,-0.0913473,-0.0273526,0.0409607,0.0742102,-0.0827377,0.187391,0.100376
test,0.154885,0.141064,0.0440014,0.09945,0.0106458,0.0467123,0.0820891,-0.269192,-0.0192008,0.048042,0.181725,0.0365177,0.0208982,-0.103416,-0.249652,0.0942317,-0.141019,-0.0477816,0.236823,-0.0462447,0.260143,-0.0477579,-0.0209846,-0.0711654,-0.344444,-0.0817522,0.182119,0.0156481,-0.13041,0.0308979,-0.199563,-0.103894,-0.00346786,-0.0764717,-0.0893869,-0.272035,-0.130027,-0.0705665,0.0822282,0.0620855,0.153006,-0.0751457,-0.0657244,0.175758,-0.17181,0.296879,-0.0156621,-0.0108501,0.010135,0.18559
tire,-0.141676,-0.233682,-0.00687423,-0.0987061,0.289326,0.192284,-0.356106,-0.201953,0.337344,0.18233,-0.165197,0.146733,0.00612185,0.240947,-0.00589208,-0.199774,0.0505034,-0.0447532,0.114451,-0.17019,0.283624,0.0801615,-0.037742,-0.279039,0.276149,0.242148,0.279874,-0.245162,-0.297243,-0.0378678,0.304959,0.289917,-0.254461,-0.278709,0.236627,-0.189683,-0.0123213,-0.309848,-0.00622884,0.25084,0.199502,-0.295886,-0.072785,-0.246476,0.287654,-0.176608,-0.291236,-0.284523,0.333605,-0.0515087
time,0.226553,0.193167,0.210741,-0.273681,0.0440852,0.231293,-0.007881,-0.169827,0.206654,-0.0598159,0.0939528,-0.10506,0.15792,0.179638,-0.196419,-0.20745,0.0712503,-0.102919,-0.229605,-0.322453,-0.0802128,0.201723,-0.2485,0.220247,0.143899,0.0176824,0.206551,0.0270367,-0.235208,0.138527,-0.0357046,-0.106167,0.0737913,0.163471,0.257561,0.167182,-0.371761,0.187361,-0.163187,0.244966,0.033188,0.115731,-0.0959056,-0.242355,0.214921,0.265074,-0.0306309,-0.277666,0.148246,0.030442
relaxing,0.103884,-0.065043,0.160034,0.0854192,-0.0129351,-0.132688,0.0659859,-0.164191,0.140681,-0.0674778,-0.15198,0.130358,-0.0867025,0.122809,-0.251298,-0.223476,0.00450411,-0.0154246,0.0637796,0.0658735,-0.139507,-0.0665155,-0.164341,-0.141475,0.0276202,0.253133,0.106059,0.139631,-0.200394,0.232145,-0.259752,-0.0642793,-0.0243156,0.132755,-0.126633,0.0342679,-0.209957,-0.0085208,-0.246126,0.0889481,0.0118454,-0.249674,0.182673,0.0822031,0.0698481,-0.0627008,-0.115907,0.0723343,0.21131,0.124604
dying,-0.14935,-0.199267,-0.0461848,-0.263387,0.167039,0.132992,-0.0386431,-0.170387,0.226469,-0.198239,-0.119726,-0.0150557,-0.0725981,0.0774407,-0.0865765,0.208074,-0.205137,0.242195,-0.0938257,-0.183755,0.116052,-0.165596,0.0326562,-0.223781,-0.175508,0.000742633,0.144241,0.08719,0.108298,-0.274934,-0.108792,0.0200741,-0.00770038,-0.141085,0.102287,0.113875,-0.0504859,0.0596558,0.14757,-0.135477,0.149125,-0.0882182,0.0314642,0.196381,-0.0867577,-0.16233,-0.147074,0.0184985,-0.0422985,-0.110465
furnishing,-0.00162041,-0.0908929,-0.231298,-0.121653,-0.221104,0.142894,0.132512,-0.122732,-0.0459971,-0.109277,-0.354364,-0.143061,-0.158389,0.0133703,0.112246,0.0795832,-0.0952568,-0.0703556,0.0716901,-0.154779,0.00591161,0.131876,-0.124198,0.22358,-0.134059,-0.0787228,-0.19067,0.173761,0.0088873,0.176926,-0.0884927,0.207071,0.0750802,0.0920436,-0.264409,-0.00730376,0.0580689,0.200489,-0.0282316,-0.249896,-0.153283,0.0580726,0.0356266,0.0942488,0.231181,-0.271131,0.00892109,-0.14329,0.0181706,-0.0406242
trip,-0.304847,-0.108084,-0.208421,0.100954,-0.125269,0.217976,-0.0427115,0.0642158,0.21034,-0.0195372,-0.0890433,-0.179904,0.366178,-0.0786775,-0.333249,-0.237625,0.0475805,-0.0463635,0.0776792,0.0100599,0.280942,-0.0628745,0.0651463,-0.0367334,-0.057461,0.0928842,-0.112745,0.144789,0.173705,-0.100659,0.100489,0.0379152,0.308707,-0.163125,0.10022,0.0261482,-0.189508,0.0093255,0.0239416,0.0405355,0.128844,-0.00993794,0.138512,0.0854602,-0.0177217,-0.00326413,-0.0962799,0.0456466,0.0269035,0.306308
traffic,-0.0538007,-0.0769456,0.0751512,0.278916,-0.112592,0.138828,0.0906515,-0.0833053,0.146247,0.17141,-0.444678,-0.138661,-0.216265,0.0730237,-0.105103,0.106366,-0.0628193,0.196458,-0.0571351,-0.108894,0.329284,-0.0222564,-0.0877661,0.16161,0.0726229,-0.0450237,0.0364958,0.0639492,0.0615163,0.0940271,0.0543444,-0.0193992,-0.00259492,0.168342,0.18429,-0.158033,-0.179883,0.00695483,0.0585306,0.045675,0.041444,-0.182579,0.129928,-0.130226,-0.074287,-0.106056,-0.186978,0.0684571,0.293994,-0.0246987
15%,0.256948,-0.237919,0.122493,0.0458298,0.291742,0.066339,-0.0364709,0.333935,0.0845058,0.214363,-0.00966013,0.273223,-0.182883,0.302013,-0.0109024,0.363649,-0.22557,-0.102072,0.297958,0.119944,0.0497905,0.157896,0.312156,-0.163654,-0.172877,0.205587,-0.0400357,0.124082,0.304955,-0.29324,-0.296522,0.15823,-0.0891425,-0.17457,-0.272808,0.314706,-0.249346,0.345156,-0.248518,-0.317876,-0.0286404,-0.319517,-0.223512,-0.181462,0.166808,-0.0796326,0.240493,-0.257815,-0.315694,0.0705268
shipping,-0.27955,-0.0955987,0.233071,-0.0771763,0.0452901,-0.0230819,0.0785192,-0.0333425,-0.161487,-0.0605243,-0.298164,0.101784,-0.106609,-0.0538209,0.0972521,-0.119946,-0.12016,-0.253108,0.15247,-0.100468,0.107721,0.0264922,-0.347704,0.273074,0.0415573,-0.0635655,0.0480743,-0.0733989,-0.0635117,0.0409766,0.0478905,0.0164582,-0.113733,0.104731,0.256462,-0.018625,0.100162,0.120541,0.0650519,0.155219,0.17148,0.0796111,0.00483106,-0.265604,0.00851861,0.204401,-0.00959334,0.0906195,0.142367,0.108653
shines,-0.182434,-0.049625,-0.091282,-0.238093,0.187401,0.0736152,0.0391592,-0.109594,0.227625,-0.145,-0.108315,-0.0418679,0.0610504,-0.136064,-0.322266,0.207408,-0.135999,0.00840146,0.277993,-0.429418,-0.216235,-0.0393775,0.00200278,0.00254531,-0.0179409,0.183664,-0.194905,0.114975,0.0672503,-0.0220979,0.0983208,-0.0260114,0.0357273,-0.0373498,-0.0350251,-0.199772,0.103076,0.0902369,-0.00161469,-0.0476388,0.161287,-0.0104464,-0.063439,0.0162558,0.117793,0.0210232,-0.090951,0.270849,-0.0215166,0.159783
glance,0.0707737,-0.0152294,0.0777217,-0.146208,0.0665779,-0.00332929,0.0722189,0.103466,0.249352,-0.111826,0.031857,-0.146522,0.0384905,-0.173447,-0.182961,0.0717042,-0.00817294,0.0404243,0.100488,-0.3525,0.0407645,0.0489759,-0.0489979,-0.19063,0.0981175,-0.139749,0.0090185,0.120952,0.138509,-0.0316655,0.00389162,-0.0602821,0.0753797,0.134976,-0.0457352,-0.0352218,-0.11416,0.0831056,0.0969125,-0.214081,0.273777,0.13364,-0.0696951,0.0239377,0.0424051,-0.0425886,0.197503,0.522295,0.124164,-0.0674387
trim,-0.0564214,0.120531,-0.0237892,0.0262997,0.208168,0.169307,-0.278373,-0.0884855,-0.16033,-0.123828,0.16423,0.0931017,-0.257567,0.0992144,-0.208933,-0.0649222,-0.057778,-0.0803366,0.214439,0.100259,0.00855077,0.311664,-0.036456,0.03886,-0.113156,0.060414,-0.185336,-0.0355932,-0.106725,-0.0144182,0.0561212,0.0255947,-0.103073,0.0937319,-0.0125418,0.296992,-0.196319,0.0209718,-0.16044,0.203022,0.172413,-0.0183907,0.199789,0.0252179,-0.10259,0.0178701,-0.269822,-0.11352,-0.0863869,0.0964585
retire,-0.144672,0.0683419,0.0788355,0.0234265,0.116723,-0.0525857,-0.00762737,-0.0287628,-0.0377302,0.102953,0.208698,0.220171,-0.0283594,0.0591372,-0.194827,0.107357,0.178415,-0.012123,0.0718962,0.212415,0.269727,0.135485,-0.107925,-0.0570998,-0.238086,-0.100557,-0.194474,0.119136,0.128484,-0.188762,-0.132628,0.0978734,-0.0231197,-0.0107355,-0.0578876,0.37774,-0.0291012,0.0631538,0.176419,0.0365235,-0.106055,0.0324173,0.194661,-0.0158702,-0.265597,-0.223355,-0.207893,0.0167856,-0.22911,0.131198
bargain,0.0620752,-0.0176517,-0.118492,-0.245464,-0.0799259,-0.159987,-0.257709,0.0756018,0.219339,0.0676786,0.0352848,-0.0750226,0.00542928,-0.0318542,-0.127236,-0.145377,0.00457416,-0.00482882,0.20971,-0.319612,-0.103178,0.104323,0.0581433,0.118915,-0.118369,-0.168393,0.154852,0.00957928,0.128235,-0.16768,-0.0810782,0.104752,-0.207816,0.12076,-0.040069,0.184192,-0.0332797,0.0682454,-0.205883,-0.144038,0.261768,-0.259889,-0.181723,0.171843,-0.255636,0.0223047,0.0735049,-0.0967439,0.046392,0.292858
counsel,-0.0796295,0.199523,0.161616,-0.0511834,0.0132951,-0.242236,0.0404992,0.224475,0.0532899,0.305231,0.112846,-0.174588,-0.00436537,-0.0755186,0.0766147,-0.0464375,-0.158996,-0.00621842,-0.0101278,0.270529,0.0485898,-0.10996,0.124209,-0.0914915,0.0776127,-0.0201268,-0.0179096,0.20843,0.252613,-0.113027,0.048116,-0.106118,-0.137421,-0.0250566,-0.172227,0.192824,0.0581378,0.0449563,0.284899,0.0848716,-0.233653,0.0259249,-0.120296,0.0276169,0.184519,-0.19915,0.0434242,0.00945505,-0.0580138,0.2555
analyst,0.378205,-0.182043,0.114496,-0.341712,0.0212009,0.0551592,0.00213906,0.0559509,-0.0449866,-0.177701,0.00911412,0.235723,-0.0375893,0.337139,-0.306927,0.2576,-0.130179,-0.269318,0.210315,-0.13858,0.0757024,0.0124618,-0.240134,0.145641,0.0538727,0.101103,-0.0290063,0.264486,0.0489383,-0.0396734,-0.313147,0.250261,0.224675,-0.15077,-0.317722,-0.152876,0.0960096,0.0426185,-0.0560893,0.0325092,0.0325444,0.029694,0.0839648,0.322742,-0.323159,-0.136453,0.307296,-0.0476115,-0.136782,-0.17836
safeguards,0.17724,0.182172,-0.0337925,0.0737918,0.139814,-0.0336783,0.247783,-0.0833899,0.0508703,0.369172,-0.205104,0.0153681,-0.0262341,0.144598,-0.0267365,-0.18891,-0.225715,0.19486,-0.129668,0.208428,0.169346,0.0507133,-0.0434958,0.0479448,-0.0246834,-0.00577632,0.219873,-0.0538602,0.0360031,0.172306,0.00832441,-0.111786,-0.10597,-0.0459042,-0.0462712,-0.274536,-0.017603,-0.123903,0.12677,0.0196585,-0.239816,-0.169538,-0.173717,0.161372,-0.0812126,0.0502903,0.0280884,-0.0421483,0.103815,0.226767
hears,0.150835,0.0184743,-0.148412,-0.0235139,-0.103608,-0.208092,-0.120721,0.101932,-0.00337909,0.0651089,0.143547,-0.0998696,0.0901946,-0.0645745,-0.104981,-0.0437692,-0.0334573,0.189004,0.220802,0.276829,0.105457,0.0113504,0.123135,-0.298152,0.0663498,-0.144386,0.0107554,0.208623,0.091427,-0.0502192,0.00436698,-0.0990102,0.237278,-0.230074,-0.0762988,-0.0544734,0.212363,-0.0234173,0.0811758,0.059336,-0.029827,-0.0457493,0.152736,0.139261,-0.024594,-0.0461301,0.0237015,0.0898288,-0.0306042,0.392898
heat,-0.0936704,-0.257655,0.0832457,-0.0875172,-0.0039847,0.203428,-0.0177447,-0.0329365,0.0866377,-0.130565,-0.188661,-0.0978512,-0.0116497,-0.00578405,-0.221817,0.299958,-0.132862,0.204865,0.164425,-0.086346,0.0512726,-0.0673019,-0.109098,-0.180044,-0.151804,-0.295854,0.125831,0.0757248,-0.117917,0.177131,0.0516227,0.0121334,-0.0608324,0.297541,0.138461,-0.268747,0.0230582,-0.0679822,0.0848404,0.00640368,-0.050599,-0.28564,-0.214563,-0.1029,-0.0119789,0.175579,-0.202664,-0.0691978,0.103261,0.0995213
surveillance,0.0282584,0.0278285,-0.0764894,0.0711307,0.126597,0.123225,0.191393,-0.0911591,0.178911,0.169292,-0.161648,-0.176602,0.00193194,0.155937,-0.127377,-0.10677,-0.371308,-0.135814,0.0707131,0.21795,0.329829,0.039761,0.111322,-0.00696767,-0.206316,0.0869289,0.205616,0.0540782,0.0101661,0.210713,-0.0604046,0.0067234,0.0446288,-0.0879919,0.0647908,-0.271549,0.030643,-0.0614114,0.0937974,0.064226,0.134355,-0.0707423,-0.0760297,0.182796,0.154913,-0.152538,-0.15492,0.0382904,0.109239,0.00956354
forge,-0.102798,-0.165087,0.0868565,-0.00733489,0.120302,0.0473324,-0.0142747,-0.0774473,0.0139241,0.0700431,0.00832678,-0.0452884,-0.0600856,0.1261,-0.375739,-0.132082,0.1642,-0.37013,0.151424,0.0697238,-0.175004,0.135196,0.137409,-0.0341184,0.0642714,0.0444914,0.136924,0.00414902,0.232263,-0.138568,0.160546,-0.0852142,-0.118071,0.108154,0.00762102,-0.0884177,-0.165581,0.0799338,-0.223486,0.0976119,0.0956851,0.143719,-0.133903,0.114943,-0.237747,0.0910613,-0.117231,-0.26515,-0.0808583,0.0622122
format,0.00423666,0.169506,0.108183,-0.137863,-0.121777,0.175375,0.0683128,-0.00703844,0.0848429,0.147584,-0.130683,-0.214175,-0.020286,0.112575,-0.0912306,-0.0436781,0.167654,0.104159,0.0496533,-0.15518,0.250128,-0.056622,-0.0095272,0.193652,-0.0723142,-0.0225362,0.00444399,0.0013766,0.158225,0.3464,0.0660857,0.000317151,0.13366,0.120085,-0.209096,0.0140466,0.137175,-0.0500808,0.148888,-0.154197,-0.147082,0.140226,-0.346137,0.0504668,0.0938875,-0.0171844,-0.0469808,0.244881,0.153203,0.202445
force,0.239324,-0.0265172,0.298323,0.300903,-0.0771171,-0.132811,-0.0810206,-0.217279,0.113493,0.170405,0.149074,0.11524,-0.163692,0.205277,-0.155411,-0.0741938,-0.177582,0.00951927,0.217741,-0.225036,0.257498,0.321353,0.323193,-0.262055,-0.0125452,-0.253836,0.126417,-0.2747,-0.112567,-0.0379723,0.1315,-0.114975,-0.0921146,-0.0654266,0.292688,0.280507,0.0779751,0.232695,0.318573,-0.050094,0.298471,-0.140608,0.2727,0.145396,-0.226337,-0.0836431,0.186647,-0.255491,0.223893,0.137366
$200,0.132373,0.156481,-0.308801,-0.15102,-0.164609,0.156385,0.0551478,-0.290866,0.0629187,0.277719,0.247938,0.0537425,-0.000126146,0.250116,0.0609378,0.283773,0.0854898,-0.00525554,-0.195541,0.233728,0.0147031,0.148102,-0.333095,0.320761,0.233448,0.00326061,0.056602,-0.133179,0.177627,0.212521,-0.292167,-0.0512374,0.0744245,-0.236854,0.180766,0.00778566,-0.0382854,-0.178089,0.0679421,0.290458,-0.205014,-0.248367,0.293268,-0.110476,0.0183581,0.217724,0.212425,-0.0549844,0.231402,-0.233162
head,-0.316123,-0.0327797,-0.116823,0.122133,-0.245728,0.224757,-0.0509676,0.12622,-0.00427966,-0.0695717,-0.0826134,-0.26852,-0.300924,-0.171707,-0.190055,0.305172,0.225436,-0.121482,0.210944,0.0680014,-0.146225,0.201314,-0.348075,0.299215,0.00793819,-0.342396,-0.17688,-0.262206,-0.017506,-0.0120267,0.223505,-0.284063,0.125622,0.269201,-0.190717,0.311557,0.156944,0.0469274,0.228505,-0.261891,0.0847734,-0.00727405,-0.176449,0.245987,0.285599,-0.0578316,0.0287139,0.171064,0.017527,-0.358938
ethnic,-0.389957,-0.369598,0.059593,-0.130338,-0.0135792,-0.0998826,0.0140003,-0.129019,0.00769436,0.0531848,-0.115078,-0.265035,0.00390811,0.0905971,-0.113714,-0.111647,-0.00656058,0.126057,-0.198371,0.011306,-0.024276,-0.176836,0.0527492,-0.0883702,-0.16054,0.174657,0.245288,-0.00872994,-0.0822704,-0.0588616,0.252877,-0.0526206,0.018306,-0.0354991,0.132169,-0.0554927,-0.168173,0.123036,-0.203148,0.053066,-0.0978115,0.1037,-0.0147476,0.153542,-0.102648,-0.208364,0.0664472,-0.137011,0.0733401,-0.212628
calm,-0.037085,-0.385162,-0.129698,0.161517,0.0816545,-0.0436548,0.024878,-0.0588947,0.285343,-0.00619841,0.0856619,0.29216,-0.131818,0.111791,-0.293033,-0.0762608,-0.197926,0.0148557,-0.0563181,0.0824013,0.010148,-0.0813957,0.139053,-0.112029,0.0888659,-0.0812241,0.0638108,-0.0522101,0.114184,-0.106188,0.00130442,-0.0854725,0.0588206,0.105952,0.00467635,-0.0229894,-0.0884707,-0.238034,-0.316336,0.147988,0.0493035,-0.0897462,-0.00334167,0.167381,-0.0241407,0.149655,-0.197458,0.029403,0.144371,-0.0950753
lowest,-0.216076,0.0175565,0.0919216,0.105788,-0.194757,-0.0228818,-0.158506,-0.176672,-0.130699,-0.0344638,0.33023,0.1241,0.0724078,0.116492,0.212262,-0.152248,-0.156051,0.1784,0.1848,-0.132914,0.0444255,-0.0393679,-0.0755146,-0.195383,0.0694142,-0.121724,-0.0419409,-0.09624,-0.136847,-0.169053,-0.0727802,0.0427104,-0.133005,0.0298258,-0.0504885,-0.0576379,-0.0148295,-0.228441,-0.0994974,0.00932994,0.210441,-0.113231,0.174221,-0.224184,0.0981994,-0.0309159,0.0202705,-0.200347,0.107323,-0.148899
wave,-0.0335018,-0.121249,0.0243088,0.133561,0.0869753,0.158449,-0.212256,-0.146261,0.205736,-0.293807,-0.0756379,-0.0551459,0.117171,-0.075052,-0.126182,0.00593842,-0.00315434,-0.0219098,0.0148294,0.0365149,0.159356,-0.0905503,0.0870633,0.0943073,-0.299449,-0.0648644,0.173339,0.232697,-0.056411,-0.035915,0.133946,-0.184229,-0.0704349,0.330092,0.145923,-0.115325,-0.137117,-0.0332057,-0.0358934,-0.118858,-0.0201657,-0.113681,-0.109599,-0.0459537,-0.156513,0.0858897,-0.16756,0.0575812,0.329518,0.0644592
war,-0.304858,0.138586,-0.14113,-0.058513,0.13952,-0.0371941,-0.214324,-0.0520989,0.145099,-0.0518312,0.0356798,-0.0678144,0.159631,0.237952,0.0220192,-0.095889,-0.132304,-0.0316533,0.0637428,-0.0174976,0.209339,-0.228391,0.185693,0.0949028,-0.104675,0.0178301,0.300485,-0.0419924,0.0589863,-0.0206456,0.330251,0.0305947,-0.0214388,0.118186,0.109047,-0.10146,-0.412979,0.11026,-0.0718611,-0.126032,-0.110182,-0.134558,-0.0224464,-0.0325426,-0.0552738,-0.105635,0.0994727,0.0291025,0.0702406,-0.0500754
stuck,-0.0939286,-0.00215277,0.078726,0.096132,-0.0431994,0.190184,-0.179723,-0.00973031,0.0113602,-0.12658,-0.0773976,0.177436,-0.137884,0.0751162,-0.226227,-0.025436,-0.15312,0.220021,0.164716,-0.129809,-0.126293,-0.00532526,0.194862,-0.0911652,0.0379387,-0.0862196,0.0383335,0.322449,0.215646,-0.132306,-0.0802856,0.142949,-0.105218,0.0926268,0.100653,-0.0684113,-0.183902,0.139191,-0.184152,0.0349448,0.307342,-0.314865,0.0674955,0.161624,0.0442956,-0.0344017,-0.0773371,0.00768104,-0.0626787,-0.151242
fight,-0.0763961,0.0444451,0.0250197,0.00849828,0.095948,0.178256,-0.190659,-0.0796873,0.0160207,0.103225,-0.011462,-0.127723,0.0787496,0.148858,-0.125562,-0.0483826,-0.00882014,0.0503368,0.0250214,-0.00151286,-0.0250978,-0.171005,0.282243,-0.00651735,-0.264117,0.0315285,-0.0360128,0.239295,0.229808,-0.157326,0.388496,-0.0591652,-0.0480474,-0.191232,0.172017,-0.0428123,-0.181457,-0.0331286,-0.067021,-0.145116,-0.247535,-0.297015,-0.121457,0.225067,-0.119886,-0.0845251,-0.0871626,-0.068095,0.257432,0.197709
transform,-0.177216,0.00282595,-0.0131762,-0.138627,0.122657,-0.0313828,-0.0871208,0.0291635,0.164543,0.129065,-0.0494363,-0.0566672,-0.103979,0.160124,-0.294187,-0.0668912,-0.0465767,-0.189059,0.0510452,-0.0070361,0.0456028,0.288716,0.134311,0.192093,-0.229812,0.0911162,-0.0915215,0.286438,0.0687586,-0.00901338,-0.12231,0.0778212,-0.200632,0.210976,0.0351324,0.0570447,-0.360666,-0.125009,-0.164586,0.0717986,-0.003276,0.139531,-0.145648,0.0225224,-0.0985086,-0.00480847,-0.244241,-0.0577074,-0.0202767,0.152589
support,-0.0601467,0.161063,-0.040073,-0.0247369,-0.123864,0.0148516,-0.136164,0.073987,-0.0787072,0.173841,-0.0872715,-0.0100581,-0.0850612,0.00656406,-0.106654,0.131038,-0.220511,-0.140811,-0.142672,0.106405,-0.329704,0.157974,0.0318365,-0.0111525,-0.0919008,0.415564,0.15056,0.110179,0.0221103,0.0733347,-0.0227496,-0.115175,0.124896,0.0846531,-0.0509507,-0.0408805,-0.107404,0.0118472,-0.0884978,0.136231,-0.0738202,0.0383535,-0.00387641,0.278772,0.0135684,-0.0009328,-0.0504394,0.0273119,-0.215514,0.101296
wage,0.173112,-0.250384,0.036974,0.0110431,0.0234442,-0.09728,0.206992,-0.00851291,-0.0181692,0.0608609,-0.208426,-0.02586,-0.210503,0.208451,-0.14048,-0.00328017,0.023381,0.193675,-0.164085,0.0260488,-0.171513,0.162969,-0.132825,0.182968,0.137211,0.0717646,0.293883,0.116128,-0.153286,-0.0428624,0.121382,-0.072821,-0.194391,0.202648,0.0681693,0.112631,-0.154203,0.0981858,0.0387969,0.099445,0.0113627,-0.258027,0.258108,-0.0233052,-0.242993,-0.186091,0.0806309,0.114761,0.0502922,0.0964555
deal,-0.028345,0.0611397,-0.0999085,0.120461,-0.179189,-0.0527739,-0.000669065,0.135885,0.131449,0.172918,-0.167584,0.0802366,0.145521,0.0309636,0.0443311,-0.298448,0.0816582,-0.192325,0.126744,-0.0765792,-0.0246018,0.101435,-0.129554,-0.0120881,-0.217151,-0.246077,0.0771684,0.10207,-0.0323678,-0.0442144,0.0230801,0.233608,-0.162703,-0.162597,-0.000514789,-0.0501924,0.168104,-0.0403899,0.0428627,-0.244653,-0.0159699,0.0562666,-0.0890303,0.145916,-0.35431,0.0363344,0.243071,0.147516,0.0673958,0.283677
wall,-0.215855,0.1578,-0.243336,-0.120256,-0.0322637,0.0498085,-0.237024,-0.0527263,-0.276446,0.191579,-0.0591357,0.0056785,-0.00866982,-0.058723,0.197366,0.0373281,-0.0335199,-0.18979,-0.0212409,0.209049,0.149728,0.0415329,0.0267008,0.183671,-0.104643,0.090152,0.233149,-0.0189372,-0.265724,-0.0466419,0.208335,-0.0927104,-0.16617,0.18912,0.0425161,0.10175,0.165729,-0.0799712,0.258643,-0.0224798,0.0471265,-0.203105,-0.055326,0.279164,0.155794,0.248845,0.112249,0.136663,0.150569,0.122951
bounce,-0.0376007,0.0534844,0.010743,-0.0653371,-0.00172,0.118057,0.0253691,0.307762,0.187485,-0.321489,-0.0107545,0.180034,-0.126498,-0.182774,-0.0282002,0.0167791,-0.147934,0.0377954,-0.0420974,-0.227274,0.0666767,0.204825,0.120199,-0.165827,0.0267776,-0.384753,0.0991363,0.189579,0.244649,0.0506682,0.0305485,-0.119137,-0.0862028,0.263969,-0.0263338,0.0824067,0.0445535,0.0515211,-0.231428,-0.0347516,-0.00396522,-0.029381,-0.105555,-0.0675464,-0.231682,0.0835254,-0.13788,0.104021,0.0137918,0.0827712
social,-0.0649189,-0.288604,0.0564142,0.0858761,0.217199,0.0365353,0.0813704,-0.281131,0.18148,0.15892,-0.13399,-0.423051,-0.0204573,0.154569,-0.0799429,0.122007,-0.200591,-0.239685,-0.226363,0.0548429,-0.0113082,-0.0229314,0.0827164,0.0354505,-0.12094,0.209335,0.159379,-0.0155404,0.0198951,0.217086,0.0457585,0.0498461,-0.143506,-0.0137002,0.0670029,0.130726,-0.157448,-0.111232,0.0280425,-0.227656,0.0850491,-0.125746,0.060738,0.150292,0.0703272,-0.226248,-0.16443,0.00657573,0.0911282,0.0426377
solar,-0.260723,0.359102,-0.0400835,0.319198,-0.105068,0.325372,0.102932,-0.0336056,-0.257083,-0.0505635,-0.249178,-0.000679949,0.325871,-0.0852434,0.232854,-0.244165,0.142286,0.148127,0.268355,-0.10239,-0.281291,-0.16597,-0.366455,0.14387,-0.294631,0.349557,0.136374,-0.251895,0.233005,-8.65261e-05,0.114793,0.0275254,0.284554,0.00946675,-0.244956,0.19711,-0.00287637,-0.142075,0.281021,-0.245317,-0.0327259,-0.0904475,0.0384967,0.0374773,0.0914234,-0.247431,-0.16137,-0.32471,-0.318953,-0.187791
wraps,0.110559,0.0547496,0.0259434,-0.0559073,-0.00660422,0.408917,0.144803,0.0950716,0.369747,0.0819458,-0.181906,-0.0296982,0.160392,0.00659443,-0.352157,-0.143705,-0.0315483,0.0216125,0.350255,-0.0604443,-0.185903,0.0189159,0.0369685,-0.00849275,0.00960261,-0.05026,-0.0461872,0.270477,-0.000516597,0.109523,0.211593,-0.0265019,-0.00204627,-0.092512,-0.0490838,-0.0744165,0.10321,0.033006,-0.0810314,0.00751985,0.0119624,-0.0653607,-0.0456326,0.0459932,0.129545,-0.152687,-0.196174,0.166475,-0.0381462,0.11403
product,-0.0972975,-0.259019,-0.041093,0.239241,-0.114323,0.14466,0.0882432,0.168415,-0.270286,-0.0190294,-0.0309973,-0.291006,-0.241897,-0.0807709,-0.303391,0.0188525,0.256098,-0.20035,0.0575935,0.226339,0.0486823,-0.184424,-0.249649,0.211422,-0.323822,0.079243,0.196613,-0.155559,-0.142735,0.0327282,-0.0714865,0.248856,0.15125,0.163629,-0.31405,0.051511,0.194851,0.285428,-0.0645829,-0.0621355,0.0140645,0.106117,0.224055,-0.226566,-0.196802,-0.230486,-0.101017,0.097932,0.349079,0.326563
committed,-0.0813838,0.120622,-0.0338974,0.00708846,-0.0493037,-0.167387,-0.175511,-0.0410912,-0.022459,0.267745,-0.130476,0.133764,-0.10389,0.297476,-0.18673,-0.0556282,-0.14162,-0.0438952,-0.156294,0.0106813,0.0189284,-0.115304,0.180783,0.00907528,-0.0623707,0.151989,0.267793,0.185579,0.0421474,-0.00199318,-0.155434,0.128443,-0.0587388,-0.207146,-0.0318452,-0.146671,-0.217936,0.00303389,-0.064707,-0.0660492,-0.0783938,-0.0502763,-0.00885817,0.242408,-0.0119302,-0.144873,0.0990859,0.0569741,-0.416478,0.0412664
opinion,0.0801386,-0.113046,0.0844817,-0.111771,-0.0780648,0.122278,-0.00257365,0.122113,-0.0543304,0.219307,0.255935,-0.284755,-0.0892017,0.0275894,-0.0896505,-0.0222848,-0.0821591,0.185128,-0.2036,0.102961,0.0237216,0.0181902,0.101388,-0.212625,-0.204439,0.0346957,-0.0315233,0.131808,0.165981,-0.0103626,-0.0445485,-0.329709,0.14134,-0.00474423,-0.156016,-0.213248,0.0736525,-0.101243,-0.0496325,-0.158402,0.117648,-0.0980564,-0.138052,0.215792,-0.112571,-0.0282326,0.253496,0.00764908,0.136866,0.159352
diligence,-0.142163,0.00910831,0.179443,0.178468,0.0593424,-0.271648,-0.316125,-0.108694,-0.161281,0.201673,-0.179331,0.112787,-0.0780024,0.046245,-0.032035,0.211701,0.300105,-0.158783,-0.0124774,0.0227214,0.241832,0.307456,0.0284589,-0.117251,-0.0356295,-0.0719562,0.0470776,0.330968,0.103905,0.174963,0.0253879,0.161375,0.117713,-0.0966005,0.216493,-0.223709,0.187455,0.152243,-0.274849,0.240857,-0.197509,-0.269758,0.106287,0.00971061,-0.31324,-0.0869731,0.011134,-0.293147,-0.0985626,0.322517
post,0.0370246,0.132343,-0.111606,-0.128578,-0.122884,-0.140256,0.261206,-0.00429212,0.0840617,0.224366,-0.162212,-0.0510248,0.0741209,0.191005,0.210453,-0.0141837,0.250555,-0.0689472,-0.0650512,0.186077,0.183255,-0.180128,0.268849,0.112365,-0.283106,0.182991,-0.14251,0.131932,-0.0319183,0.120705,0.10082,-0.0826671,0.250957,-0.124806,0.167744,-0.084117,0.00462452,-0.0494699,-0.056708,-0.234737,0.00823884,-0.0788259,0.232172,0.0335121,0.0119279,-0.19799,-0.204148,0.0548179,-0.149218,-0.120979
promotes,-0.200448,0.0453121,-0.0611058,-0.118754,-0.262988,0.135853,0.175617,-0.0490638,0.232208,0.400178,0.0278248,-0.177931,-0.0978677,0.197336,-0.0280958,-0.113025,0.0573228,-0.103861,0.0998569,-0.00646827,0.0374266,-0.0408953,-0.0828252,0.0844825,0.0553164,0.173003,-0.0293815,0.194269,-0.0745458,-0.00101035,0.133183,-0.0426006,-0.0162327,-0.0613125,-0.150712,0.110746,-0.0640765,-0.0831631,0.188341,-0.227538,-0.119919,-0.133545,-0.0105326,0.0837581,-0.0726338,-0.213673,-0.152229,0.115135,0.0784929,0.196312
corporate,0.0409721,0.271383,0.00978318,-0.185818,0.116082,0.0507441,-0.14927,-0.478649,0.12322,0.311579,0.00453471,0.12998,-0.0732347,-0.0477053,0.024389,-0.252276,0.00426792,0.0142086,-0.113493,-0.0739736,-0.139718,-0.0956871,0.069313,0.127007,0.127235,0.0365678,-0.0144433,-0.222294,0.0611255,-0.043266,0.00641623,-0.145485,-0.153364,0.262293,-0.0196599,0.41805,-0.132903,0.00647281,-0.041247,-0.130571,0.019987,-0.110924,-0.213885,-0.0463884,0.107802,-0.254198,0.0473014,-0.0241195,-0.0423664,0.0436183
discount,-0.0743057,-0.0341425,-0.0501812,0.0531395,-0.229505,0.235519,-0.0314317,0.0391898,0.05075,0.0869027,0.00225578,0.139821,-0.151542,0.166374,0.223811,-0.160334,0.0973174,0.167143,0.267737,-0.284446,-0.0469486,-0.0252359,-0.15972,0.261758,-0.19327,0.0902445,-0.0145791,-0.226243,0.049484,0.161266,-0.022116,0.0720364,-0.173078,0.159815,-0.0731235,0.285168,0.277909,0.0693649,0.0704573,-0.0186623,-0.0324881,-0.0402558,-0.0770442,0.0250884,-0.0861623,-0.0696818,-0.147698,0.0549772,0.303691,0.202007
burn,-0.220434,-0.11427,0.0395391,-0.107365,0.342285,0.16072,-0.0299029,0.00429878,0.180284,-0.176464,-0.168334,0.234592,-0.00775816,0.0445146,-0.0756374,0.116504,-0.143454,0.150684,0.136009,-0.226086,0.0995776,0.248617,-0.122782,0.0986763,-0.235785,-0.094376,0.0642885,-0.114048,0.1979,0.0585812,-0.13913,0.170986,-0.156704,0.0912143,0.149162,-0.0822085,0.0156305,0.121463,0.177937,0.0872493,-0.0185533,-0.179858,-0.0135834,0.0689668,-0.0352264,0.140706,-0.14053,-0.104391,-0.110739,0.193687
focus,0.0117399,0.117318,-0.111198,0.0766547,0.062948,0.165859,-0.197209,-0.129805,0.00841811,0.10438,-0.0497803,-0.0272255,-0.112538,0.192366,-0.483256,-0.0162024,-0.262711,-0.199828,-0.143819,0.0921123,0.140983,0.255604,0.15474,0.115089,0.0367022,-0.0129923,0.0430331,0.263118,0.147491,-0.0734699,0.0208733,0.0639689,-0.167098,0.135081,-0.0269043,0.123196,-0.132458,-0.207462,-0.100599,0.0616048,-0.185546,-0.0565221,-0.217398,0.226286,0.0398085,-0.000917925,-0.0469611,0.0457516,-0.12356,0.142346
fox,-0.0628004,-0.0976966,-0.090035,-0.484845,0.0997831,-0.0542674,0.144838,0.0849327,0.281275,-0.236338,-0.100574,-0.0725487,0.207911,0.0478964,-0.10893,-0.00269175,0.0121094,0.27131,0.221948,-0.206258,0.112177,-0.0585072,-0.0426865,0.15812,-0.0692015,-0.0432372,-0.00230144,-0.0574439,-0.106901,-0.222444,0.191112,-0.03459,0.065289,-0.02564,-0.0633464,-0.0290084,0.0493929,-0.015552,0.215675,-0.0466877,0.104782,-0.154669,-0.0566455,0.155703,0.114865,-0.149242,0.0265679,-0.00181964,0.0865882,0.10165
bottom,0.0309592,-0.0647748,0.134403,-0.154654,-0.0634996,0.0819973,0.0202476,-0.0954356,-0.174759,-0.00784085,-0.287258,-0.0544519,0.0855314,-0.0295899,-0.0246804,-0.0786644,-0.0827623,0.149109,0.124573,-0.214848,0.00758927,-0.0128397,-0.0837914,-0.203483,0.0769861,-0.238411,-0.15613,0.0526562,0.138309,0.0723932,0.102792,0.180471,0.183971,0.253754,0.0236649,-0.0693187,0.00536241,0.0308557,-0.171814,-0.14509,0.206844,-0.309495,-0.350519,0.0793815,-0.123307,0.117264,0.000432133,0.175212,-0.00119438,-0.0735432
creeps,-0.00689087,-0.0262991,0.0334044,-0.249873,0.179482,0.0996487,-0.101414,0.0893736,0.325909,-0.158044,-0.0187518,0.00412186,0.136069,0.00276468,-0.0846873,0.0724118,-0.329675,0.105327,0.165596,-0.301695,-0.152117,-0.11402,0.102878,-0.0571483,-0.104408,0.105966,0.0278379,0.0469323,0.0646789,-0.0980096,0.239973,0.0986601,-0.0831649,0.221544,-0.17895,-0.0464427,-0.0488533,0.0661102,-0.036544,-0.121726,0.251197,-0.0180111,-0.101106,0.0794382,0.0780806,-0.1137,-0.194601,0.250259,0.0673773,0.0354048
intellectual,0.0174621,0.257599,-0.121092,-0.124555,-0.345138,0.178201,0.183771,-0.10295,0.261419,-0.113207,-0.285081,-0.234511,0.277526,-0.166685,-0.109049,0.0235733,0.149431,-0.324805,-0.0832414,0.337407,-0.0406347,0.193581,-0.357335,-0.0892351,-0.390534,-0.369218,-0.122743,0.0706102,0.168362,0.0546673,0.139035,0.0577514,-0.0442082,-0.338017,0.152891,-0.328074,-0.19817,-0.0957136,0.118112,-0.0913295,-0.131646,0.207154,0.0978841,-0.143877,-0.0662252,0.25871,0.0370751,0.0784759,-0.0584305,0.131148
border,-0.338121,0.0594965,-0.209482,-0.0390878,-0.294943,0.300727,0.134691,-0.180842,-0.292383,-0.248002,-0.279006,-0.113233,-0.0599466,0.0794149,0.316247,0.250784,-0.337564,-0.181092,0.245702,-0.285964,-0.24303,-0.0449868,-0.158564,-0.229097,-0.147146,-0.179441,0.0612361,-0.162318,-0.217235,-0.143256,0.0961767,0.305559,0.313108,0.265562,0.0973744,0.268704,-0.194835,-0.166507,0.00555215,0.00632898,0.153905,-0.0288641,-0.102312,0.352006,-0.000783744,0.272874,0.0828881,0.0629302,-0.142316,-0.0209976
internal,-0.215837,-0.0121871,-0.0606576,-0.0699493,0.176455,-0.15629,0.0782364,-0.235863,0.0893179,0.246001,-0.0732288,0.152054,-0.210124,0.155746,-0.316021,-0.279792,-0.0852377,-0.223592,-0.0939144,0.125003,0.0693674,-0.17694,-0.110535,0.208851,-0.0183975,0.280451,0.169912,-0.00118501,0.0857467,0.0839093,0.130935,0.0414386,-0.113993,0.0552285,-0.134641,-0.0269385,-0.239763,-0.200649,-0.16234,-0.067986,-0.180733,-0.0867131,-0.122891,-0.12946,-0.00728359,-0.063252,-0.174823,0.0641356,-0.0898302,0.115247
dead,-0.320085,-0.290556,-0.146735,-0.0930273,0.0147441,-0.0314356,0.00602269,-0.0769865,-0.126573,-0.265533,-0.134445,0.00983567,0.256054,0.117193,0.0260205,0.0396932,-0.139639,0.248132,0.0240123,0.0713304,0.229459,-0.15076,-0.000995544,-0.0604552,-0.217406,-0.15529,0.137263,0.0368021,0.0326059,-0.141068,0.0188635,0.0181971,0.219527,-0.00137902,0.194216,0.0265123,-0.0759573,0.0595018,0.147867,-0.0232439,0.250133,-0.103503,0.116335,0.242096,-0.0945665,-0.199356,-0.0147634,-0.010686,0.032349,-0.144112
crown,-0.193923,-0.0890733,0.162972,-0.272713,-0.120262,-0.0778368,0.0203547,0.0204979,0.0438618,-0.010127,0.197329,-0.0292618,0.197895,0.224383,-0.326189,-0.0107796,-0.0367179,-0.16026,-0.0832834,-0.205024,0.249499,-0.175154,-0.00525041,0.168425,0.153612,-0.0182744,-0.180843,0.253637,-0.0563721,-0.138391,-0.0195167,0.106951,-0.0234745,0.159103,-0.0904559,-0.168482,-0.0440844,0.160754,0.0352414,-0.137555,0.0286316,0.103578,0.00830998,0.0451377,-0.0337907,0.065264,-0.114869,0.12936,-0.016844,0.103552
crowd,-0.156692,-0.34524,-0.121099,-0.144327,0.0111199,0.0663504,0.278237,0.181762,0.0642033,-0.281743,-0.0100457,-0.0995697,0.223119,0.0602221,-0.0750782,0.0421816,0.194537,0.166225,0.110917,-0.0907465,0.0635261,-0.0642799,0.222905,0.0313723,-0.0785449,-0.147879,0.00458823,-0.0499194,0.171978,0.0273873,0.0767807,0.0414484,0.231924,0.0444349,-0.115127,0.0321949,-0.0582346,0.0484066,0.00568579,0.0370749,0.11496,-0.121376,-0.0668806,0.241532,-0.090383,-0.154322,-0.253023,0.00270572,0.15032,0.140174
rights,-0.130608,-0.126739,-0.027906,-0.11223,0.0752862,-0.07097,-0.0610937,-0.0517222,0.0358972,0.428571,-0.0154028,-0.248691,0.121483,0.116015,0.0172749,-0.146734,0.124258,0.0672004,-0.158532,-0.0820449,0.0125215,-0.115567,-0.109712,0.0835176,-0.11179,0.206965,0.199827,0.0997669,-0.0202223,0.0216863,0.0900829,0.116068,-0.0970049,-0.1706,-0.187101,-0.272423,0.0136074,-0.184708,0.0544436,-0.131947,-0.308926,0.0967362,0.0316004,0.214629,-0.0810312,-0.0647068,-0.0109138,-0.131625,0.0588634,0.203327
attorney,-0.0870741,0.00321502,0.0276474,-0.0888991,0.145186,-0.235447,-0.0540602,0.258967,0.0638863,0.272335,0.152796,-0.177407,-0.0314212,-0.129722,0.078086,0.104449,-0.18903,0.0604218,0.0573288,0.181828,0.0843457,-0.0713409,0.102106,-0.198888,0.147042,-0.086284,-0.0363206,0.189918,0.186398,-0.178071,-0.0977677,-0.107137,-0.138088,-0.0553361,-0.171996,0.109074,0.0705567,0.190839,0.128076,-0.0107734,-0.249775,-0.0911764,0.0181816,-0.00444308,0.216523,-0.27239,-0.00171812,-0.0603945,-0.039838,0.239823
night,-0.0821621,-0.212765,-0.133778,0.0430943,0.0065736,0.247299,0.215993,0.21309,0.0384636,-0.160635,-0.103694,-0.115968,0.244956,-0.0222946,-0.107005,0.120717,0.299725,0.083133,0.208367,0.00721134,0.129332,-0.240982,0.229194,-0.0732213,-0.00908012,-0.167957,-0.0335048,0.154769,0.172075,-0.0408401,0.176447,-0.0450918,0.150922,-0.0618578,-0.183693,-0.0309105,-0.010888,0.0868356,0.00826656,-0.106485,0.128459,-0.117162,0.158121,0.173306,-0.0671377,-0.0217153,-0.143522,0.148959,-0.0421029,0.206531
zooms,-0.0490411,0.0201444,0.0773644,-0.398666,0.155639,0.0789431,0.0153094,-0.113721,0.212857,-0.14401,-0.0833002,-0.122975,0.202635,0.0403413,-0.230231,0.267649,-0.0725661,0.0260123,0.285273,-0.360889,0.001697,0.0115929,-0.0346161,0.276927,-0.0802575,0.149477,-0.0784057,0.214337,0.0709426,-0.043106,0.152946,0.0642238,0.0535144,0.124009,0.133069,-0.136268,-0.00375487,0.00280598,0.141992,-0.129999,0.143542,0.0845997,0.0323143,0.0440361,0.0578973,-0.0073753,-0.1492,0.188149,0.153842,0.0109169
hunt,-0.155909,-0.242975,-0.221973,-0.359583,0.145449,0.0519482,0.0586987,-0.148893,0.157237,-0.0388737,-0.377802,-0.113602,0.204007,-0.0152053,-0.0543399,-0.0223696,-0.155939,-0.0571649,0.0669297,-0.302879,0.107474,-0.0727089,-0.0586396,0.0240127,0.0408496,0.128676,0.172673,0.138062,-0.0816002,0.000720834,-0.171618,0.116651,0.0498471,0.021845,0.0823338,0.0923478,-0.0792184,0.0287298,-0.00661683,-0.114265,-0.0314869,-0.243029,-0.0488868,0.0647378,0.122021,-0.178057,-0.128586,-0.0828021,0.0321829,0.105437
gift,-0.0445647,-0.0901198,-0.225055,-0.223626,0.0142924,-0.0216252,0.0103819,0.121296,0.098498,0.203288,0.0133274,-0.192888,0.262124,-0.0159957,0.0960873,-0.102923,-0.00591529,0.27326,0.174294,-0.17704,-0.0895227,-0.143526,-0.00183909,0.150338,-0.0251179,0.159498,-0.0877143,0.138374,-0.147784,0.0255488,-0.170876,0.182707,0.0449695,0.0970986,-0.0755769,0.194653,-0.191751,0.0701329,-0.0244957,-0.0437109,0.141767,-0.0332726,-0.0497028,0.25807,-0.0981614,-0.230664,-0.0810211,0.0533292,-0.00124566,0.084065
shadow,-0.34332,0.0970569,0.222103,0.062717,0.215998,-0.0115434,0.00899144,0.207379,-0.26338,-0.226088,-0.0985907,-0.178956,-0.244395,0.162858,0.244803,-0.123704,0.104644,-0.159833,-0.106396,-0.142916,0.361468,-0.0770584,0.183407,-0.178859,0.141968,0.350708,0.187595,0.108346,0.241171,-0.0636696,0.252909,-0.13419,0.0910923,-0.0922398,-0.172727,0.14234,0.0953417,-0.131554,-0.199294,0.153738,0.079645,-0.281278,-0.0543111,-0.0935204,-0.286015,-0.308404,-0.0639371,-0.202112,-0.221044,-0.26468
captured,-0.408893,-0.121361,0.00381919,-0.09315,0.0672382,0.0955815,-0.04822,-0.05272,-0.0544395,-0.149858,-0.119229,0.0318179,0.106163,0.00454946,0.0411152,0.111163,-0.122327,-0.13755,0.139809,-0.129554,0.0781933,-0.215996,0.169098,-0.115887,-0.31829,0.171032,0.0573474,0.338393,0.157757,0.0314414,-0.149619,-0.156155,0.00325122,-0.238175,-0.0444465,-0.104904,-0.0909464,0.290859,-0.0555807,0.124413,0.0636522,-0.0489477,0.159403,0.0486428,-0.0329727,-0.0848194,-0.023815,0.124105,-0.195717,-0.0727131
threatens,-0.26629,-0.164013,0.229073,0.294188,-0.282486,-0.0715648,0.0687038,0.141608,0.141545,-0.0350298,-0.208692,-0.239368,-0.236683,-0.172199,0.107506,0.271865,-0.0319846,-0.197842,-0.108542,-0.287848,-0.0762366,-0.127042,0.0298755,0.113435,0.0560035,0.294376,0.291405,-0.361716,0.172275,-0.292773,-0.104587,0.12023,-0.100201,-0.292945,0.156251,0.0977435,0.22033,0.241798,-0.0188374,0.210704,-0.269019,0.0346913,-0.166147,-0.0468612,0.200408,-0.286022,-0.137447,0.0664865,-0.190727,-0.306412
option,0.0242107,0.115596,0.121604,0.0742484,-0.132168,0.0349279,0.0360905,-0.165505,0.0866322,0.253618,0.0492883,0.0257389,-0.0865473,-0.108928,0.116308,-0.259752,0.023738,-0.0219842,0.189385,-0.233152,0.0537668,0.0408196,0.0422114,0.128972,0.01052,-0.163227,0.206167,-0.263804,0.0607573,0.0362786,0.0273422,-0.113752,0.0254169,0.00195413,0.135587,0.0205831,0.424462,-0.317047,0.11927,0.211936,-0.16857,0.00258585,-0.0895926,0.209791,0.0210318,0.0984181,0.0477795,0.0763089,0.0421098,-0.0733749
easy,0.102375,0.0388643,0.065587,-0.00793611,-0.158337,-0.0818579,0.0354149,0.0944587,0.265996,0.0118857,-0.0811048,0.175569,-0.0306079,0.271247,-0.0490702,-0.0575737,-0.139722,-0.0876929,0.0278581,-0.174806,-0.225601,-0.20029,-0.0240208,-0.255344,-0.0430831,0.132571,0.0936162,-0.0678401,0.0570277,0.0264315,-0.235531,0.243252,-0.103634,-0.0198257,0.0592913,-0.00242141,-0.137432,0.0967819,-0.0553005,-0.153927,0.0880354,-0.272734,-0.258417,0.24167,0.0965239,0.0567952,-0.132593,0.163597,0.0630148,0.105238
havens,-0.0963555,0.0349415,-0.251485,-0.165854,0.324072,-0.0682822,-0.12133,0.0928712,0.0979572,-0.0319628,0.0191872,0.160895,0.00826016,0.0715206,-0.00392959,-0.160899,-0.167964,0.169005,0.00515124,-0.017588,0.164534,-0.0740852,-0.0576677,0.153921,0.0559693,0.126457,0.225626,-0.0917514,0.11791,0.0595445,-0.0424154,-0.261898,0.126179,0.16989,0.155176,0.0542342,-0.0846454,-0.157691,-0.240969,-0.012856,-0.282427,-0.0304025,-0.266535,0.145627,0.113413,-0.0903441,0.0933752,-0.152293,0.11171,0.119818
board,-0.140054,0.113952,-0.213804,-0.253641,-0.104384,0.186724,0.166394,0.301362,0.252795,-0.26045,-0.258173,0.40975,-0.133571,0.128936,0.15311,0.202146,-0.285568,0.0667977,0.249031,0.212478,-0.286494,0.027172,-0.18477,-0.232857,-0.0922391,-0.202833,0.287839,-0.183468,-0.301628,0.114144,-0.361172,0.151494,0.354431,0.0171785,0.0119905,-0.0496556,0.161824,-0.178286,-0.27037,-0.180745,0.0996656,0.166214,-0.321334,0.290748,-0.212719,-0.184378,-0.00767895,-0.215521,-0.219924,-0.274148
spread,-0.154402,-0.138167,0.0528466,0.172405,0.112414,0.254345,-0.161204,-0.170098,0.0336039,-0.031797,0.0879317,-0.00698338,-0.114833,-0.10531,0.00528389,-0.0772197,-0.196616,-0.0813299,0.143176,-0.187664,0.0910938,-0.0970053,0.187079,0.055487,-0.197019,-0.11448,0.047532,-0.288002,0.0223695,-0.113331,0.102028,-0.105924,-0.215152,-0.0239428,0.0506211,-0.0858209,-0.0208882,0.127549,-0.101474,0.335322,0.0684445,-0.107815,-0.262088,-0.0921988,-0.0726258,-0.0739601,0.127035,-0.0893764,0.152987,-0.0509843
expose,-0.00825827,-0.0780749,-0.0938259,-0.252055,0.358284,-0.0539406,-0.310034,-0.159663,0.0467906,0.0973404,-0.0998183,0.0418777,-0.132902,0.16644,-0.0291226,-0.10073,-0.303647,-0.116105,-0.0834973,0.121575,-0.0300158,0.184115,0.0229287,0.0514828,-0.202817,0.0143532,0.0311625,0.16746,0.0904661,-0.00263198,-0.186978,-0.222729,-0.114177,-0.0614855,-0.145058,0.00586553,-0.188723,0.0246423,-0.148899,0.153675,0.0107377,-0.0290974,0.18048,0.257559,-0.0385702,0.0655782,-0.155735,-0.0425397,0.128054,0.0814541
victims,0.0646884,-0.205165,-0.0578782,-0.0343267,-0.119318,0.000309005,-0.1229,-0.0129465,-0.337543,0.0514781,0.0782307,-0.319211,0.0558891,0.0140186,0.224939,0.128224,0.175003,-0.175937,-0.00552429,-0.0405564,-0.171818,-0.331226,0.178461,0.293644,-0.216464,-0.240692,0.325165,-0.0494404,0.245383,-0.267391,0.205657,-0.0599279,-0.00531876,-0.0988611,0.163598,-0.095347,-0.215205,0.0129664,0.201807,0.342675,0.211269,-0.136506,0.199552,-0.235885,-0.208269,0.35006,0.111987,-0.160378,-0.145054,0.0708098
subpoenas,0.150919,0.0436577,-0.239877,0.0650034,0.0559521,-0.0971619,-0.0189627,0.040831,0.00279516,0.356466,0.0367244,-0.100406,0.130775,-0.0186383,0.0827689,-0.226709,-0.175543,0.120087,0.165898,0.346425,0.301903,0.0501863,-0.0121622,-0.0921343,-0.0717004,-0.200863,-0.0598239,-0.0610479,-0.0266857,0.0811177,-0.155009,-0.0428891,0.0269487,-0.25298,-0.0930543,-0.158059,0.264837,0.0355376,0.0981939,-0.121909,-0.064604,0.0113228,0.0246904,0.16427,0.184871,-0.0954073,0.158074,0.0104263,0.168816,0.19969
left,-0.243038,0.019326,0.0160067,-0.120397,0.00214674,0.217136,0.0272866,-0.0566959,-0.147662,-0.00256337,-0.212617,0.27395,-0.0509813,-0.0281605,-0.182217,0.00976542,-0.123962,-0.0159315,0.157641,-0.0392598,-0.00694348,-0.12979,0.280709,-0.0401041,-0.132943,0.0328213,-0.102224,0.229344,0.219175,-0.252459,-0.012371,-0.119482,-0.00442797,-0.0619859,0.113272,0.00589737,-0.0449253,0.133391,-0.137793,0.0622258,0.179293,-0.256351,0.2454,0.170491,-0.00131679,-0.267623,-0.202318,0.082288,-0.0924633,-0.130353
tainted,-0.164215,0.0438437,-0.203392,-0.240427,0.110165,-0.128403,-0.11484,-0.269375,0.107885,-0.108234,-0.0781706,0.0559579,-0.078326,0.0819625,-0.140433,0.119125,-0.16955,0.114671,0.1272,0.0808011,-0.113031,-0.0184819,-0.104271,-0.0343936,-0.226765,-0.157378,-0.00890789,0.0174931,-0.331505,-0.0363014,-0.00238169,-0.15417,-0.108995,-0.329415,0.0317273,-0.0571811,-0.105092,-0.0537595,0.0172108,-0.101594,0.037288,-0.116895,0.0267875,0.177213,0.19452,-0.12486,-0.120705,-0.0393251,0.186955,0.0101441
drive,-0.163541,-0.239199,0.0821576,0.04407,0.184684,0.226574,-0.164249,0.0428459,0.216433,-0.188405,-0.206259,-0.0100495,-0.247448,0.0998032,-0.177937,-0.0006415,-0.0251023,-0.235619,-0.00319645,-0.325458,-0.0189841,0.208247,0.113052,0.0621587,-0.115442,0.0915035,-0.332378,0.379067,0.0155764,-0.0134722,0.00277479,-0.132994,-0.30649,0.236049,0.13209,0.201012,-0.173567,0.0767688,-0.223998,0.0343863,-0.0498578,-0.0427981,0.00879624,0.0919491,-0.152056,0.0528588,-0.263826,0.0562239,0.0889938,0.104685
kill,-0.228972,-0.0498405,-0.175873,-0.296472,0.206753,0.0493403,-0.178883,-0.124835,-0.0200068,-0.241629,-0.197323,0.0596261,0.0195954,0.173333,-0.0706642,0.124996,-0.193667,0.104957,-0.034923,-0.149215,-0.0125118,0.0702749,-0.0162169,-0.0243076,-0.329975,0.127577,0.132084,0.0927568,0.113782,-0.155306,-0.0711976,0.00995004,0.012813,-0.149772,0.123512,0.0260893,-0.217774,0.0413853,0.173261,0.0392374,0.111321,0.10373,-0.0029771,0.103631,-0.136439,-0.0998707,-0.223738,0.0215737,-0.0816322,-0.204415
raise,-0.1065,-0.0828229,0.0554118,-0.0470703,0.19672,-0.0473776,-0.231731,0.00225728,-0.061041,-0.120048,0.202614,0.215898,-0.243567,0.00655599,-0.133179,-0.231092,0.0427362,0.0773736,0.185783,0.0218612,-0.174408,0.279076,-0.221593,0.0707502,-0.290554,0.153407,0.0771385,-0.0734214,0.051238,0.0016791,-0.194049,0.0679015,-0.0463716,0.0800866,0.0390769,0.202489,-0.27137,-0.117256,-0.308688,0.294298,0.0739543,0.0206986,0.140543,0.142177,-0.213876,-0.0420881,-0.202834,-0.0788359,-0.0654728,0.172327
public,0.11748,-0.0820366,-0.153731,0.122192,0.108503,0.000306319,0.144259,-0.26599,0.231009,0.378704,0.0459369,-0.22039,-0.00971988,0.0861121,-0.186179,-0.0552168,-0.0209744,0.0608747,0.0341133,0.106275,-0.190698,-0.183574,-0.118214,0.0522774,-0.16372,0.0605194,-0.0469271,-0.0228788,-0.0492616,-0.0335353,0.03977,-0.137798,-0.119046,-0.00204216,0.173329,-0.00290028,0.040763,-0.0668322,-0.118922,-0.240909,0.269059,-0.0804172,0.00130652,0.282999,0.209349,-0.292058,-0.0854648,0.0277611,0.12389,0.104895
rained,-0.315477,-0.183515,-0.0906548,0.101575,0.135373,0.149476,-0.0428557,-0.0161146,0.0409606,-0.149337,-0.144801,0.210533,0.128341,-0.119387,-0.194718,0.177742,-0.0988963,-0.0187758,0.201655,-0.218758,-0.0982005,-0.209122,0.130579,-0.285364,-0.0694112,-0.107532,0.0770582,0.206977,-0.0333609,-0.0543816,-0.145779,0.0312135,0.0482049,-0.150127,-0.04935,0.0284274,-0.0140089,0.195882,-0.179148,-0.127182,-0.0110446,0.0726335,0.158869,-0.104697,-0.0030719,0.119463,-0.232656,0.293506,-0.203447,-0.0592231
hang,0.249439,-0.196839,-0.257287,-0.219448,-0.00146461,-0.16072,0.12478,0.19853,0.203947,0.136629,0.330866,-0.324212,-0.113985,0.0469244,-0.247377,-0.0843602,0.236212,-0.312983,0.0780697,0.171622,-0.0528283,-0.197219,-0.265924,-0.305909,0.0503176,0.183914,-0.273192,-0.132359,0.34445,0.234221,-0.128871,-0.0352553,0.33534,-0.181777,0.0448351,0.0186593,0.0143116,-0.192072,-0.238735,-0.106423,0.332478,-0.120827,0.222187,-0.0304849,0.00950759,0.319625,0.0269486,0.206036,0.309716,-0.0206853
fragile,0.0674993,-0.112909,0.0567144,0.0234797,-0.170529,-0.169918,-0.162577,-0.0591342,0.038365,-0.0986521,0.0309202,0.142714,-0.222168,0.189289,-0.242498,0.232867,-0.422775,0.112624,-0.244661,0.189414,-0.0968532,-0.103824,0.0359926,-0.13151,0.18457,-0.114708,0.0866765,0.103219,0.0358092,-0.0498776,0.0714606,-0.0575923,-0.176155,0.22547,0.0437136,-0.0423786,-0.269296,-0.0176912,-0.122738,-0.0766359,0.0394569,-0.114906,-0.248861,0.0364221,0.179203,0.120199,-0.0324216,0.053569,0.0762918,0.0478773
bid,0.0579946,-0.157448,0.122335,0.183743,-0.127626,0.15881,-0.236645,0.107076,-0.0750019,0.184469,-0.0310455,0.0818624,0.0952545,0.0839124,-0.0166525,-0.23666,0.279404,-0.0175446,0.0566516,0.154968,-0.124164,0.0069972,-0.103683,0.108319,-0.202757,0.0540167,0.0605311,0.0273401,0.0234957,-0.145888,-0.0453496,0.108126,0.0159437,-0.208189,0.275416,-0.123764,0.183872,-0.00850078,-0.19546,-0.0793564,-0.141902,-0.0017607,0.0720016,0.263932,-0.263161,0.146723,0.178898,-0.0582523,0.0483404,0.281546
split,-0.0310834,-0.0579292,0.120821,0.020585,-0.0223589,0.178566,-0.136169,-0.0234586,-0.145408,0.101714,0.135167,0.122926,-0.136463,-0.00792763,-0.21724,-0.280953,-0.0750498,-0.103277,0.297203,0.00433224,-0.130099,0.0212375,0.0572589,-0.0256953,-0.411662,-0.136259,-0.0557114,0.243509,0.106264,-0.0853861,0.102778,0.00817959,0.0465495,0.0433079,0.112746,0.0325655,-0.125595,0.0366306,-0.16091,0.0274118,-0.155884,0.216845,-0.0909816,0.275805,-0.0808464,-0.138665,0.0897643,-0.00260752,-0.144997,0.167097
costume,0.107807,-0.252305,-0.00584684,-0.395476,0.0318345,-0.0181254,0.0402118,0.0144232,0.144479,0.0891533,0.123897,-0.134237,0.116018,0.0953872,-0.149566,0.0818145,-0.0738051,0.0383976,0.359031,-0.3556,0.0741327,-0.168077,-0.00929174,0.13457,0.256594,-0.0586652,-0.050676,-0.0755266,0.172323,0.210462,0.0534352,-0.00931059,0.0168859,0.0998252,-0.120962,0.000761313,-0.170847,0.0333155,0.238272,-0.0459365,-0.0772012,-0.000633418,0.0475606,0.100877,0.00566895,-0.0360637,-0.0379228,0.0845967,0.133884,0.149276
suggests,0.0972125,0.123039,0.195712,-0.195186,-0.167141,0.216594,-0.163375,-0.0822084,0.155759,0.0210849,0.0154779,-0.0254489,-0.0883886,-0.0382791,-0.137923,0.156936,-0.239417,-0.0732894,-0.24979,-0.230106,-0.180874,0.0783314,0.0554147,-0.0963468,-0.0110611,0.0988036,0.288886,0.133781,0.180134,0.0783527,-0.0435134,-0.278614,-0.0892898,0.211658,-0.0699047,-0.0445567,-0.0252162,0.129489,-0.0118412,0.0771453,0.154036,-0.0613692,0.0156724,0.209533,-0.0807974,0.120482,-0.0179042,0.166586,0.119382,-0.166432
received,0.113183,-0.155855,-0.3096,-0.0105003,-0.273306,-0.248675,-0.137451,0.0931372,-0.236149,-0.331158,-0.0814658,0.160607,-0.243462,0.148004,0.189548,-0.081448,-0.238437,-0.020538,-0.17226,-0.123448,0.30431,-0.307352,0.146854,0.115077,0.139638,-0.345175,-0.230832,-0.167616,-0.0950833,0.243339,0.233905,-0.113004,-0.0151014,-0.131717,-0.109403,-0.0831274,-0.207233,0.246861,-0.104357,0.131788,-0.168664,-0.299955,0.0763044,0.240874,0.050097,-0.339267,-0.0624024,0.0744865,-0.0912401,0.327261
pharmacy,-0.0329762,0.0915726,-0.224639,-0.0594385,-0.231752,0.193845,0.0330098,-0.183939,0.089423,0.173979,-0.22363,-0.151389,-0.33019,0.110094,0.126624,0.043723,0.00385921,0.0392687,0.101373,0.0610484,0.0958567,0.0887992,-0.124212,0.00900962,0.00717401,-0.0898086,0.00398417,0.0360945,-0.262082,-0.240283,-0.0418116,0.134275,-0.0211297,-0.0228383,-0.017058,0.237062,0.227413,0.00246394,-0.0305113,-0.139229,-0.108482,0.186913,-0.210935,0.177724,0.0106071,-0.244121,-0.119454,-0.110368,0.00964593,0.133141
image,-0.048957,0.065377,-0.221461,-0.166378,0.0322085,0.0798871,0.012533,0.218762,0.0753624,0.0140589,-0.0617943,-0.239353,0.201057,0.13517,-0.164326,0.0711076,-0.143512,-0.0774507,-0.187483,-0.162839,0.116916,-0.016084,0.113503,0.215414,0.196728,0.0882089,-0.285351,0.181455,0.0453303,0.0634939,-0.0728234,-0.0205887,0.17594,0.00764568,0.124009,-0.189476,-0.265398,-0.126184,0.160129,0.0524707,-0.0548865,-0.0269052,-0.200967,0.153547,-0.229932,-0.0314458,0.0144577,-0.00134605,0.228254,0.0716243
ills,-0.00886309,0.184153,0.0560665,0.0188782,-0.0182837,0.0719725,-0.17636,-0.241163,0.260631,0.0546732,0.0159596,-0.039007,-0.08157,0.10339,-0.0846929,-0.0281413,-0.033647,0.168684,-0.233599,-0.00745802,-0.0617192,-0.162439,0.0382756,0.121507,-0.128949,0.0869011,0.0991851,-0.0141811,0.0705061,-0.215662,0.153084,-0.0788444,-0.0559328,-0.0210828,0.117582,-0.120406,-0.520703,0.0520596,0.130502,-0.105664,0.127773,-0.128804,-0.182648,0.134381,-0.0350012,-0.0322565,-0.0449731,-0.0539697,0.17982,0.126735
initiative,0.0723063,0.0296988,-0.149222,0.148751,-0.0502517,0.100425,0.222132,0.115118,0.224514,0.177206,0.0885786,-0.378597,0.145617,-0.0105733,-0.161925,-0.175602,0.023528,-0.0150883,-0.0701406,0.131016,0.124358,0.0424097,0.0880817,0.123123,-0.241599,0.244761,0.170974,0.0233833,-0.126946,-0.0510478,0.0307463,0.0300209,0.0433262,0.144116,0.105943,-0.0603967,-0.212437,-0.121644,0.156663,-0.0518988,-0.118418,-0.120178,-0.128102,0.176971,-0.19965,0.0228465,0.0766436,-0.0727106,-0.0601049,0.299061
overhaul,0.101255,0.251069,0.0487597,0.260713,0.118371,-0.0116407,0.00826547,-0.038583,0.0363356,0.209509,0.106725,-0.174327,-0.0420421,0.134527,-0.177933,-0.203146,-0.027174,-0.0615444,0.110118,0.226686,-0.0697367,0.0631841,-0.000213778,0.0018307,-0.214938,0.0544257,-0.107373,0.0777975,-0.149114,-0.139404,0.0208503,-0.143425,-0.0763625,0.20119,0.0146516,0.00282531,-0.312459,-0.188115,0.060518,-0.0203064,-0.0330557,-0.217288,-0.0588016,0.0903725,-0.132499,-0.133708,-0.047002,-0.231767,0.038304,0.310056
complaint,-0.164175,-0.111598,0.250827,-0.0270743,-0.0292646,0.095659,0.120532,0.246331,-0.240153,0.0273771,-0.23689,-0.102477,-0.206499,0.104041,-0.0804049,-0.241767,0.355716,0.343222,0.253839,0.139124,-0.342059,-0.0119011,0.0797998,-0.181975,0.377469,-0.125837,0.284642,-0.0301854,-0.109925,0.152318,0.254709,-0.0814628,0.174052,-0.270909,-0.307496,0.297728,-0.233446,-0.0708792,-0.160692,0.0557411,-0.132087,-0.17981,0.249724,-0.0402826,-0.0296086,0.114373,-0.0677514,0.241808,0.251753,-0.00722387
convention,0.0570184,0.184153,-0.265661,-0.195864,0.118722,-0.104524,-0.182914,0.116963,0.161619,-0.296803,0.0222345,-0.28526,-0.263365,-0.287603,-0.350123,-0.212959,-0.13958,0.348705,0.363513,0.0185976,0.256434,-0.266799,0.326616,0.0657517,0.063103,-0.19968,-0.0996408,0.288249,0.200288,0.326944,0.199735,-0.187597,0.0867715,-0.222555,0.10847,-0.293511,0.116424,-0.299463,0.092517,0.226133,0.054144,0.128534,-0.139775,0.132172,-0.191724,-0.245645,-0.236963,-0.0617235,-0.267362,0.0284238
property,0.104688,0.106753,-0.0954027,-0.270408,-0.0171521,-0.0130386,-0.18994,-0.15541,0.123189,-0.236002,0.362068,0.236553,0.209209,-0.249334,-0.091104,0.150117,-0.0153878,0.0596269,-0.161786,0.0562195,0.200882,0.168483,0.149367,0.0217882,0.129314,-0.147991,0.338275,0.00720411,-0.229498,-0.382144,-0.226539,0.275612,0.133456,0.14526,-0.12053,-0.298917,-0.117117,0.117296,0.10615,0.161789,0.0501072,-0.202732,-0.238508,0.119294,0.0442209,-0.300203,0.100922,0.363413,-0.143195,-0.0954776
aid,0.381804,-0.109612,-0.236485,-0.309511,-0.00227676,-0.217672,0.0933459,0.34565,0.16696,0.161274,-0.168429,-0.122061,-0.375901,0.240249,-0.151908,-0.145394,0.219989,0.171012,0.184441,0.158292,0.085302,0.103294,-0.314469,0.349496,-0.086018,0.187851,-0.163565,-0.292092,0.148369,0.248623,0.131676,-0.12214,0.238399,0.0857593,-0.264624,0.0205529,0.0664325,0.335808,-0.219743,-0.0271142,0.0512854,0.0546038,-0.272143,-0.300456,-0.33464,-0.166391,-0.167679,0.208317,-0.249413,-0.103111
aims,0.184543,-0.136599,-0.0401254,0.263605,0.274342,-0.149769,0.217338,-0.0357532,-0.26747,-0.137382,-0.011871,-0.0698663,0.0484086,0.00903476,-0.0727376,0.143711,0.0427546,-0.288572,0.335944,0.0904661,0.218625,0.263187,0.0881663,0.216252,0.104636,0.0353624,-0.148282,0.254748,0.0980351,0.180866,0.214913,0.329326,0.0836951,0.166797,0.259336,-0.131308,-0.0236991,0.0120329,0.0240336,0.209632,-0.198754,0.311367,0.0851942,-0.181929,0.0587872,0.323815,-0.173161,0.112419,-0.248122,-0.0661622
gasoline,-0.11166,0.0199493,-0.0879902,0.101639,-0.110234,0.18825,-0.086582,-0.143775,0.104296,0.0190401,-0.0369851,-0.258057,-0.0822165,0.172744,0.031961,0.162476,-0.0865519,0.164662,0.170392,-0.212443,0.165693,0.143877,-0.0155954,0.00904385,0.0095609,-0.179856,-0.0843537,-0.252413,-0.0761502,0.113255,0.0345888,0.100452,-0.135516,0.100672,0.118498,-0.0353942,0.233472,0.112091,-0.0418369,0.154691,-0.0486702,-0.240683,0.0256097,-0.0522401,0.0976989,0.293691,0.0790946,-0.0251425,-0.0704364,-0.0826904
air,-0.188811,-0.322584,0.119413,-0.264624,-0.344481,0.0288262,0.261633,0.203226,0.362477,-0.0815367,-0.239884,0.14258,-0.0599106,0.148797,0.238255,0.0347155,-0.348601,-0.134021,0.145719,-0.17257,-0.332503,-0.246765,-0.277254,-0.0196701,-0.279819,0.0221998,-0.151204,-0.161793,-0.0156484,-0.0885049,0.30677,-0.243663,0.234401,0.296213,-0.193835,-0.215516,0.0971121,0.110156,0.0377109,0.130189,0.0551843,-0.175853,-0.0824476,0.0495722,0.0144579,-0.274338,0.256668,-0.210536,-0.111676,0.22685
affirms,0.0652899,-0.0351969,0.0165287,0.0321693,0.110698,0.131145,0.0139954,-0.0509319,-0.143419,0.235735,0.112072,-0.149271,-0.105713,-0.114926,-0.075721,0.0573559,-0.115964,-0.215566,-0.190669,-0.0604852,-0.270758,0.190911,0.0952008,-0.147554,0.159099,0.22392,0.137936,0.281146,0.100321,0.00601284,0.0667744,-0.0199298,-0.127207,-0.0543153,-0.337993,-0.267183,0.0512295,-0.0833094,-0.143134,0.0789863,-0.172071,0.0923693,0.107818,0.0679739,-0.00977403,-0.00555735,0.183126,0.293763,-0.10104,0.117383
dashed,-0.166274,-0.0676376,0.0901139,-0.152798,0.0804674,0.150713,-0.0555125,-0.108303,-0.0171478,-0.251386,0.107926,0.158223,-0.0965123,-0.143472,-0.444353,0.146869,0.0530768,-0.310637,0.116096,-0.0552133,-0.122715,0.00621029,0.115417,-0.0232337,0.0442533,-0.0630226,0.0867167,0.259502,-0.0228876,0.0197082,-0.0427463,-0.0523852,-0.0817398,0.028449,0.00124955,0.0703118,-0.0577601,0.201701,-0.222306,-0.0551881,0.0974376,-0.196043,0.17276,0.233326,-0.0408267,-0.0403808,-0.20072,0.00650243,0.127767,0.0236024
monsters,0.01231,-0.236433,-0.0838936,-0.427533,0.300232,0.04951,-0.0873238,0.0920589,0.240786,-0.0101737,0.0881603,-0.0139509,0.136338,-0.0539759,0.0161297,0.145516,0.0213733,0.0359295,0.045028,-0.220507,0.123669,-0.141493,0.0708508,0.217873,-0.117227,-0.154239,-0.0340455,-0.0208841,0.364069,0.0542847,0.110701,-0.0196662,0.0115635,0.15495,0.059529,-0.0851445,-0.164682,-0.117752,0.0113191,-0.200897,-0.0396111,-0.0622715,0.0315339,0.145146,-0.0407189,0.0632691,-0.0279826,0.0251829,0.164817,-0.08168
spin,-0.0454307,-0.0921401,0.122669,-0.0884675,0.166818,0.231953,0.00420147,0.123958,0.155943,0.0379907,-0.19332,0.157352,-0.0302509,-0.024078,-0.0992095,-0.0180302,-0.0424357,-0.185616,0.177695,-0.0264593,-0.0474895,0.308509,-0.178837,0.027878,-0.220173,-0.347897,-0.191303,0.309336,0.127974,-0.00361243,0.0251253,0.0883897,0.0045484,0.109619,0.0910376,-0.0220302,-0.0294118,0.0253949,-0.19599,0.00284721,-0.118132,0.187145,-0.118522,0.0640554,0.00267704,-0.219917,-0.0220645,-0.0184202,-0.136706,0.244184
spike,-0.24045,-0.073128,0.021221,-0.0438397,-0.0252941,-0.027096,-0.0517966,-0.244382,0.202761,-0.175685,-0.05774,0.119588,-0.214547,-0.145489,0.154318,0.144501,-0.169584,0.132444,0.169018,-0.144602,0.0767012,0.0227421,-0.0676313,-0.0582398,-0.17359,-0.110916,0.0509684,0.000690534,0.201202,0.0584656,0.0481456,-0.159456,-0.0931178,0.231713,0.182565,0.0882269,-0.126317,-0.174483,0.152626,0.0812726,-0.0693974,-0.22034,-0.0394792,0.0757005,0.0417513,0.224704,-0.0916476,0.272817,0.260947,0.108925
spice,-0.100427,-0.0901399,0.050771,-0.397142,0.0875785,0.186306,0.00258734,0.0189477,0.197629,0.00405922,-0.176575,-0.0620627,0.0421653,0.146159,-0.292874,0.197292,0.0170658,0.169118,0.128622,-0.27503,-0.265318,-0.0361692,-0.118165,0.0934298,0.0322906,0.0249297,-0.0908436,0.00759899,-0.215122,-0.0183249,0.101497,0.0995829,0.17159,-0.148985,-0.00313924,0.0701161,0.101519,-0.123541,-0.00346556,0.0375863,-0.00252636,-0.0673921,-0.201766,-0.0352342,0.108449,-0.00181105,0.0258239,0.253756,0.0346666,-0.0973027
lift,-0.00131421,0.0735893,0.32041,-0.101252,0.165214,0.119249,-0.040879,-0.129446,-0.0710123,-0.172869,-0.257758,0.220004,-0.0736989,-0.129086,-0.171742,0.150639,-0.0939081,-0.0742029,0.18336,-0.300501,-0.139517,-0.1652,0.105815,0.0611954,0.135582,0.264156,0.0462442,0.161875,-0.0678037,0.0816273,0.13453,0.0984828,-0.210506,0.158976,-0.0475999,-0.0950369,-0.0971431,-0.0339508,-0.206013,0.0874352,0.0517734,-0.284392,0.132642,-0.0250413,0.0103483,0.0254892,-0.294797,-0.0392028,-0.0363735,0.0856351
advertising,-0.0584152,-0.0086262,-0.0847106,-0.0202107,-0.117765,0.28232,-0.080693,0.0162433,0.172336,0.195996,0.00726954,-0.388192,-0.0903903,0.213273,0.20808,-0.0419773,0.135607,-0.129827,-0.0336947,0.0203213,0.0902143,-0.00782815,-0.0742342,0.124317,-0.225033,0.0335909,-0.222793,0.0561977,-0.176708,0.251715,0.147931,0.0239474,0.0296596,-0.0361232,-0.0835183,0.101887,0.112216,0.0783452,-0.134394,-0.143247,0.0942328,-0.0670602,-0.146895,0.0581987,0.0580191,-0.0636132,-0.326948,0.102336,0.197347,0.178618
revenue,0.0130555,0.131066,0.174304,0.00245122,-0.0278332,0.195043,-0.221092,0.159699,-0.156589,0.352005,-0.049127,-0.171131,-0.201278,0.236639,0.139526,-0.0107379,-0.00239623,0.106136,-0.0870239,-0.131576,0.094618,-0.00912635,-0.363149,0.175663,0.145059,-0.236525,-0.0941871,-0.111356,-0.174787,0.256487,0.134026,0.0829753,0.119427,0.105139,0.203403,0.157906,-0.122933,0.0274119,-0.0469262,-0.118115,0.0348124,-0.296785,-0.208381,-0.17774,-0.12347,-0.105645,-0.00983243,-0.0729903,0.032035,-0.013224
counterattack,-0.0997373,-0.0914927,0.00594734,-0.0226319,0.0860646,0.212871,0.269872,0.204938,-0.0183617,-0.0747682,-0.186867,0.124247,-0.192792,-0.0742671,0.088085,0.0319088,-0.037713,-0.246128,0.125635,0.111544,0.342878,-0.0848887,0.150212,-0.018706,-0.186665,-0.226046,0.24047,0.134306,-0.0565435,-0.0602836,0.0253998,0.00188914,0.209669,0.16927,0.0935409,-0.0243374,0.0437048,-0.126075,-0.142089,-0.167769,-0.0321439,-0.320227,0.0274938,0.0250454,-0.211937,-0.176561,-0.0291441,0.0914088,-0.0664905,0.0340678
tragedy,-0.161026,-0.102095,-0.203501,-0.0212266,0.155339,-0.0844411,0.0967295,-0.154949,0.271827,-0.0602735,-0.0659745,-0.141719,0.268022,0.119746,0.0298637,0.166322,-0.265447,0.0968445,-0.157202,-0.0796385,0.121575,-0.0665685,0.128034,-0.0371356,-0.0381978,-0.190011,0.107629,0.0902643,0.175913,-0.20607,0.0522658,0.0249329,0.0521793,0.00209753,0.0741396,-0.135008,-0.364955,-0.0718059,0.0489612,-0.20602,-0.0159016,-0.0590336,-0.0378483,0.166008,-0.141758,-0.0434624,0.0431438,0.112329,0.11394,0.226357
tiny,0.036207,-0.204053,0.0252392,-0.399054,0.113328,0.0371647,-0.00152166,0.0250494,0.088118,-0.0770007,-0.169773,-0.0660215,0.0941543,-0.0274811,-0.199679,0.00925561,-0.200824,0.111214,0.268257,-0.425704,-0.0402056,-0.0712901,-0.0208918,0.07957,-0.0753931,0.00279967,0.129469,0.0291205,-0.0483156,-0.0252347,0.0205305,0.04582,0.0146841,0.0371259,0.0495728,-0.0972006,-0.152943,0.156026,0.0366947,-0.0636019,0.271662,-0.00494571,-0.275761,0.217351,0.120444,0.00473301,-0.139024,0.18278,0.0815655,0.00787352
free,-0.0538766,-0.186264,0.0141552,-0.181294,0.0842013,0.163201,0.216475,0.0832751,-0.022386,0.255926,-0.0524466,-0.0327456,-0.0787546,0.204025,0.0370882,-0.105959,0.0678097,-0.0666886,-0.00285837,-0.101036,-0.00143114,-0.124893,-0.0435261,0.119275,-0.011764,0.188837,0.319642,-0.107229,-0.0281992,0.203416,-0.00243813,0.18937,-0.17367,-0.0617,-0.135768,-0.121933,-0.0234642,-0.0875681,-0.105987,0.0818322,0.0691168,-0.220697,-0.0379665,0.263184,0.109838,-0.113261,-0.28662,0.157865,-0.0665631,0.140232
trust,0.160798,-0.053524,0.00643934,-0.111086,0.0897767,-0.298349,0.114813,0.00471342,0.104319,0.401092,0.0164604,-0.0277664,0.0699029,-0.0390597,0.0229834,-0.277597,-0.137766,0.149705,-0.198537,-0.0870813,-0.0556461,0.0433172,-0.0800072,0.176673,-0.0651796,0.0570169,-0.130232,0.161114,0.0380082,-0.203717,-0.12988,0.101764,-0.115354,-0.0103269,0.0609969,0.0296783,-0.0661797,-0.00368569,-0.16104,-0.252785,0.0340664,0.159101,-0.131169,0.352528,-0.0863261,-0.0847778,0.0530457,-0.135115,-0.126162,0.116785
jobless,0.0400127,0.0173785,0.0810283,0.12515,-0.230389,0.0378292,-0.0346531,0.0199025,-0.135884,-0.0662333,-0.0173635,-0.276029,-0.0136508,-0.160696,0.120728,-0.0646224,-0.270192,0.20772,-0.0425459,0.113363,0.0758402,0.158737,-0.0613085,-0.263772,0.322262,0.0776782,0.286852,0.0187365,0.0682282,-0.124223,0.166836,0.0221734,-0.185203,-0.134971,0.26237,0.164852,-0.00681691,0.168076,-0.26271,-0.163843,0.25123,-0.0926485,0.200109,-0.0326574,-0.139613,-0.121252,0.0391276,-0.0769191,0.0724069,-0.208379
foray,-0.281034,0.16401,-0.0416705,-0.00867896,-0.0162434,0.177675,-0.128143,0.195784,0.256432,0.00616592,0.0396636,-0.0680057,0.0918159,-0.047305,-0.0838415,-0.17962,-0.0268718,-0.0851298,0.0553508,-0.0991434,0.23555,-0.0370776,0.248942,0.243968,-0.082107,0.0156292,-0.115376,0.412063,0.072712,-0.0116535,-0.046408,-0.0224236,-0.141135,0.0579091,0.224267,0.0825859,-0.146863,-0.109656,-0.0326659,-0.111366,-0.0255945,0.14329,-0.153325,0.0111153,-0.0370474,-0.0939165,0.0577139,0.09084,0.0339821,0.284558
guilty,-0.00417076,0.037346,-0.0588878,-0.157482,-0.152993,-0.457062,-0.202021,0.137149,0.0911991,0.0087511,0.30587,0.0296868,0.0782082,0.138829,0.249577,0.0167397,0.0123189,-0.0565618,0.258582,0.0345074,0.330441,-0.0191645,0.0709017,-0.245077,-0.167694,-0.000741743,0.0182001,0.0288394,-0.216566,0.0414112,-0.141135,0.00679732,-0.178138,-0.224033,0.0953476,-0.0117178,-0.0764058,0.1219,-0.000412727,-0.0388112,-0.120467,-0.0545687,0.0238388,0.131577,0.0117685,-0.10059,-0.0953395,-0.026293,-0.0739706,0.098873
25%,-0.0531037,-0.0874648,0.270901,0.0609195,0.221961,-0.166514,-0.0759319,0.310218,0.184488,0.263812,0.33897,0.0717559,-0.178074,0.078031,0.0385056,-0.0546919,0.207855,0.246275,0.375309,-0.0935903,-0.201921,-0.193046,-0.295494,-0.261589,-0.213394,0.191682,0.178531,-0.251502,0.137657,0.206324,0.0539813,-0.334418,-0.258711,0.270409,-0.0347125,0.233547,0.0163226,0.0475784,-0.1882,-0.25373,-0.0686401,-0.0821435,0.212894,0.0213681,-0.0895375,0.109765,-0.0480972,0.339815,0.0998937,0.32823
tough,0.0451722,0.103114,0.0745178,0.115634,-0.147096,-0.0491982,0.0313863,0.0120763,0.186523,-0.0396374,0.0340412,0.192275,-0.129174,0.363701,-0.259167,0.229218,-0.0764837,0.0690304,0.0136997,-0.160972,-0.29355,0.0224032,0.18751,-0.296789,-0.15538,0.0622258,-0.144186,0.0398343,0.0770768,-0.0628898,-0.0883511,0.0665737,-0.0993043,-0.0400025,-0.00423816,0.159416,-0.157168,0.0630824,-0.0573152,-0.337706,0.0223152,-0.244866,-0.160452,0.0607897,0.0544266,0.0216289,-0.00344979,0.11574,0.197528,0.133392
year-end,0.154795,0.0349874,0.183026,0.075713,-0.00722727,0.266573,-0.0929189,0.0908358,0.000831653,0.0235186,0.143582,0.316062,-0.15439,-0.225902,0.161363,0.00848646,0.210816,0.113928,0.110407,-0.0522942,-0.112409,0.136749,-0.0836536,-0.188231,0.131792,-0.0332269,0.0912701,-0.215821,0.081321,0.181235,0.234767,-0.0230639,0.101924,0.187855,0.175487,0.13617,-0.056101,0.0523537,-0.101884,0.131863,0.0671634,-0.0300053,0.101615,0.0274128,-0.199482,0.0294446,0.0462069,0.150065,-0.20097,-0.203737
coming,0.00877533,-0.201831,-0.165294,0.0295623,-0.195951,0.127874,0.0941827,0.148532,0.0808105,0.078422,0.185366,0.0858062,-0.000663107,0.0338721,-0.0550496,-0.0560773,-0.051469,-0.0564047,-0.155686,0.153678,0.108684,-0.0204197,0.128118,-0.0295213,0.0796632,0.0394735,-0.154852,0.00759557,0.0575869,0.0679994,0.0256271,-0.348624,0.447791,-0.0369851,0.0166055,-0.0580029,-0.0383244,-0.299025,0.0402117,-0.137515,0.0613821,-0.0432436,0.0512746,0.269085,-0.0293799,0.0894423,0.138554,0.0962076,0.110777,0.192294
code,0.0552149,0.2757,-0.112453,-0.0721592,0.104102,-0.0126898,0.11894,0.0409365,0.0419851,0.244426,-0.0927041,-0.318739,0.0906569,0.266524,0.096506,-0.285047,-0.099116,-0.0286908,0.245242,0.0226157,0.0406908,0.0815027,-0.134476,-0.0122653,-0.0410998,0.127594,0.0653704,0.0680639,-0.017006,0.194662,0.00975781,-0.101256,-0.00191353,0.0712688,-0.0306616,-0.0787189,-0.161039,-0.0437061,0.15578,-0.0925461,-0.0521111,-0.183575,-0.0888235,0.31718,-0.0544296,-0.0981405,0.173557,0.126698,0.0410556,0.288538
brakes,0.193413,0.176285,-0.0388248,0.0309887,0.0297534,-0.0932292,0.203621,0.0218514,0.10973,-0.0260657,-0.221387,0.100105,-0.040221,0.0993682,0.00686713,0.0750479,-0.1127,-0.0307659,0.169194,-0.0759774,0.305358,0.0231017,-0.134829,0.056026,0.140267,-0.133587,-0.0945673,-0.0987617,-0.07874,-0.0304301,0.0863113,0.17825,0.0159897,0.304006,-0.0124362,-0.293835,0.00701029,0.0459552,0.0877017,-0.0228533,0.119002,-0.357553,-0.0744699,0.273282,-0.0169254,0.133702,-0.0898405,-0.0250937,0.125864,0.0646039
brace,0.0188566,-0.0703579,-0.00262293,-0.0215315,0.158542,0.182027,-0.337638,-0.105892,-0.146082,-0.139838,-0.173849,0.232431,-0.0780196,0.204588,-0.325711,0.0701993,-0.198119,-0.0717505,-0.00884409,-0.0500331,0.0129487,-0.0237424,0.0898928,0.119559,0.0366846,-0.0547381,-0.0434062,0.167522,0.172622,-0.0204277,-0.0869098,-0.27853,-0.022604,-0.101508,-0.0950153,0.196519,-0.071978,0.0137765,-0.264858,0.00700557,0.000118087,-0.0614127,0.106419,0.179241,-0.180125,0.16268,-0.143525,-0.0689023,0.230761,0.044099
unemployment,0.069967,0.164763,-0.0468134,0.0523197,-0.20673,0.183456,0.137159,0.0476372,-0.10409,0.0172011,-0.0502471,-0.150885,-0.256279,-0.0231307,-0.0366487,-0.0346011,-0.103974,0.383426,-0.103061,0.0641069,0.123672,0.0072832,0.0612321,-0.169341,0.137253,-0.00698557,0.221051,-0.0469921,-0.0247942,-0.145865,0.121043,0.0370749,-0.130389,0.137601,0.136303,0.136978,-0.0725604,0.190296,-0.222129,-0.0556315,0.26006,-0.191597,0.0497556,-0.107372,-0.0936004,-0.191222,0.141392,-0.206902,0.0637584,-0.102931
coverage,-0.0619689,0.016317,-0.0627815,0.0558688,0.0324269,0.275185,-0.0852954,-0.307237,0.0348752,0.2011,-0.108537,-0.110647,0.0516737,0.03996,0.134042,-0.109958,0.0751927,0.16247,-0.200931,-0.0225006,0.0888817,0.0324018,-0.325965,-0.00225958,-0.105879,0.0743965,-0.0539851,-0.050078,-0.148526,-0.0666299,-0.117968,-0.0659866,-0.0459424,0.194986,-0.110587,0.157182,0.0961893,-0.11487,0.243102,-0.288079,-0.0325342,0.0473444,-0.134667,0.41598,-0.123511,-0.119172,-0.0169333,-0.0104405,0.0243119,0.0536454
core,0.0529707,0.0225693,0.254746,-0.0834806,-0.0358576,0.109629,0.0158284,-0.191118,-0.0971453,0.0656647,-0.109555,-0.0775631,-0.329207,0.132419,-0.0958143,-0.0985964,-0.136211,0.0690695,0.0405556,-0.250834,0.0256462,0.0650381,0.0425459,0.113823,0.0115111,0.0636962,0.10888,-0.114219,-0.145109,0.128513,-0.0359991,0.0160533,0.188379,0.359744,-0.0299251,-0.0755851,-0.303104,-0.184606,-0.0118261,0.0664175,-0.000550294,0.0259788,-0.281556,0.166885,0.0650661,0.0998195,0.191156,0.239436,-0.276468,0.0115929
protection,0.0725255,0.00247872,-0.166082,-0.0174194,0.101797,-0.0392034,-0.137501,-0.178337,0.0191878,0.368588,0.0712814,-0.0260498,-0.0992643,0.0189829,0.00438669,-0.275354,-0.206686,0.191927,-0.0114224,0.0129409,0.144373,0.0111582,-0.198462,0.118234,-0.0244044,0.0466092,0.0636723,0.159824,-0.0402588,-0.135792,0.0566736,-0.0726119,-0.286316,-0.065569,-0.203818,-0.25417,0.0196078,-0.105073,0.119486,-0.0865557,-0.221489,-0.00428242,-0.114703,0.0916841,-0.117451,0.0242155,-0.153963,-0.303854,0.110977,0.0767567
copy,0.0859087,-0.12861,-0.0796974,-0.178879,0.145953,0.154264,0.10267,0.143207,0.158559,0.373458,0.157119,-0.183031,0.152693,-0.0371723,0.135738,-0.0393924,-0.0651678,-0.0012932,0.111522,0.144611,0.121839,0.138855,-0.119095,-0.031097,0.134874,0.118032,0.040735,0.0684944,-0.0719253,0.210177,-0.14894,-0.145968,0.10102,-0.155161,-0.239747,-0.268948,0.0757395,0.0197251,0.241463,-0.104388,0.137903,0.150053,0.138133,0.194927,-0.131081,0.0909803,-0.0617481,-0.0190931,0.0323735,0.0763955
boss,-0.123816,-0.0140308,0.0710651,-0.301157,0.0765259,-0.155051,0.211765,0.29166,0.206358,0.0768905,0.122309,0.0121835,0.23653,0.206275,-0.13093,-0.0281552,-0.0709052,-0.0692503,-0.0259826,0.0384185,0.0518528,0.0135889,0.232228,-0.0463726,0.0705915,-0.11714,-0.269255,0.0778922,0.0628393,-0.182509,-0.0780616,-0.0795378,0.0773791,-0.0788483,-0.031469,0.0842045,-0.059667,0.145088,0.189417,-0.131468,0.0136306,-0.192725,0.0638593,0.305324,0.00911887,-0.280087,-0.0539215,0.0554104,0.0621029,0.0997694
debt,0.117793,-0.186366,0.139421,-0.0474649,0.208131,0.0132529,0.270043,0.109688,0.108252,0.0239742,0.153524,0.00451108,-0.288531,-0.213583,0.263631,0.289023,-0.218352,-0.140946,0.155288,-0.139667,-0.162366,-0.290062,-0.301008,-0.026533,-0.219945,0.139199,-0.240934,0.0433505,0.162423,0.0996955,-0.0632289,-0.275483,0.0805651,-0.299121,0.108142,0.203941,0.118215,-0.273746,-0.0370473,0.132436,0.110364,0.177684,-0.241042,-0.268669,-0.203504,-0.165316,-0.085812,-0.141885,0.0255737,-0.25311
extend,-5.76529e-05,-0.143776,0.325147,0.0732403,-0.107746,0.168151,0.229318,0.151955,0.0846102,0.0688382,0.0786869,-0.140961,0.0137821,-0.159265,0.0575777,-0.323169,0.186741,-0.0303347,-0.327695,0.316759,-0.0300115,0.0779758,0.0074556,0.0419616,-0.169852,0.290689,0.261878,0.212556,0.00895142,0.282182,0.0942356,-0.00779405,0.046172,-0.302417,-0.148844,0.193185,-0.236881,-0.3073,-0.195623,-0.233107,-0.21846,-0.157147,-0.0618262,-0.00763617,-0.262341,-0.140505,0.11364,-0.344466,0.319253,-0.111541
weak,0.123691,0.0799347,-0.061778,0.0930967,-0.311815,-0.274601,-0.290118,-0.0437849,-0.0602359,-0.151822,-0.0539014,0.122612,-0.275905,0.0954611,-0.171967,0.0332628,-0.381866,0.12101,0.0332081,-0.200518,-0.0753795,0.170378,-0.140576,-0.0525561,0.106438,-0.0625312,-0.152621,-0.113908,0.123123,0.0796145,-0.0577904,0.00207293,-0.0180025,0.205046,-0.035069,-0.154555,-0.0860057,-0.121037,-0.151546,-0.169126,0.0644282,-0.167102,-0.0786296,-0.117872,0.146118,0.118346,-0.150261,-0.0514034,0.141752,-0.218554
accord,-0.0888816,-0.0251894,-0.120506,0.169466,-0.12797,-0.0592414,0.0355792,0.142296,0.0298731,0.216593,0.0679392,0.0174528,0.00731441,-0.0297424,-0.075708,-0.411916,0.0588925,-0.00913458,0.0920028,0.12616,0.0843806,-0.11432,-0.054422,0.14649,-0.0217495,-0.00334122,0.234526,0.00558585,0.0171121,-0.224219,0.168893,0.154627,-0.0247217,0.0174685,0.0308677,-0.195019,-0.0466247,0.0408781,0.0445669,-0.0194259,-0.0326989,0.0409956,0.0625373,-0.0380842,-0.371505,0.109616,0.20799,-0.213625,0.0420288,0.381497
$60,-0.273572,0.243318,-0.351288,0.282467,0.16542,-0.171704,-0.117127,-0.00840338,-0.191208,-0.338373,0.322644,0.311838,0.0498328,0.183622,0.162524,0.084782,0.160057,0.317059,0.347264,0.158703,0.0533179,-0.190891,0.278067,-0.0351847,-0.200296,0.253057,-0.192532,0.0783113,-0.00350292,0.0557831,0.218778,-0.0152902,0.346326,0.275814,-0.0217753,-0.1096,0.0913356,0.0444907,0.0214971,0.0747273,0.118412,-0.315952,-0.185475,0.198454,-0.145289,0.267667,0.332564,-0.180308,0.352442,-0.26404
awakens,0.0284972,-0.211468,-0.0708994,-0.373959,0.210836,0.12539,0.0439928,-0.157246,0.0198233,0.0303478,0.0418963,-0.0619186,0.0298056,0.0215196,-0.0567065,0.215847,-0.320291,-0.083083,0.07225,-0.299646,-0.267216,-0.0184589,0.0404146,-0.0366774,-0.0210218,0.292654,-0.104074,0.195493,0.0851132,-0.159706,-0.0040051,0.11836,-0.0287962,-0.0706768,0.0558143,-0.06759,-0.0314311,-0.0828733,-0.132197,-0.237036,0.0841295,-0.01781,0.153053,0.106449,-0.0616599,-0.067088,-0.119934,0.0986469,-0.016599,-0.0972614
